<?xml version="1.0"?>
<opencv_storage>
<my_svm type_id="opencv-ml-svm">
  <svm_type>C_SVC</svm_type>
  <kernel><type>RBF</type>
    <gamma>8.</gamma></kernel>
  <C>10.</C>
  <term_criteria><epsilon>1.1920928955078125e-007</epsilon>
    <iterations>2147483647</iterations></term_criteria>
  <var_all>64</var_all>
  <var_count>64</var_count>
  <class_count>10</class_count>
  <class_labels type_id="opencv-matrix">
    <rows>1</rows>
    <cols>10</cols>
    <dt>i</dt>
    <data>
      48 49 50 51 52 53 54 55 56 57</data></class_labels>
  <sv_total>947</sv_total>
  <support_vectors>
    <_>
      0. 0. 0. 0. 1.81135863e-001 2.27383316e-001 1.05983745e-002 0. 0.
      0. 7.70790875e-003 1.89807251e-001 2.43762612e-001 1.31997943e-001
      2.43762612e-001 0. 0. 9.63488594e-004 1.74391434e-001
      2.18711913e-001 1.10801190e-001 7.22616464e-002 2.32200757e-001 0.
      0. 1.51267707e-001 1.74391434e-001 3.95030305e-002 0. 0.
      2.28346795e-001 0. 9.63488594e-003 2.38945171e-001 0. 0. 0. 0.
      2.29310289e-001 0. 5.58823384e-002 2.05223069e-001 0. 0. 0.
      4.33569849e-002 2.26419821e-001 0. 5.68458289e-002 1.98478654e-001
      0. 0. 1.24290027e-001 1.94624692e-001 9.63488594e-004 0.
      4.43204753e-002 2.42799133e-001 2.23529354e-001 2.37981677e-001
      1.21399567e-001 0. 0. 0.</_>
    <_>
      0. 0. 0. 0. 0. 1.06786773e-001 2.27034062e-001 4.66631278e-002 0.
      0. 0. 1.97420921e-002 2.05497235e-001 2.25239322e-001
      1.83960408e-001 1.55244634e-001 0. 0. 8.07631016e-002
      2.23444596e-001 2.20752493e-001 2.24341959e-001 8.52499455e-002
      1.55244634e-001 0. 7.71736354e-002 2.23444596e-001 8.43525752e-002
      1.05889402e-001 6.55078515e-002 2.33315639e-002 1.54347271e-001
      5.38420677e-003 2.13573545e-001 0. 0. 0. 0. 1.79473567e-003
      1.56141996e-001 1.16657816e-001 2.20752493e-001 0. 0. 0. 0.
      1.47168323e-001 1.43578857e-001 1.17555186e-001 2.26136699e-001 0.
      0. 1.79473567e-003 1.84857771e-001 2.00113028e-001 1.79473567e-003
      0. 1.55244634e-001 2.26136699e-001 2.25239322e-001 2.16265649e-001
      8.52499455e-002 0. 0.</_>
    <_>
      0. 0. 0. 0. 2.17927635e-001 2.17066273e-001 9.13056508e-002 0. 0.
      0. 0. 1.82611302e-001 2.17927635e-001 2.09313899e-001
      2.17927635e-001 0. 0. 0. 1.30067483e-001 2.17066273e-001
      5.08210696e-002 5.34051917e-002 2.18789011e-001 0. 0. 0.
      1.72274813e-001 2.16204897e-001 0. 1.46433592e-001 2.17927635e-001
      0. 0. 1.98116042e-002 2.18789011e-001 3.44549641e-002
      2.58412212e-003 2.05868408e-001 1.44710839e-001 0. 0.
      1.01642139e-001 2.17066273e-001 2.75639705e-002 9.64738950e-002
      2.16204897e-001 4.30687051e-003 0. 0. 1.02503516e-001
      2.18789011e-001 1.13701381e-001 2.18789011e-001 6.89099282e-002 0.
      0. 0. 6.20189346e-002 2.17066273e-001 2.16204897e-001
      1.16285503e-001 1.72274816e-003 0. 0.</_>
    <_>
      0. 0. 0. 0. 9.14699659e-002 1.86391622e-001 6.90339366e-003 0. 0.
      0. 0. 4.40091342e-002 2.18319818e-001 2.16593981e-001
      8.54294971e-002 0. 0. 0. 5.43642268e-002 2.17456907e-001
      2.13142276e-001 1.76036537e-001 2.19182745e-001 0. 0.
      4.05574366e-002 2.01061338e-001 1.51874661e-001 2.24360302e-002
      1.22535236e-001 2.18319818e-001 0. 0. 1.50148809e-001
      1.95883796e-001 3.45169683e-003 0. 8.80182683e-002 2.13142276e-001
      0. 0. 2.16593981e-001 1.83802858e-001 1.72584841e-003
      2.24360302e-002 1.55326352e-001 7.59373307e-002 0. 0.
      2.18319818e-001 1.75173610e-001 1.09591372e-001 2.11416438e-001
      1.68270215e-001 0. 0. 0. 2.01061338e-001 2.17456907e-001
      2.16593981e-001 1.63092673e-001 1.46697117e-002 0. 0.</_>
    <_>
      0. 0. 0. 5.53687587e-002 1.68445796e-001 1.97299942e-001
      1.97299942e-001 8.42228979e-002 0. 7.79841677e-004 1.53628811e-001
      1.97299942e-001 1.98079780e-001 1.93400741e-001 1.95740268e-001
      1.35692447e-001 0. 8.65624249e-002 1.97299942e-001 1.61427230e-001
      4.91300263e-002 7.79841691e-002 1.61427230e-001 1.35692447e-001 0.
      1.95740268e-001 1.61427230e-001 0. 0. 0. 1.80143431e-001
      1.35692447e-001 6.31671771e-002 1.96520105e-001 2.65146177e-002 0.
      0. 0. 1.15416571e-001 1.35692447e-001 1.00599580e-001
      1.92620888e-001 0. 0. 0. 1.55968335e-003 1.54408649e-001
      1.13856882e-001 6.31671771e-002 1.92620888e-001 0. 0. 0.
      1.39591664e-001 1.97299942e-001 3.89920846e-002 3.04138251e-002
      1.97299942e-001 1.97299942e-001 1.97299942e-001 1.98079780e-001
      1.73124850e-001 3.89920827e-003 0.</_>
    <_>
      0. 8.14446481e-004 1.15651399e-001 1.92209363e-001 1.42528132e-001
      1.17280290e-001 1.22166974e-002 0. 0. 6.43412694e-002
      2.06054956e-001 2.06054956e-001 2.02797174e-001 2.06054956e-001
      2.06054956e-001 8.14446481e-004 0. 2.06054956e-001 2.06054956e-001
      1.67775974e-001 1.62889296e-003 8.87746662e-002 1.89766034e-001
      2.76911799e-002 8.55168775e-002 2.05240518e-001 1.09135829e-001
      8.14446481e-004 0. 0. 1.36827007e-001 1.40899241e-001
      1.18094742e-001 2.01982722e-001 0. 0. 0. 0. 0. 1.42528132e-001
      1.17280290e-001 2.02797174e-001 8.95891152e-003 0. 0. 0.
      1.38455899e-002 1.41713694e-001 1.54744834e-002 2.06054956e-001
      1.87322691e-001 2.28045024e-002 0. 0. 1.77549332e-001
      9.85480249e-002 0. 9.77335777e-003 1.65332630e-001 2.04426065e-001
      1.99539393e-001 2.00353831e-001 1.53930381e-001 0.</_>
    <_>
      0. 0. 0. 0. 1.12028427e-001 1.93364143e-001 6.21527582e-002 0. 0.
      0. 2.30195411e-002 1.89527541e-001 1.94131449e-001 1.92596823e-001
      1.94131449e-001 6.29200786e-002 0. 0. 1.62671417e-001
      1.93364143e-001 1.94898769e-001 1.93364143e-001 1.94898769e-001
      1.45790428e-001 0. 3.60639468e-002 1.93364143e-001 1.02820612e-001
      1.94131449e-001 6.36873916e-002 5.60142137e-002 1.91829503e-001
      8.44049826e-003 1.94131449e-001 1.94898769e-001 7.67318020e-003 0.
      0. 5.21776229e-002 1.94131449e-001 1.45023108e-001 1.90294862e-001
      1.16632335e-001 1.14330381e-001 0. 2.91580837e-002 1.81854367e-001
      1.11261114e-001 1.50394335e-001 1.04355246e-001 0. 0.
      3.60639468e-002 1.87992916e-001 2.37868577e-002 0. 1.09726474e-001
      1.92596823e-001 1.74948499e-001 1.74181193e-001 1.84923634e-001
      4.98756692e-002 0. 0.</_>
    <_>
      0. 0. 8.37340429e-002 2.59457618e-001 2.73609847e-001
      3.06631718e-002 0. 0. 1.17935275e-003 2.70071775e-001
      1.50957152e-001 0. 4.83534634e-002 2.92479485e-001 1.52136505e-001
      0. 2.02848673e-001 1.06141746e-001 0. 0. 3.53805814e-003
      1.65109392e-002 8.72721002e-002 2.25256369e-001 2.79506594e-001 0.
      0. 0. 0. 0. 0. 1.19114630e-001 2.77147889e-001 0. 0. 0. 0. 0. 0.
      3.18425260e-002 2.31153145e-001 0. 0. 0. 0. 0. 0. 4.36360501e-002
      3.06631718e-002 2.87762076e-001 0. 0. 0. 0. 0. 1.15576573e-001 0.
      7.07611628e-003 2.55919546e-001 1.75723553e-001 9.43482220e-002
      1.07321098e-001 2.70071775e-001 1.40342981e-001</_>
    <_>
      0. 0. 1.50055867e-002 1.94282860e-001 1.98231697e-001
      1.65851220e-001 1.57953538e-002 0. 0. 2.36930326e-003
      1.85595408e-001 1.99021459e-001 1.97441936e-001 1.98231697e-001
      1.81646571e-002 0. 0. 4.73860651e-003 1.70589820e-001
      1.99021459e-001 1.33470744e-001 1.69800058e-001 1.97441936e-001 0.
      0. 5.52837411e-003 1.99021459e-001 6.23916499e-002 0.
      1.42158195e-001 1.99021459e-001 0. 0. 1.80856809e-001
      1.69800058e-001 3.15907085e-003 0. 1.87964723e-001 1.97441936e-001
      0. 0. 1.85595408e-001 9.39823613e-002 0. 0. 1.74538672e-001
      1.01090267e-001 0. 0. 1.62692145e-001 1.82436347e-001
      5.52837411e-003 1.01880036e-001 1.98231697e-001 4.81758304e-002 0.
      0. 6.79200217e-002 1.84805647e-001 1.98231697e-001 1.97441936e-001
      1.89544246e-001 3.94883845e-003 0.</_>
    <_>
      0. 0. 0. 0. 1.61954716e-001 2.20685542e-001 1.82421520e-001 0. 0.
      0. 0. 2.13566665e-002 2.25134850e-001 2.25134850e-001
      2.25134850e-001 0. 0. 0. 0. 2.01998472e-001 2.20685542e-001
      1.64624304e-001 2.25134850e-001 0. 0. 0. 1.83311388e-001
      1.68183744e-001 2.49161106e-002 8.00875016e-003 2.22465277e-001 0.
      0. 6.22902773e-002 2.08227500e-001 3.55944433e-003 0. 0.
      2.13566661e-001 0. 0. 2.06447765e-001 5.25018051e-002 0. 0.
      1.51276384e-002 2.19795689e-001 0. 0. 2.25134850e-001
      1.95769444e-002 0. 2.40262486e-002 2.08227500e-001 7.11888894e-002
      0. 0. 1.34369031e-001 2.23355129e-001 2.25134850e-001
      2.17126101e-001 8.54266658e-002 0. 0.</_>
    <_>
      0. 0. 0. 2.59433081e-003 2.05816895e-001 2.18788549e-001
      2.18788549e-001 0. 0. 0. 7.78299198e-003 2.08411232e-001
      2.18788549e-001 1.86791807e-001 1.71225831e-001 0. 0. 0.
      1.31446093e-001 2.18788549e-001 1.53065518e-001 0. 2.11870342e-001
      0. 0. 0. 1.55659840e-001 2.11005569e-001 0. 2.24842001e-002
      2.17923775e-001 0. 0. 3.02671921e-002 2.17059001e-001
      1.90250911e-002 0. 2.59433072e-002 2.17059001e-001 0. 0.
      1.38364300e-001 1.14150554e-001 0. 0. 1.03773229e-001
      1.90250918e-001 0. 0. 2.18788549e-001 8.38833600e-002
      2.94024143e-002 1.33175641e-001 2.13599890e-001 1.98898688e-002 0.
      0. 1.12420999e-001 2.18788549e-001 2.18788549e-001 2.14464664e-001
      8.30185860e-002 0. 0.</_>
    <_>
      0. 9.43554507e-004 1.49081618e-001 2.35888630e-001 2.04751328e-001
      6.60488149e-003 0. 0. 0. 1.13226540e-001 1.98146448e-001
      1.31154075e-001 2.31170848e-001 2.36832187e-001 1.32097630e-002 0.
      0. 2.38719285e-001 3.96292880e-002 2.05694884e-001 0.
      8.20892453e-002 2.35888630e-001 8.49199016e-003 2.35888623e-002
      2.34001517e-001 9.43554507e-004 0. 0. 0. 1.85880244e-001
      1.17944315e-001 8.58634636e-002 2.26453081e-001 0. 0. 0. 0.
      4.24599536e-002 1.64178491e-001 4.15163971e-002 2.31170848e-001 0.
      0. 0. 0. 1.22662082e-001 1.49081618e-001 9.43554507e-004
      2.38719285e-001 1.41533175e-002 0. 0. 1.50968721e-002
      2.35888630e-001 1.79275349e-002 0. 2.10412651e-001 1.69839814e-001
      3.49115171e-002 9.81296673e-002 2.28340194e-001 6.88794777e-002 0.</_>
    <_>
      0. 5.39387353e-002 1.90783307e-001 2.79682335e-002 0. 0. 0. 0.
      6.59251213e-002 2.34733388e-001 9.18956250e-002 2.16753811e-001
      1.87786713e-001 2.42724314e-001 1.63813934e-001 9.98865464e-004
      2.16753811e-001 3.99546186e-003 0. 5.19410037e-002 0. 0.
      1.60817340e-001 1.50828689e-001 2.50715226e-001 0. 0. 0. 0. 0. 0.
      2.25743592e-001 2.29739055e-001 1.99773093e-003 0. 0. 0. 0. 0.
      1.32849112e-001 1.34846836e-001 1.56821877e-001 0. 0. 0. 0. 0.
      1.20862722e-001 0. 2.22746998e-001 1.88785568e-001 2.99659651e-003
      0. 0. 1.19863860e-002 2.46719763e-001 0. 9.98865464e-004
      1.40840024e-001 2.32735649e-001 2.44722039e-001 2.39727706e-001
      2.11759478e-001 3.99546176e-002</_>
    <_>
      0. 0. 0. 3.69380191e-002 1.41875565e-001 1.67900082e-002 0. 0. 0.
      2.18270104e-002 1.85529590e-001 2.11554095e-001 2.11554095e-001
      2.09875092e-001 1.93924591e-001 3.86170186e-002 1.35999069e-001
      2.11554095e-001 2.11554095e-001 1.42715067e-001 6.96785301e-002
      1.09135052e-002 1.32641062e-001 2.11554095e-001 1.03258550e-001
      2.11554095e-001 1.07456051e-001 8.39500397e-004 0. 0. 0.
      1.96443096e-001 2.12393597e-001 1.82171583e-001 0. 0. 0. 0.
      4.61725220e-002 2.09035605e-001 2.11554095e-001 6.71600318e-003 0.
      0. 0. 5.54070249e-002 2.09035605e-001 1.07456051e-001
      1.40196562e-001 2.04838097e-001 1.18369557e-001 9.40240473e-002
      1.58665568e-001 2.09875092e-001 1.18369557e-001 0. 0.
      1.03258550e-001 1.45233572e-001 1.45233572e-001 1.40196562e-001
      4.44935225e-002 0. 0.</_>
    <_>
      0. 0. 0. 2.19269260e-003 2.51063317e-001 2.45581567e-001
      9.86711681e-003 0. 0. 0. 2.30232719e-002 2.17076570e-001
      4.05648127e-002 1.42525015e-002 2.31329069e-001 0. 0.
      6.57807756e-003 2.49966949e-001 2.42292538e-001 3.06976959e-002 0.
      2.21461952e-001 0. 0. 1.39235973e-001 8.88040513e-002
      1.68837324e-001 0. 0. 1.27176166e-001 0. 0. 2.76279271e-001
      2.19269260e-003 0. 0. 0. 1.71030030e-001 0. 0. 2.72990227e-001 0.
      0. 0. 0. 2.56545037e-001 0. 0. 2.39003494e-001 1.97342336e-002 0.
      0. 7.45515451e-002 1.96245983e-001 0. 0. 4.82392386e-002
      2.49966949e-001 1.66644633e-001 2.00631380e-001 2.23654643e-001
      2.19269260e-003 0.</_>
    <_>
      0. 0. 4.54434939e-002 1.63753286e-001 1.97444156e-001
      1.96660638e-001 4.54434939e-002 3.05568334e-002 0. 1.01072602e-001
      1.96660638e-001 1.95877135e-001 1.86475024e-001 1.85691521e-001
      1.58268720e-001 1.29278913e-001 3.91754247e-002 1.96660638e-001
      1.57485217e-001 8.61859415e-003 0. 0. 0. 1.30062416e-001
      1.73155382e-001 1.90392569e-001 0. 0. 0. 0. 0. 1.66103810e-001
      1.97444156e-001 6.81652427e-002 0. 0. 0. 0. 2.35052546e-003
      1.97444156e-001 1.95877135e-001 1.89609066e-001 0. 0. 0. 0.
      8.93199742e-002 1.95877135e-001 1.30845919e-001 1.97444156e-001
      1.04206637e-001 3.13403420e-002 2.35052546e-003 8.93199742e-002
      1.99011162e-001 7.36498013e-002 1.56701710e-002 1.95877135e-001
      1.96660638e-001 1.95877135e-001 1.96660638e-001 1.80206954e-001
      7.28662908e-002 0.</_>
    <_>
      0. 0. 0. 1.85536649e-002 4.01996076e-002 4.01996076e-002
      4.01996076e-002 0. 0. 3.09227756e-003 2.22643986e-001
      2.51505256e-001 2.43259162e-001 1.77290574e-001 2.39136130e-001
      2.36043856e-001 6.18455512e-003 2.53566772e-001 1.04106680e-001 0.
      0. 0. 0. 2.00998038e-001 1.77290574e-001 1.46367803e-001 0. 0. 0.
      0. 0. 2.37074614e-001 2.59751320e-001 0. 0. 0. 0. 0.
      1.11321993e-001 1.36060208e-001 2.60782063e-001 0. 0. 0. 0.
      1.02045156e-001 2.46351451e-001 0. 2.10274875e-001 1.13383509e-001
      0. 9.89528820e-002 2.13367149e-001 2.05121085e-001 4.12303675e-003
      0. 9.27683245e-003 1.39152497e-001 1.48429319e-001 1.39152497e-001
      3.19535360e-002 0. 0. 0.</_>
    <_>
      0. 0. 0. 6.95359893e-003 1.50371581e-001 1.66886374e-001
      4.34599910e-003 0. 0. 0. 8.69199866e-004 2.04261974e-001
      2.19907567e-001 2.19907567e-001 1.26903176e-001 0. 0. 0.
      4.25907932e-002 2.19907567e-001 2.02523574e-001 1.19949579e-001
      1.71232373e-001 0. 0. 8.69199866e-004 1.72101572e-001
      2.19907567e-001 9.47427824e-002 8.25739875e-002 2.19907567e-001 0.
      0. 9.56119876e-003 2.19907567e-001 1.75578371e-001 0.
      6.86667860e-002 2.19907567e-001 0. 0. 7.56203905e-002
      1.95569977e-001 4.34599910e-003 0. 0. 2.14692369e-001 0. 0.
      1.35595173e-001 1.87747166e-001 0. 1.56455971e-002 1.82531968e-001
      1.26903176e-001 0. 0. 6.51899874e-002 2.19907567e-001
      2.19907567e-001 2.19907567e-001 2.06869572e-001 6.08439930e-003 0.</_>
    <_>
      0. 0. 0. 0. 2.33410761e-001 1.29881799e-001 0. 0. 0. 0. 0.
      8.47055204e-003 2.34351933e-001 2.38116622e-001 4.14115861e-002 0.
      0. 0. 1.38352349e-001 9.88231003e-002 1.31764142e-002
      1.76940411e-001 1.99528545e-001 0. 0. 9.78819281e-002
      2.38116622e-001 7.52937933e-003 0. 4.70586196e-002 2.38116622e-001
      0. 0. 2.26822555e-001 1.62822828e-001 0. 0. 0. 2.29646072e-001 0.
      0. 2.38116622e-001 5.45880012e-002 0. 0. 3.76468971e-002
      2.38116622e-001 0. 0. 2.38116622e-001 5.45880012e-002 0.
      1.88234483e-003 1.93881512e-001 2.15528488e-001 0. 0.
      1.43058211e-001 2.15528488e-001 1.90116823e-001 2.27763727e-001
      2.06116766e-001 1.22352410e-002 0.</_>
    <_>
      0. 0. 0. 1.47034302e-001 2.03922585e-001 2.02172175e-001
      1.61037579e-001 7.87683763e-003 0. 1.66288801e-002 2.16175437e-001
      2.14425027e-001 2.19676256e-001 8.75204243e-003 2.10049018e-001
      1.36531860e-001 5.25122508e-003 2.18801051e-001 6.82659298e-002 0.
      5.42626604e-002 0. 1.75040849e-002 2.05672994e-001 9.45220590e-002
      1.99546561e-001 0. 0. 0. 0. 0. 2.21426666e-001 1.59287170e-001
      3.85089852e-002 0. 0. 0. 0. 0. 2.20551461e-001 1.78541660e-001
      1.08525321e-001 0. 0. 0. 0. 0. 1.97796151e-001 1.04149304e-001
      2.17925847e-001 1.75040849e-002 0. 0. 0. 2.03922585e-001
      9.71476659e-002 0. 1.68914407e-001 2.16175437e-001 1.80292070e-001
      1.75040841e-001 2.17925847e-001 1.26904607e-001 0.</_>
    <_>
      0. 5.84983360e-003 1.99730039e-001 1.90537438e-001 1.36217549e-001
      1.67138111e-002 0. 0. 0. 1.89701751e-001 1.97222963e-001
      2.02237114e-001 2.03908488e-001 2.08086938e-001 1.04461320e-001
      8.35690531e-004 1.92208830e-002 2.08086938e-001 2.08922625e-002 0.
      0. 4.76343594e-002 2.08922639e-001 1.20339438e-001 1.26189277e-001
      1.78002089e-001 0. 0. 0. 0. 4.51272875e-002 2.01401412e-001
      1.77166387e-001 3.00848596e-002 0. 0. 0. 0. 0. 2.11429700e-001
      1.97222963e-001 4.17845277e-003 0. 0. 0. 0. 4.09488343e-002
      2.01401412e-001 1.74659327e-001 2.02237114e-001 2.75777876e-002 0.
      0. 6.51838630e-002 2.12265402e-001 8.02262872e-002 3.84417661e-002
      1.72987938e-001 2.10594013e-001 2.08086938e-001 2.11429700e-001
      2.05579877e-001 8.10619816e-002 0.</_>
    <_>
      0. 0. 2.86417757e-003 2.84985662e-001 2.83553571e-001
      1.40344694e-001 0. 0. 0. 0. 2.00492427e-001 1.40344694e-001 0.
      2.03356609e-001 1.57529768e-002 0. 0. 1.00246212e-002
      2.01924518e-001 0. 0. 1.00246212e-002 2.44887188e-001 0. 0.
      1.61826029e-001 8.59253295e-003 0. 0. 0. 3.07899088e-001 0. 0.
      2.62072235e-001 0. 0. 0. 0. 2.90714025e-001 0. 0. 2.62072235e-001
      0. 0. 0. 0. 2.86417753e-001 0. 0. 1.97628260e-001 5.72835514e-003
      0. 0. 8.59253295e-003 1.27455905e-001 0. 0. 8.59253295e-003
      2.82121480e-001 9.02215913e-002 1.44640967e-001 1.64690211e-001 0.
      0.</_>
    <_>
      0. 0. 1.71612531e-001 2.66479105e-001 2.15315104e-001
      8.52733105e-003 0. 0. 0. 0. 2.52622187e-001 2.69676834e-001
      7.35482275e-002 2.00392276e-001 0. 0. 0. 0. 2.36633435e-001
      1.23646304e-001 1.06591638e-003 2.18512863e-001 9.59324744e-003 0.
      0. 1.49228293e-002 2.68610924e-001 2.13183276e-002 0.
      1.22580387e-001 1.73744366e-001 0. 0. 1.67348877e-001
      1.63085207e-001 0. 0. 3.09115760e-002 2.11051449e-001 0. 0.
      1.91864952e-001 1.02327973e-001 0. 0. 0. 2.65413165e-001 0. 0.
      6.60868138e-002 7.99437314e-002 0. 0. 2.98456587e-002
      2.53688097e-001 0. 0. 5.32958191e-003 2.41963014e-001
      9.27347243e-002 8.42073932e-002 2.46226683e-001 7.14164004e-002 0.</_>
    <_>
      0. 0. 4.78126295e-002 2.16042250e-001 1.15989901e-001 0. 0. 0. 0.
      1.50521249e-002 2.24011034e-001 2.16927677e-001 2.19583929e-001
      7.52606243e-002 8.85419082e-004 0. 0. 1.81510910e-001
      1.60260856e-001 0. 1.10677384e-001 2.20469356e-001 2.24896446e-001
      5.31251449e-003 2.83334106e-002 2.23125607e-001 2.65625725e-003 0.
      0. 1.68229621e-002 2.00990126e-001 1.85938001e-001 1.39896214e-001
      1.92135945e-001 0. 0. 0. 0. 0. 2.24011034e-001 1.99219286e-001
      6.99481070e-002 0. 0. 0. 0. 0. 1.94792196e-001 1.87708840e-001
      1.17760740e-001 0. 0. 0. 0. 3.98438573e-002 2.20469356e-001
      5.40105626e-002 2.04531804e-001 1.90365106e-001 1.16875321e-001
      1.18646160e-001 2.01875553e-001 2.16927677e-001 7.26043656e-002</_>
    <_>
      0. 0. 0. 1.66773889e-002 2.72902735e-002 1.37967497e-001 0. 0. 0.
      0. 8.64192024e-002 2.63805985e-001 1.66773889e-002 1.36451364e-001
      0. 0. 0. 0. 2.48644724e-001 2.72902735e-002 0. 1.68290019e-001 0.
      0. 0. 0. 3.57805818e-001 0. 0. 1.15225598e-001 0. 0. 0.
      3.03225266e-003 2.94128507e-001 0. 0. 1.16741724e-001 0. 0. 0.
      9.09675844e-003 2.95644641e-001 0. 0. 1.74354523e-001 0. 0. 0. 0.
      3.71450961e-001 4.54837922e-003 3.03225266e-003 3.57805818e-001 0.
      0. 0. 0. 1.44032001e-001 2.06193179e-001 3.00193012e-001
      1.19773977e-001 0. 0.</_>
    <_>
      0. 0. 0. 6.33005425e-003 1.94121674e-001 2.35267028e-001
      2.47927129e-001 0. 0. 0. 1.68801453e-002 2.58477211e-001
      7.27956295e-002 0. 1.96231693e-001 0. 0. 1.05500908e-003
      2.29991972e-001 6.01355173e-002 1.05500908e-003 1.08665936e-001
      1.51921302e-001 0. 0. 4.53653894e-002 2.05726773e-001
      1.05500908e-003 1.05500908e-003 2.14166850e-001 8.54557380e-002 0.
      0. 1.87791616e-001 1.23436064e-001 0. 0. 3.90353352e-002
      2.67972320e-001 0. 0. 2.61642247e-001 1.79351550e-002 0. 0. 0.
      2.63752282e-001 0. 0. 2.28936970e-001 1.22381054e-001 0. 0.
      5.27504552e-003 2.11001813e-001 0. 0. 2.95402538e-002
      2.36322030e-001 1.83571577e-001 1.52976319e-001 2.38432050e-001
      2.84852460e-002 0.</_>
    <_>
      0. 1.79677173e-001 8.92103463e-002 1.94754973e-001 1.98524430e-001
      1.98524430e-001 2.48783782e-001 0. 1.05544634e-001 2.26167068e-001
      2.72656977e-001 5.27723171e-002 0. 0. 3.89509946e-002
      1.47008598e-001 2.42501363e-001 0. 0. 5.02593489e-003 0. 0. 0.
      2.16115206e-001 2.26167068e-001 0. 0. 0. 0. 0. 0. 1.54547498e-001
      2.28680044e-001 0. 0. 0. 0. 0. 0. 1.68368816e-001 2.06063330e-001
      2.51296745e-003 0. 0. 0. 0. 0. 2.27423549e-001 1.88472550e-002
      2.52553225e-001 0. 0. 0. 0. 1.50778051e-002 1.85959592e-001 0.
      9.67492461e-002 2.39988387e-001 9.67492461e-002 5.40288016e-002
      8.04149583e-002 2.80195862e-001 0.</_>
    <_>
      0. 0. 6.48295134e-002 2.07094282e-001 1.08049192e-001 0. 0. 0. 0.
      4.14188579e-002 2.22401261e-001 2.23301664e-001 2.16998801e-001
      2.10695922e-001 3.78172174e-002 0. 4.50204965e-003 2.21500844e-001
      4.14188579e-002 1.62073784e-002 0. 6.03274666e-002 2.23301664e-001
      9.81446803e-002 1.77380756e-001 1.52169287e-001 0. 0. 0. 0.
      1.06248371e-001 2.18799621e-001 2.27803722e-001 0. 0. 0. 0. 0. 0.
      1.80081993e-001 2.26903304e-001 6.30286941e-003 0. 0. 0. 0. 0.
      1.02646731e-001 1.89986497e-001 1.55770913e-001 0. 0. 0. 0.
      6.57299235e-002 2.16098383e-001 0. 1.44966006e-001 2.24202082e-001
      2.26903304e-001 1.98090181e-001 2.22401261e-001 2.23301664e-001
      1.44065591e-002</_>
    <_>
      0. 0. 0. 0. 0. 0. 0. 0. 0. 1.46990817e-003 7.64352232e-002
      1.91088058e-002 1.98437601e-001 1.99907511e-001 8.67245793e-002
      4.40972438e-003 3.08680721e-002 2.91041821e-001 5.29166944e-002
      2.11666778e-001 2.05787141e-002 0. 7.64352232e-002 3.21909875e-001
      3.16030264e-001 1.17592653e-002 0. 0. 0. 0. 0. 7.34954104e-002
      2.02847332e-001 0. 0. 0. 0. 0. 1.46990817e-003 2.49884382e-001
      2.95451552e-001 0. 0. 0. 2.35185307e-002 1.29351914e-001
      2.21956134e-001 3.67477052e-002 1.17592653e-002 2.13136688e-001
      3.51308048e-001 3.45428407e-001 1.05833389e-001 7.34954095e-003 0.
      0. 0. 0. 0. 0. 0. 0. 0. 0.</_>
    <_>
      0. 0. 8.40015188e-002 1.98620409e-001 1.51516765e-001
      1.43666148e-001 2.35518278e-003 0. 0. 4.23932895e-002
      1.95480168e-001 3.68978642e-002 2.59070098e-002 1.89199686e-001
      1.98620409e-001 1.96265224e-002 2.35518278e-003 1.89984739e-001
      1.66432917e-001 0. 0. 3.92530486e-003 1.92339927e-001
      1.50731698e-001 1.02057919e-001 1.98620409e-001 5.33841439e-002 0.
      0. 0. 1.24824688e-001 1.98620409e-001 1.51516765e-001
      1.94695115e-001 0. 0. 0. 0. 4.31783497e-002 1.99405476e-001
      1.50731698e-001 1.96265236e-001 2.19817050e-002 0. 0. 0.
      1.20899379e-001 1.95480168e-001 1.50731698e-001 1.98620409e-001
      1.89984739e-001 1.49161573e-002 0. 5.96646294e-002 1.95480168e-001
      9.65624973e-002 0. 1.53871939e-001 1.90769807e-001 1.98620409e-001
      1.99405476e-001 1.98620409e-001 1.24824688e-001 0.</_>
    <_>
      0. 0. 7.56834149e-002 1.95386782e-001 1.42099470e-001
      1.91525370e-001 1.44416317e-001 9.26735718e-003 0. 7.72279734e-003
      1.94614500e-001 1.94614500e-001 1.15841962e-002 1.79941177e-001
      1.94614500e-001 5.17427437e-002 0. 4.86536250e-002 1.94614500e-001
      1.04257762e-001 0. 1.54455949e-003 1.86119422e-001 1.24337040e-001
      9.26735718e-003 1.81485742e-001 1.90753102e-001 0. 0. 0.
      1.85347140e-001 1.33604392e-001 3.55248675e-002 1.94614500e-001
      1.42099470e-001 0. 0. 0. 1.85347140e-001 1.33604392e-001
      3.55248675e-002 1.94614500e-001 3.01189106e-002 0. 0.
      6.10100999e-002 1.89980820e-001 5.79209812e-002 3.55248675e-002
      1.94614500e-001 1.37465790e-001 6.40992224e-002 8.03170949e-002
      1.93842217e-001 1.94614500e-001 3.47525887e-002 2.70297918e-002
      1.74535230e-001 1.94614500e-001 1.94614500e-001 1.94614500e-001
      1.47505432e-001 2.31683929e-003 0.</_>
    <_>
      0. 0. 1.44169871e-002 2.04721212e-001 0. 0. 0. 0. 0. 0.
      3.84452986e-003 2.02798948e-001 2.38360852e-001 1.23024955e-001
      1.73003841e-002 0. 0. 1.33597419e-001 1.34558544e-001 0.
      1.23986088e-001 1.86459705e-001 2.40283117e-001 3.07562388e-002 0.
      2.39321977e-001 4.80566220e-003 0. 0. 0. 1.61470249e-001
      1.29752889e-001 4.03675623e-002 2.39321977e-001 0. 0. 0.
      2.88339751e-003 2.34516323e-001 9.32298526e-002 3.94064300e-002
      2.38360852e-001 0. 0. 0. 6.43958747e-002 2.35477448e-001
      3.84452986e-003 1.34558547e-002 2.41244242e-001 3.55619006e-002 0.
      7.68905971e-003 2.09526882e-001 8.74630511e-002 0. 0.
      1.87420830e-001 2.43166506e-001 2.33555183e-001 2.40283117e-001
      2.02798948e-001 9.61132464e-004 0.</_>
    <_>
      0. 0. 0. 2.15527371e-001 2.13661328e-001 6.71773627e-002 0. 0. 0.
      0. 8.77037793e-002 2.34187752e-001 2.22058505e-001 2.35120773e-001
      6.34452850e-002 0. 0. 5.59811341e-003 2.27656618e-001
      5.50481156e-002 0. 1.67943403e-001 1.30622655e-001 0. 0.
      1.34354725e-001 2.08063215e-001 2.79905670e-003 0. 8.86368006e-002
      2.08063215e-001 0. 0. 1.62345290e-001 4.38518897e-002 0. 0. 0.
      2.36053780e-001 0. 0. 2.13661328e-001 4.38518897e-002 0. 0.
      1.17560387e-001 1.30622655e-001 0. 0. 1.64211333e-001
      1.92201898e-001 9.33018886e-003 1.57680199e-001 2.32321709e-001
      8.77037793e-002 0. 0. 4.66509461e-002 2.30455667e-001
      2.36053780e-001 2.36053780e-001 1.99666053e-001 1.86603784e-003 0.</_>
    <_>
      0. 0. 0. 0. 2.15258315e-001 2.50464112e-001 4.02351981e-003 0. 0.
      0. 1.10646794e-002 2.28334755e-001 2.53481746e-001 1.37805551e-001
      2.01175991e-003 0. 0. 1.10646794e-002 2.20287710e-001
      1.74017236e-001 2.01175991e-003 1.28752634e-001 2.19281822e-001 0.
      0. 1.76028997e-001 2.38393545e-001 8.04703962e-003 0. 0.
      1.96146592e-001 0. 0. 2.55493522e-001 6.03527986e-002 0. 0. 0.
      1.37805551e-001 0. 0. 2.50464112e-001 0. 0. 0. 5.02939988e-003
      2.40405306e-001 0. 0. 2.53481746e-001 0. 0. 1.50881996e-002
      2.47446463e-001 2.51469985e-002 0. 0. 2.02181876e-001
      1.50881991e-001 1.63958430e-001 2.40405306e-001 4.82822359e-002 0.
      0.</_>
    <_>
      0. 0. 0. 0. 1.74755678e-001 8.78501534e-002 0. 0. 0. 0. 0.
      2.12540686e-001 2.38045573e-001 2.39934832e-001 1.50195420e-001 0.
      0. 0. 1.56807795e-001 1.84201926e-001 2.92833839e-002
      2.01205194e-001 2.39934832e-001 7.93485269e-002 0. 4.91205156e-002
      2.39934832e-001 1.22801289e-002 0. 0. 8.50162748e-003
      1.64364800e-001 9.44625295e-004 2.39934832e-001 1.14299662e-001 0.
      0. 0. 2.55048834e-002 1.62475556e-001 1.14299662e-001
      2.16319188e-001 0. 0. 0. 0. 1.83257312e-001 1.43583044e-001
      1.52084678e-001 1.75700307e-001 0. 0. 1.88925059e-003
      1.07687287e-001 2.39934832e-001 1.88925059e-003 5.47882654e-002
      2.38045573e-001 1.22801289e-001 1.91758931e-001 2.37100944e-001
      1.61530927e-001 9.44625307e-003 0.</_>
    <_>
      0. 0. 0. 0. 1.43268257e-001 1.80332676e-001 1.30438253e-001
      4.27666400e-003 0. 0. 1.42555474e-003 1.41129926e-001
      1.80332676e-001 1.78194344e-001 1.79619893e-001 7.34160691e-002 0.
      1.42555474e-003 1.26161590e-001 1.79619893e-001 1.43981025e-001
      3.13622057e-002 1.75343230e-001 1.67502686e-001 0. 6.98521808e-002
      1.79619893e-001 1.79619893e-001 6.41499646e-003 0. 1.19033821e-001
      1.79619893e-001 9.97888297e-003 1.81045458e-001 1.78907126e-001
      4.63305302e-002 0. 0. 1.14044383e-001 1.78907126e-001
      1.29012704e-001 1.79619893e-001 1.29012704e-001 0. 1.42555474e-003
      5.48838563e-002 1.77481562e-001 1.12618826e-001 1.29012704e-001
      1.79619893e-001 1.78194344e-001 1.73917681e-001 1.74630463e-001
      1.79619893e-001 1.79619893e-001 1.63938794e-002 4.27666400e-003
      1.52534351e-001 1.79619893e-001 1.79619893e-001 1.78907126e-001
      1.12618826e-001 1.42555474e-003 0.</_>
    <_>
      0. 0. 0. 8.79467204e-002 1.83072761e-001 8.25622231e-002
      8.97415506e-004 0. 0. 0. 9.06389654e-002 2.20764220e-001
      1.66919291e-001 2.23456457e-001 2.18071967e-001 6.28190860e-003 0.
      1.13074355e-001 2.26148710e-001 3.49992029e-002 0. 1.16664013e-002
      2.14482307e-001 1.92944333e-001 3.76914516e-002 2.25251287e-001
      9.24337953e-002 0. 0. 0. 7.17932405e-003 2.23456457e-001
      1.88457251e-001 2.09995225e-001 0. 0. 0. 0. 0. 2.27046117e-001
      2.26148710e-001 7.26906583e-002 0. 0. 0. 0. 1.28330424e-001
      2.10892648e-001 1.24740757e-001 2.22559050e-001 5.38449287e-002 0.
      1.79483101e-003 1.84867591e-001 2.27943540e-001 8.07673950e-003
      7.17932405e-003 1.46278724e-001 1.55252889e-001 1.55252889e-001
      1.56150296e-001 1.16664015e-001 1.79483101e-003 0.</_>
    <_>
      0. 0. 1.96147095e-002 1.04350254e-001 1.98500857e-001
      1.86732039e-001 6.27670716e-003 0. 3.92294209e-003 1.96931690e-001
      1.97716281e-001 1.96931690e-001 1.89085796e-001 1.89870387e-001
      1.44364268e-001 0. 1.34949207e-001 1.97716281e-001 1.33380026e-001
      1.27887905e-001 0. 0. 0. 0. 1.51425555e-001 1.88301221e-001
      7.84588419e-003 1.23180375e-001 0. 0. 1.88301206e-002
      1.56133085e-001 1.53779328e-001 1.89870387e-001 0. 7.21821338e-002
      0. 0. 5.33520095e-002 1.98500857e-001 1.34949207e-001
      1.96931690e-001 1.96147095e-002 0. 0. 0. 5.33520095e-002
      1.96931690e-001 1.56917679e-003 1.98500857e-001 1.94577917e-001
      7.53204823e-002 0. 0. 8.94430801e-002 1.72609448e-001 0.
      8.63047224e-003 1.71040267e-001 1.96147099e-001 1.89870387e-001
      1.82809100e-001 1.98500857e-001 1.08273201e-001</_>
    <_>
      0. 0. 5.19446842e-002 1.67088732e-001 0. 0. 0. 0. 0.
      1.38519155e-002 2.18167663e-001 2.17301920e-001 5.97363859e-002 0.
      0. 0. 0. 1.71417460e-001 2.05181494e-001 1.82672128e-001
      2.19899163e-001 5.36761731e-002 0. 0. 8.31114948e-002
      2.13838950e-001 1.64491497e-002 1.21204257e-002 2.19033420e-001
      1.50639579e-001 0. 2.85695754e-002 2.19033420e-001 1.69685960e-001
      0. 0. 9.17689428e-002 2.19033420e-001 3.46297887e-003 0.
      2.18167663e-001 1.15144044e-001 0. 0. 1.71417460e-001
      1.64491490e-001 1.73148944e-003 0. 2.19033420e-001 2.06047237e-001
      5.88706397e-002 1.85269371e-001 2.19899163e-001 6.31993636e-002 0.
      0. 1.23801492e-001 2.17301920e-001 2.18167663e-001 2.06912994e-001
      7.44540468e-002 0. 0. 2.51065977e-002</_>
    <_>
      0. 0. 0. 0. 4.66707498e-002 1.75253436e-001 1.28582686e-001 0. 0.
      0. 0. 1.59061536e-001 2.38116071e-001 1.57156602e-001
      1.77158356e-001 2.12399542e-001 0. 0. 1.53346747e-001
      2.12399542e-001 0. 0. 0. 1.74300969e-001 0. 1.27630219e-001
      2.12399542e-001 7.61971436e-003 0. 0. 0. 1.58109069e-001
      5.90527877e-002 2.39068538e-001 9.33414996e-002 0. 0. 0.
      1.71443578e-002 2.32401282e-001 1.99065045e-001 1.35249928e-001 0.
      0. 0. 6.76249638e-002 2.38116071e-001 7.14348257e-002
      2.41925925e-001 1.23820361e-002 0. 2.09542140e-002 1.95255175e-001
      2.12399542e-001 1.14295715e-002 0. 1.34297460e-001 2.34306216e-001
      2.40021005e-001 2.16209397e-001 1.19058035e-001 0. 0. 0.</_>
    <_>
      0. 1.53265715e-001 1.95658356e-001 2.06256524e-001 2.05441281e-001
      1.78538248e-001 3.26097272e-002 0. 0. 7.98938274e-002
      2.03810796e-001 4.40231301e-002 0. 1.06796853e-001 2.06256524e-001
      1.79353505e-002 1.63048634e-003 2.06256524e-001 1.47559017e-001 0.
      0. 0. 1.86690688e-001 1.41037062e-001 7.25566447e-002
      2.06256524e-001 5.62517792e-002 0. 0. 0. 9.53834504e-002
      1.41852304e-001 1.10057831e-001 2.04626039e-001 0. 0. 0. 0.
      1.78538248e-001 1.38591334e-001 1.10057831e-001 2.05441281e-001
      1.38591342e-002 0. 0. 7.33718835e-003 2.02180311e-001
      1.32884637e-001 5.78822643e-002 2.06256524e-001 1.23101719e-001 0.
      8.15243169e-004 1.58157170e-001 2.05441281e-001 4.07621590e-003 0.
      1.42667562e-001 2.06256524e-001 1.87505931e-001 2.06256524e-001
      1.72016308e-001 2.28268094e-002 0.</_>
    <_>
      0. 0. 0. 0. 3.17059867e-002 1.51396081e-001 9.98738557e-002 0. 0.
      7.21311197e-002 1.91821218e-001 8.40208605e-002 1.99747711e-001
      1.80724114e-001 1.98955059e-001 1.60115227e-001 2.37794891e-002
      1.98955059e-001 1.08593002e-001 1.74382925e-001 3.96324806e-002 0.
      8.79841074e-002 1.91821218e-001 1.60907879e-001 1.94199160e-001
      9.51179583e-003 7.37164170e-002 0. 0. 0. 1.98955059e-001
      2.00540364e-001 1.94991812e-001 0. 0. 0. 0. 4.35957313e-002
      2.00540364e-001 1.74382925e-001 1.96577102e-001 3.56692336e-002 0.
      0. 2.29868386e-002 1.85480013e-001 1.69627026e-001 3.01206857e-002
      1.98955059e-001 1.98955059e-001 1.91028565e-001 1.92613855e-001
      1.98162407e-001 1.98955059e-001 4.20104302e-002 0. 2.37794896e-003
      1.10178299e-001 1.18104793e-001 1.37921035e-001 9.11547095e-002 0.
      0.</_>
    <_>
      0. 1.40093029e-001 1.69882938e-001 1.69882938e-001 1.02251813e-001
      0. 0. 0. 7.56824464e-002 2.02893361e-001 7.00465143e-002
      1.21574990e-001 2.00477958e-001 1.90816373e-001 4.83079441e-003 0.
      1.77129120e-001 1.48949489e-001 0. 0. 8.05132370e-003
      1.84375316e-001 1.89206108e-001 9.66158882e-003 2.03698486e-001
      7.40721822e-002 0. 0. 0. 1.52975153e-002 1.89206108e-001
      1.58611074e-001 2.03698486e-001 4.83079441e-002 0. 0. 0. 0.
      4.10617515e-002 2.03698486e-001 1.76323995e-001 1.75518855e-001 0.
      0. 0. 0. 0. 2.03698486e-001 5.31387366e-002 2.03698486e-001
      1.90816373e-001 6.28003255e-002 4.10617515e-002 3.62309590e-002
      1.86790720e-001 2.02088222e-001 0. 5.31387366e-002 1.71493202e-001
      2.02088222e-001 2.03698486e-001 1.98062569e-001 1.70688063e-001
      2.41539720e-002</_>
    <_>
      0. 0. 0. 0. 1.20292995e-002 1.73962176e-001 1.73962176e-001
      1.38799613e-002 0. 0. 0. 6.19971603e-002 2.34108672e-001
      1.55455559e-001 1.01786382e-001 2.23930031e-001 0. 0.
      7.03251362e-002 2.28556693e-001 5.27438521e-002 0. 0.
      2.11900741e-001 0. 2.59092599e-002 2.28556693e-001 4.25652154e-002
      0. 0. 0. 2.11900741e-001 2.03572754e-002 2.34108672e-001
      7.58771226e-002 0. 0. 0. 5.18185198e-002 2.27631360e-001
      1.86916813e-001 9.25330743e-002 0. 0. 9.25330736e-004
      8.69810879e-002 2.32258022e-001 8.05037767e-002 2.34108672e-001 0.
      0. 2.22079381e-002 2.24855363e-001 2.10050076e-001 1.01786377e-002
      0. 2.34108672e-001 2.34108672e-001 2.34108672e-001 2.03572765e-001
      9.16077420e-002 3.70132294e-003 0. 0.</_>
    <_>
      0. 0. 0. 0. 0. 0. 0. 0. 0. 0. 3.14392932e-002 2.54766703e-001
      2.52598464e-001 2.04897478e-001 5.42056793e-003 1.44187108e-001 0.
      2.81869546e-002 2.74280757e-001 1.12747818e-001 0. 0.
      5.42056821e-002 1.76710516e-001 1.30093638e-002 2.59103149e-001
      2.38504987e-002 0. 0. 0. 0. 1.88635767e-001 2.38504991e-001
      1.09495476e-001 0. 0. 0. 2.16822722e-003 1.86467543e-001
      2.23327398e-001 2.73196638e-001 0. 0. 0. 1.62617043e-002
      1.77794635e-001 1.66953489e-001 6.50468189e-003 2.68860161e-001
      2.51514345e-001 1.75626412e-001 2.48262018e-001 2.52598464e-001
      3.68598625e-002 0. 0. 0. 0. 0. 0. 0. 0. 0. 0.</_>
    <_>
      0. 0. 0. 0. 2.48928531e-003 1.34421408e-001 2.48928536e-002 0. 0.
      0. 0. 2.07440443e-002 2.00802356e-001 2.10759491e-001
      2.10759491e-001 1.79228544e-001 0. 0. 6.30618930e-002
      2.10759491e-001 1.47697598e-001 1.41889259e-001 1.63463071e-001
      2.10759491e-001 0. 2.07440443e-002 2.05780923e-001 1.40229747e-001
      0. 0. 0. 2.10759491e-001 9.12737940e-003 2.00802356e-001
      1.86696395e-001 8.29761790e-004 0. 8.29761790e-004 1.83377355e-001
      1.93334490e-001 1.12017840e-001 2.07440451e-001 2.07440443e-002 0.
      8.29761755e-003 1.60973787e-001 2.10759491e-001 3.31904702e-002
      1.75079733e-001 1.73420221e-001 6.55511841e-002 1.80888072e-001
      2.09099978e-001 1.93334490e-001 1.13677368e-001 0. 1.00401178e-001
      1.45208314e-001 1.45208314e-001 1.45208314e-001 1.11188076e-001 0.
      0. 0.</_>
    <_>
      0. 0. 9.33388472e-002 2.09515929e-001 2.51220524e-001
      2.50227541e-001 2.27389321e-001 0. 0. 4.66694236e-002
      2.48241618e-001 6.05709553e-002 0. 4.96483222e-003 0. 0. 0.
      2.33347118e-001 1.15184113e-001 0. 0. 1.95614398e-001
      8.44021514e-002 0. 6.05709553e-002 2.42283821e-001 0. 0. 0.
      7.94373173e-003 2.07529992e-001 1.01282582e-001 1.63839474e-001
      1.83698803e-001 0. 0. 0. 0. 4.96483222e-002 1.72776163e-001
      1.63839474e-001 3.57467942e-002 0. 0. 0. 0. 7.24865496e-002
      1.46959037e-001 1.63839474e-001 1.53909802e-001 0. 0. 0.
      5.85850216e-002 2.38311946e-001 1.88663621e-002 4.46834899e-002
      2.40297884e-001 1.80719897e-001 1.71783194e-001 2.22424492e-001
      2.06537023e-001 2.38311961e-002 0.</_>
    <_>
      0. 8.12965154e-004 1.47959664e-001 1.74787506e-001 1.39830008e-001
      3.73963974e-002 0. 0. 0. 2.60148849e-002 2.05680177e-001
      7.23538995e-002 1.56902269e-001 1.92672744e-001 4.55260500e-002 0.
      2.52019204e-002 2.05680177e-001 1.69909716e-001 4.87779081e-003
      8.12965154e-004 1.11376226e-001 2.05680177e-001 1.95111632e-002
      1.34139255e-001 2.04054251e-001 1.95111632e-002 0. 0. 0.
      1.89420879e-001 1.31700352e-001 1.98363498e-001 1.89420879e-001 0.
      0. 0. 0. 1.46333724e-002 2.04867214e-001 2.05680177e-001
      1.57715246e-001 0. 0. 0. 0. 0. 2.05680177e-001 1.32513314e-001
      2.05680177e-001 5.93464561e-002 6.50372123e-003 0. 5.12168035e-002
      1.10563263e-001 2.04054251e-001 1.13815125e-002 1.64218962e-001
      2.05680177e-001 2.05680177e-001 2.05680177e-001 2.05680177e-001
      1.72348619e-001 3.98352928e-002</_>
    <_>
      0. 0. 0. 0. 0. 0. 0. 3.88445631e-002 0. 0. 0. 0. 0.
      6.05518185e-002 1.59948200e-001 2.21642509e-001 0. 0. 0. 0.
      1.25673592e-001 2.36494839e-001 1.77085504e-001 1.22246124e-001 0.
      0. 0. 1.64518148e-001 2.75339395e-001 1.25673590e-002
      6.85492298e-003 2.30782405e-001 0. 0. 6.62642568e-002
      2.86764264e-001 0. 0. 1.05108820e-001 2.54774630e-001 0.
      9.13989730e-003 2.79909343e-001 5.25544100e-002 0. 7.54041523e-002
      2.86764264e-001 4.22720239e-002 0. 3.42746153e-002 2.85621792e-001
      2.13645101e-001 2.76481897e-001 2.30782405e-001 1.14248712e-002 0.
      0. 1.14248716e-003 1.32528514e-001 1.78227991e-001 6.85492307e-002
      0. 0. 0.</_>
    <_>
      0. 0. 0. 1.11863285e-001 1.94243222e-001 2.06383422e-001
      4.33578622e-003 0. 0. 6.07010070e-003 1.75165758e-001
      2.13320687e-001 1.99446172e-001 1.64759874e-001 6.50367960e-002 0.
      0. 8.67157243e-004 2.77490318e-002 9.71216112e-002 0.
      4.94279638e-002 2.18523622e-001 0. 0. 1.73431449e-003
      1.89040273e-001 2.19390780e-001 0. 5.80995344e-002 2.19390780e-001
      0. 0. 8.23799372e-002 2.19390780e-001 1.05793186e-001 0.
      1.05793186e-001 2.19390780e-001 0. 0. 2.04649106e-001
      1.97711855e-001 2.60147173e-003 3.46862897e-003 2.12453529e-001
      1.50885358e-001 0. 0. 1.80368707e-001 1.23136327e-001 0.
      1.70829982e-001 2.18523622e-001 9.53872968e-003 0. 0.
      2.08117738e-002 2.15054989e-001 2.19390780e-001 2.19390780e-001
      1.48283884e-001 0. 0.</_>
    <_>
      0. 0. 0. 0. 7.25065172e-002 5.37401251e-002 6.56823739e-002
      1.69750556e-001 0. 0. 4.26508905e-003 1.95341080e-001
      2.12401450e-001 2.10695401e-001 2.15813518e-001 2.16666535e-001 0.
      1.70603569e-003 1.80839777e-001 1.96194097e-001 1.62073392e-002
      1.70603569e-003 4.43569273e-002 2.16666535e-001 0. 1.13451377e-001
      2.08989367e-001 1.87663920e-002 0. 0. 9.38319601e-003
      2.15813518e-001 4.86220159e-002 2.15813518e-001 5.20340875e-002 0.
      0. 5.11810696e-003 2.08136350e-001 1.52690187e-001 1.86810911e-001
      1.76574692e-001 0. 0. 2.55905353e-002 1.68897539e-001
      1.87663928e-001 0. 1.99606180e-001 1.72309607e-001 9.98030901e-002
      2.04724282e-001 2.15813518e-001 1.59514338e-001 8.53017846e-004 0.
      8.10366943e-002 1.49278119e-001 1.49278119e-001 1.41600966e-001
      1.36482855e-002 0. 0. 0.</_>
    <_>
      0. 0. 1.57458447e-002 2.28777856e-001 2.00064853e-001
      4.63113096e-003 0. 0. 0. 0. 2.24146724e-001 2.32482761e-001
      2.28777856e-001 1.51901081e-001 1.85245229e-003 0. 0.
      1.20409401e-002 2.34335214e-001 1.46343738e-001 1.85245229e-003
      1.97286174e-001 1.11147137e-002 0. 0. 9.81799737e-002
      2.24146724e-001 1.01884874e-002 0. 5.64997941e-002 1.98212400e-001
      0. 0. 2.07474649e-001 1.99138626e-001 0. 0. 0. 2.30630308e-001 0.
      0. 1.38933927e-001 2.20441818e-001 0. 0. 0. 2.28777856e-001 0. 0.
      7.40980916e-003 2.34335214e-001 3.70490476e-002 0. 8.52128044e-002
      2.35261440e-001 0. 0. 0. 3.14916894e-002 1.97286174e-001
      1.92655042e-001 2.32482761e-001 5.92784733e-002 0.</_>
    <_>
      0. 8.87307280e-004 1.40194550e-001 8.78434181e-002 0. 0. 0. 0. 0.
      6.83226585e-002 2.24488735e-001 2.24488735e-001 2.09404513e-001
      5.50130531e-002 8.87307280e-004 0. 2.66192178e-003 2.24488735e-001
      2.05855295e-001 1.67701080e-001 1.08251490e-001 2.04080671e-001
      1.72137618e-001 0. 4.08161357e-002 2.24488735e-001 9.58291888e-002
      2.66192178e-003 0. 2.66192178e-003 1.32208779e-001 2.12953743e-002
      1.50842238e-002 2.21826822e-001 0. 0. 0. 0. 0. 1.54391468e-001
      5.32384356e-003 2.23601431e-001 2.48446036e-002 0. 0. 0. 0.
      1.54391468e-001 0. 2.05855295e-001 2.10291833e-001 7.18718916e-002
      6.03368953e-002 3.81542146e-002 1.75686836e-001 1.54391468e-001 0.
      1.77461456e-003 1.64151847e-001 2.23601431e-001 2.25376055e-001
      2.24488735e-001 2.24488735e-001 9.67164934e-002</_>
    <_>
      0. 0. 0. 0. 0. 0. 2.07580775e-001 1.07905425e-001 0. 0. 0. 0.
      1.92035083e-002 2.33185455e-001 2.33185455e-001 8.50441083e-002 0.
      0. 0. 6.21827878e-002 2.28613198e-001 9.87609029e-002
      6.58406019e-002 1.60029233e-001 0. 0. 2.10324135e-002
      2.31356546e-001 7.58995786e-002 0. 0. 1.60029233e-001 0.
      2.74335826e-003 2.33185455e-001 1.17049955e-001 0. 0.
      2.24040926e-001 1.12477690e-001 0. 2.33185455e-001 1.53628066e-001
      0. 0. 1.60029233e-001 2.33185455e-001 0. 1.17964409e-001
      2.23126471e-001 0. 0. 2.21297577e-001 2.02094063e-001
      9.14452772e-004 0. 1.53628066e-001 2.27698743e-001 2.33185455e-001
      2.33185455e-001 1.45397991e-001 0. 0. 0.</_>
    <_>
      0. 0. 3.89076881e-002 2.37336904e-001 0. 0. 0. 0. 0. 0.
      2.11074203e-001 9.62965265e-002 2.46091127e-001 1.64384991e-001 0.
      0. 0. 5.05799949e-002 2.24691898e-001 6.80884533e-003
      2.33446136e-002 1.89674988e-001 1.81893438e-001 0. 0.
      2.35391513e-001 1.21586524e-001 0. 0. 6.80884533e-003
      2.46091127e-001 0. 0. 2.47063816e-001 1.45903835e-002 0. 0. 0.
      1.58548832e-001 0. 0. 2.47063816e-001 1.45903835e-002 0. 0. 0.
      2.25664601e-001 0. 0. 2.47063816e-001 8.46242234e-002 0.
      9.72692214e-004 1.77029982e-001 1.85784206e-001 0. 0.
      8.75423010e-003 2.38309592e-001 2.41227672e-001 2.34418824e-001
      2.11074203e-001 7.78153772e-003 0.</_>
    <_>
      0. 0. 0. 1.83395878e-003 8.61960649e-002 1.46716703e-002
      1.89814731e-001 1.58637434e-001 0. 0. 0. 0. 9.16979387e-002
      2.31995791e-001 2.31995791e-001 3.48452181e-002 0. 0. 0.
      9.07809585e-002 2.29244843e-001 1.30211070e-001 2.30161831e-001
      1.65056288e-002 0. 0. 1.54052541e-001 2.31078804e-001
      3.66791748e-002 2.56754234e-002 2.31078804e-001 5.50187659e-003 0.
      1.35712951e-001 2.17324123e-001 1.28377117e-002 0. 5.13508469e-002
      2.31995791e-001 2.56754234e-002 4.40150127e-002 2.31078804e-001
      3.57621945e-002 0. 6.41885586e-003 1.85229838e-001 1.42131805e-001
      1.65056288e-002 1.78810984e-001 1.43965766e-001 0. 1.55886495e-002
      2.18241096e-001 1.45799726e-001 9.16979392e-004 0. 1.69641182e-001
      2.25576937e-001 2.24659950e-001 2.31995791e-001 1.00867733e-001 0.
      0. 0.</_>
    <_>
      0. 0. 0. 0. 2.45047417e-002 1.51566371e-001 2.19635099e-001
      2.72274902e-003 0. 0. 0. 2.99502406e-002 2.30526090e-001
      2.30526090e-001 2.30526090e-001 2.08744109e-002 0. 0.
      4.99170683e-002 2.25988179e-001 1.36137456e-001 1.62457362e-001
      1.09817550e-001 1.52473956e-001 0. 8.16824753e-003 2.20542684e-001
      9.89265516e-002 9.07583046e-004 1.81516609e-003 5.62701486e-002
      1.57919452e-001 0. 2.16004759e-001 1.62457362e-001 0. 0. 0.
      1.82424188e-001 1.53381541e-001 1.08909961e-002 2.30526090e-001
      3.26729901e-002 0. 0. 4.53791507e-002 2.29618505e-001
      1.17985792e-002 4.81019020e-002 2.28710935e-001 9.07583069e-003 0.
      3.72109041e-002 2.27803349e-001 4.35639843e-002 0. 9.07583046e-004
      2.03298599e-001 2.29618505e-001 2.29618505e-001 2.17819929e-001
      6.17156476e-002 0. 0.</_>
    <_>
      0. 0. 0. 6.23098761e-002 2.02714801e-001 1.70313656e-001
      8.30798352e-004 0. 0. 0. 4.15399158e-003 2.04376400e-001
      2.07699582e-001 1.96899205e-001 1.23788953e-001 0. 0. 0.
      1.39574125e-001 2.10191980e-001 8.47414285e-002 5.81558831e-002
      2.10191980e-001 0. 0. 2.24315561e-002 2.10191980e-001
      1.39574125e-001 0. 4.81863059e-002 2.10191980e-001 0. 0.
      1.55359298e-001 2.10191980e-001 1.99391600e-002 0. 6.72946647e-002
      2.10191980e-001 0. 0. 2.10191980e-001 1.71975255e-001 0.
      4.32015136e-002 2.02714801e-001 1.92745224e-001 0. 0.
      1.38743326e-001 2.10191980e-001 1.53697699e-001 2.07699582e-001
      1.92745224e-001 6.64638681e-003 0. 0. 1.74467657e-002
      1.96899205e-001 2.10191980e-001 1.86929628e-001 3.24011371e-002 0.
      0.</_>
    <_>
      0. 0. 0. 7.86833838e-002 2.28802994e-001 1.09742612e-001 0. 0. 0.
      0. 1.37695923e-001 2.59862214e-001 2.52615064e-001 2.13273376e-001
      1.03530765e-003 0. 0. 1.03530765e-003 2.22591147e-001
      2.49509141e-001 1.03530765e-003 1.42872453e-001 2.37085447e-001 0.
      0. 3.00239213e-002 2.04990909e-001 7.24715367e-003 0.
      1.03530765e-003 1.95673153e-001 0. 0. 1.99814379e-001
      6.21184595e-002 0. 0. 0. 1.90496609e-001 0. 0. 2.61932850e-001
      3.52004617e-002 0. 0. 2.48473845e-002 2.49509141e-001 0. 0.
      2.61932850e-001 3.52004617e-002 0. 7.24715367e-003 2.18449920e-001
      2.79533062e-002 0. 0. 1.55296147e-001 1.77037612e-001
      1.31484076e-001 2.41226688e-001 4.24476154e-002 0. 0.</_>
    <_>
      0. 0. 0. 0. 2.07636029e-001 2.32903913e-001 1.09860336e-003 0. 0.
      0. 0. 3.51553075e-002 1.39522627e-001 2.23016486e-001
      4.61413413e-002 0. 0. 0. 2.19720672e-003 2.54875988e-001 0.
      6.70148060e-002 1.35128215e-001 0. 0. 0. 1.81269556e-001
      8.78882706e-002 0. 1.31832398e-002 2.55974591e-001 0. 0.
      1.20846368e-002 2.66960621e-001 0. 0. 1.86762568e-002
      2.75749445e-001 0. 0. 1.81269556e-001 1.87861174e-001 0. 0.
      1.68086320e-001 1.63691893e-001 0. 0. 2.13129058e-001
      9.22826827e-002 0. 3.29581015e-002 2.75749445e-001 1.42818438e-002
      0. 0. 8.67896676e-002 2.71355033e-001 2.58171797e-001
      2.76848048e-001 9.66770947e-002 0. 0.</_>
    <_>
      0. 0. 0. 0. 0. 0. 0. 0. 0. 0. 0. 0. 8.91264528e-002
      2.31910676e-001 2.31910676e-001 2.14631051e-001 0. 0.
      2.27363408e-002 2.09174335e-001 2.27363408e-001 1.80981264e-001
      1.99170336e-001 2.08264872e-001 0. 9.09453630e-003 2.13721603e-001
      1.93713620e-001 1.81890726e-002 2.63741538e-002 2.29182303e-001
      2.27363408e-002 0. 2.31910676e-001 1.60063833e-001 0.
      6.36617513e-003 1.70067832e-001 1.90985262e-001 0. 1.34599134e-001
      2.21906677e-001 0. 2.63741538e-002 1.90985262e-001 1.80981264e-001
      1.81890721e-003 0. 1.96441978e-001 2.24635035e-001 2.31910676e-001
      2.31910676e-001 1.02768257e-001 1.81890721e-003 0. 0. 0. 0. 0. 0.
      0. 0. 0. 0.</_>
    <_>
      0. 2.56570932e-002 1.97926149e-001 2.31830150e-001 2.25415885e-001
      7.88039267e-002 0. 0. 0. 2.09838361e-001 2.22666904e-001
      5.49794827e-003 1.92428194e-002 2.21750587e-001 5.03978617e-002 0.
      0. 2.31830150e-001 3.11550405e-002 0. 0. 7.33059794e-002
      2.23583236e-001 0. 0. 2.31830150e-001 3.11550405e-002 0. 0.
      2.47407686e-002 2.31830150e-001 0. 0. 2.16252640e-001
      1.06293671e-001 0. 0. 0. 2.28164852e-001 0. 0. 1.04461022e-001
      2.02507764e-001 2.74897413e-003 0. 6.41427329e-003 2.29081184e-001
      0. 0. 8.24692287e-003 2.31830150e-001 7.51386285e-002 0.
      4.12346125e-002 2.31830150e-001 0. 0. 0. 9.43814442e-002
      2.30913833e-001 2.01591447e-001 2.24499553e-001 4.21509370e-002 0.</_>
    <_>
      0. 0. 0. 0. 5.95308235e-003 1.67536750e-001 2.15161413e-001
      1.25865176e-001 0. 0. 0. 3.40176141e-003 2.15161413e-001
      2.14310974e-001 2.15161413e-001 1.47126183e-001 0. 0.
      2.38123294e-002 1.93900406e-001 2.04956129e-001 3.65689360e-002
      1.76891595e-001 1.47976622e-001 0. 1.70088070e-003 1.88797757e-001
      1.95601285e-001 8.50440376e-003 0. 5.86803854e-002 1.47126183e-001
      0. 8.50440338e-002 2.12610081e-001 9.35484376e-003 0. 0.
      7.73900747e-002 1.47976622e-001 1.27566056e-002 2.14310974e-001
      8.92962366e-002 0. 0. 0. 1.98152602e-001 1.28416494e-001
      9.01466757e-002 2.09208325e-001 0. 0. 5.10264188e-003
      1.96451724e-001 2.14310974e-001 1.70088070e-003 3.31671722e-002
      2.10058764e-001 1.75190717e-001 2.12610081e-001 2.11759642e-001
      1.52228817e-001 2.55132094e-003 0.</_>
    <_>
      0. 0. 0. 0. 1.09119667e-002 1.67037025e-001 2.10684896e-001
      1.09119669e-001 0. 0. 0. 8.39382038e-003 2.13203043e-001
      2.06487983e-001 1.89700350e-001 1.46052480e-001 0. 0.
      1.17513491e-002 1.91379115e-001 1.85503438e-001 1.17513491e-002
      1.51088774e-001 1.45213097e-001 0. 1.67876412e-003 1.88021585e-001
      2.03969836e-001 0. 0. 2.02291071e-001 1.30104214e-001 0.
      1.42694950e-001 2.00612307e-001 5.87567454e-003 0. 0.
      2.03969836e-001 1.17513485e-001 5.87567426e-002 2.11524278e-001
      4.53266315e-002 0. 0. 1.84664056e-002 2.10684896e-001
      2.85389908e-002 1.76270232e-001 1.56125069e-001 0. 0.
      3.35752824e-003 1.48570627e-001 2.12363660e-001 0. 5.79173639e-002
      2.11524278e-001 1.80467144e-001 1.59482598e-001 2.13203043e-001
      1.84664056e-001 5.87567454e-003 0.</_>
    <_>
      0. 6.65567350e-003 1.91112906e-001 1.51178867e-001 1.93014532e-001
      4.84913364e-002 0. 0. 0. 4.46880944e-002 2.39604250e-001
      1.90162100e-003 1.04589155e-002 2.24391282e-001 9.41302404e-002 0.
      0. 1.35015085e-001 1.74949139e-001 0. 0. 1.33113470e-002
      2.37702623e-001 0. 0. 2.19637230e-001 1.19802125e-001 0. 0. 0.
      2.27243707e-001 0. 0. 2.40555063e-001 6.65567368e-002 0. 0.
      1.99670196e-002 2.37702623e-001 0. 0. 2.40555063e-001
      6.65567368e-002 0. 9.50810499e-003 2.21538842e-001 1.36916712e-001
      0. 0. 1.86358854e-001 1.18851312e-001 0. 2.21538842e-001
      2.29145333e-001 1.90162100e-003 0. 0. 2.56718844e-002
      2.31046945e-001 2.33899385e-001 2.29145333e-001 3.70816104e-002 0.
      0.</_>
    <_>
      0. 0. 0. 0. 1.41344368e-001 1.65053740e-001 6.74805343e-002
      9.30137113e-002 0. 0. 9.11899144e-004 1.05780303e-001
      2.30710477e-001 2.20679596e-001 2.27062881e-001 2.18855798e-001 0.
      2.73569743e-003 1.73260838e-001 2.24327192e-001 8.75423178e-002 0.
      2.00617816e-002 2.04265416e-001 0. 2.15208203e-001 2.04265416e-001
      1.73260830e-002 0. 0. 1.13075495e-001 1.81467935e-001
      1.46815762e-001 2.24327192e-001 0. 0. 0. 0. 2.17943892e-001
      1.14899293e-001 2.29798585e-001 6.10972419e-002 0. 0. 0.
      4.46830578e-002 2.27974787e-001 2.18855795e-002 2.27974787e-001
      1.29489675e-001 1.45903863e-002 0. 6.38329387e-002 2.27062881e-001
      6.93043321e-002 0. 0. 1.32225379e-001 1.58670455e-001
      1.57758549e-001 1.47727668e-001 2.18855795e-002 0. 0.</_>
    <_>
      0. 0. 0. 0. 3.47209200e-002 1.00855999e-001 1.75257966e-001
      1.15736395e-001 0. 0. 0. 7.44019682e-003 2.09152207e-001
      2.05018759e-001 2.08325505e-001 1.43017113e-001 0. 0. 0.
      1.91791743e-001 2.04192072e-001 3.55476066e-002 2.05845445e-001
      1.38056993e-001 0. 0. 1.81871485e-002 2.04192072e-001
      1.31443471e-001 1.73604600e-002 2.06672132e-001 8.59756097e-002 0.
      0. 1.33923545e-001 2.09152207e-001 0. 1.58724204e-001
      1.70297846e-001 0. 0. 9.01090503e-002 2.08325505e-001
      9.34158042e-002 9.09357369e-002 2.06672132e-001 3.30675417e-003 0.
      0. 2.09152207e-001 2.09978893e-001 2.07498819e-001 2.09978893e-001
      2.23205909e-002 0. 0. 7.44019672e-002 2.07498819e-001
      2.08325505e-001 2.07498819e-001 7.93621019e-002 1.65337708e-003 0.
      0.</_>
    <_>
      0. 0. 0. 2.61195539e-003 1.70647755e-001 1.88060790e-001
      1.88060790e-001 1.10572778e-001 0. 0. 3.48260719e-003
      1.98508605e-001 1.96767300e-001 1.30597772e-002 9.57717001e-003
      2.18533605e-001 0. 8.70651798e-004 1.57587975e-001 2.07215130e-001
      2.61195539e-003 0. 0. 2.01991215e-001 0. 1.09702125e-001
      2.19404250e-001 3.13434638e-002 0. 0. 2.00249907e-002
      2.06344470e-001 2.26369463e-002 2.20274910e-001 1.23632558e-001 0.
      0. 8.70651798e-004 1.97637960e-001 1.75001010e-001 1.49752110e-001
      2.13309690e-001 8.70651798e-004 0. 5.22391079e-003 1.45398855e-001
      2.08956435e-001 1.65423844e-002 2.08085775e-001 1.49752110e-001
      1.65423844e-002 5.13684563e-002 1.50622755e-001 1.96767300e-001
      8.70651752e-003 0. 1.58458620e-001 2.20274910e-001 2.14180335e-001
      1.66294500e-001 6.87814951e-002 0. 0. 0.</_>
    <_>
      0. 0. 0. 0. 7.73409090e-004 1.21425226e-001 1.94899097e-001
      1.94899097e-001 0. 0. 0. 3.09363636e-003 1.86391592e-001
      1.94899097e-001 1.51588187e-001 1.95672497e-001 0. 0.
      3.17097716e-002 1.83297947e-001 1.93352267e-001 4.33109105e-002 0.
      1.95672497e-001 0. 1.93352271e-002 1.91032052e-001 1.79430902e-001
      2.08820459e-002 0. 0. 1.95672497e-001 7.73409102e-003
      1.86391592e-001 1.89485222e-001 1.23745454e-002 0. 0.
      1.38440222e-001 1.79430902e-001 1.55455232e-001 1.94899097e-001
      4.33109105e-002 0. 0. 3.09363641e-002 1.94125682e-001
      1.00543179e-001 1.95672497e-001 1.45400912e-001 0. 0.
      5.95524982e-002 1.92578867e-001 1.77110687e-001 1.54681818e-003
      1.78657502e-001 1.95672497e-001 1.95672497e-001 1.95672497e-001
      1.89485222e-001 7.88877308e-002 0. 0.</_>
    <_>
      0. 0. 0. 0. 0. 3.17454971e-002 1.90472990e-001 2.05938742e-001 0.
      0. 0. 0. 9.03525651e-002 2.05124751e-001 1.47331670e-001
      2.05938742e-001 0. 0. 0. 1.35935843e-001 2.05124751e-001
      1.08260289e-001 0. 2.05938742e-001 0. 8.13987106e-004
      1.52215585e-001 2.05938742e-001 7.00028911e-002 0. 8.38406682e-002
      1.96984887e-001 0. 1.73379257e-001 2.05124751e-001 7.00028911e-002
      0. 7.32588395e-003 2.01868802e-001 1.29423946e-001 8.79106075e-002
      2.05124751e-001 7.65147880e-002 0. 4.88392264e-003 1.57099515e-001
      1.89658999e-001 0. 2.05124751e-001 1.38377815e-001 0.
      3.58154327e-002 1.97798863e-001 1.89658999e-001 8.95385817e-003 0.
      2.05938742e-001 2.05938742e-001 2.05938742e-001 2.05124751e-001
      1.30237937e-001 8.13987106e-003 0. 0.</_>
    <_>
      0. 0. 0. 1.48358896e-001 1.44602984e-001 0. 0. 0. 0. 0.
      1.87796075e-002 2.37562031e-001 2.36623049e-001 1.70894429e-001
      9.38980374e-004 0. 0. 0. 1.36152148e-001 2.37562031e-001
      6.85455650e-002 2.36623049e-001 1.40847061e-002 0. 0.
      1.87796075e-003 2.18782425e-001 1.70894429e-001 0. 2.38501012e-001
      1.50236860e-002 0. 0. 1.59626659e-002 2.36623049e-001
      2.44134888e-002 0. 2.36623049e-001 1.50236860e-002 0. 0.
      1.59626659e-002 2.36623049e-001 1.87796075e-002 4.22541164e-002
      2.37562031e-001 1.31457252e-002 0. 0. 1.59626659e-002
      2.36623049e-001 9.29590538e-002 2.31928155e-001 2.15965480e-001
      1.87796075e-003 0. 0. 2.81694112e-003 2.04697728e-001
      2.37562031e-001 2.28172228e-001 3.56812552e-002 0. 0.</_>
    <_>
      0. 0. 0. 0. 8.04314448e-004 1.07778139e-001 1.97057039e-001
      1.58449948e-001 0. 0. 0. 3.21725779e-003 1.93839788e-001
      2.02687234e-001 1.26277372e-001 1.93839788e-001 0. 0.
      1.04560880e-002 1.90622523e-001 1.97057039e-001 6.03235848e-002 0.
      2.03491554e-001 0. 2.01078616e-002 1.90622523e-001 1.86600953e-001
      2.17164904e-002 0. 0. 2.03491554e-001 8.04314448e-004
      1.93839788e-001 1.97057039e-001 1.28690312e-002 0. 0.
      8.44530165e-002 1.95448413e-001 1.38342083e-001 2.03491554e-001
      5.79106398e-002 0. 0. 3.21725793e-002 1.94644094e-001
      1.15821280e-001 2.02687234e-001 1.57645628e-001 0. 0.
      7.39969313e-002 1.70514658e-001 1.84188008e-001 1.60862890e-003
      1.72123298e-001 2.03491554e-001 2.03491554e-001 2.01882929e-001
      1.69710353e-001 6.27365261e-002 0. 0.</_>
    <_>
      0. 0. 0. 0. 3.87918353e-002 1.87924892e-001 1.87062845e-001
      3.62057127e-002 0. 0. 0. 6.12048954e-002 2.17234284e-001
      1.72408164e-001 2.07751825e-001 8.44799951e-002 0. 0.
      5.60326502e-002 2.13786110e-001 1.20685712e-001 0. 1.72408149e-002
      2.02579588e-001 0. 8.62040743e-003 2.13786110e-001 1.01720810e-001
      0. 0. 0. 2.18096316e-001 8.62040743e-003 2.17234284e-001
      1.53443262e-001 0. 0. 0. 0. 2.17234284e-001 1.49995103e-001
      2.10337952e-001 7.75836688e-003 0. 0. 0. 1.63787752e-001
      1.70684069e-001 2.17234284e-001 4.13779579e-002 0. 0.
      7.75836688e-003 1.93959177e-001 2.17234284e-001 8.62040743e-003
      1.89648971e-001 2.17234284e-001 2.05165714e-001 2.18096316e-001
      1.81028560e-001 8.53420347e-002 0. 0.</_>
    <_>
      0. 0. 2.61121783e-002 1.97706506e-001 2.35942185e-001
      2.06099704e-001 1.85582981e-001 2.89099123e-002 0. 2.79773353e-003
      2.35009611e-001 8.48645791e-002 0. 2.70447563e-002 1.76257208e-001
      2.29414150e-001 0. 1.80920094e-001 1.59470811e-001 0. 0. 0. 0.
      1.38021514e-001 4.19660024e-002 2.22886100e-001 0. 0. 0. 0. 0.
      1.81852669e-001 1.69729158e-001 1.49212452e-002 0. 0. 0. 0.
      2.14492902e-002 2.27548987e-001 1.79054946e-001 0. 0. 0. 0.
      2.23818682e-002 2.32211873e-001 9.04600471e-002 1.06313869e-001
      1.75324634e-001 0. 0. 2.14492902e-002 2.32211873e-001
      1.57605648e-001 0. 0. 1.89313293e-001 2.35009611e-001
      2.35009611e-001 2.35942185e-001 1.38021514e-001 0. 0.</_>
    <_>
      0. 0. 1.14487763e-003 1.91194564e-001 2.23251134e-001
      1.25936540e-002 0. 0. 0. 0. 1.24791659e-001 2.71335989e-001
      1.60282865e-001 2.11802363e-001 2.78205276e-001 9.15902108e-003 0.
      1.25936540e-002 2.53017962e-001 8.01414344e-003 0. 0.
      6.41131476e-002 1.79745793e-001 0. 1.63717508e-001 8.93004537e-002
      0. 0. 0. 0. 1.55703366e-001 0. 2.82784790e-001 0. 0. 0. 0.
      2.20961377e-001 0. 8.01414344e-003 2.50728190e-001 0. 0. 0.
      6.86926544e-002 1.15632638e-001 0. 1.03038987e-002 2.50728190e-001
      0. 0. 4.35053483e-002 2.36989677e-001 1.14487763e-003 0. 0.
      2.53017962e-001 2.03788221e-001 1.64862379e-001 2.30120406e-001
      3.43463290e-003 0. 0.</_>
    <_>
      0. 0. 0. 0. 0. 6.42462298e-002 2.17916265e-001 6.42462298e-002 0.
      0. 0. 0. 8.50828439e-002 2.21389040e-001 2.17916265e-001
      1.16337769e-001 0. 0. 0. 1.38910770e-001 2.17048079e-001
      6.51144236e-002 5.90370744e-002 1.51933655e-001 0. 0.
      1.38910770e-001 2.21389040e-001 7.20599592e-002 0. 0.
      1.51933655e-001 0. 2.08366141e-002 2.21389040e-001 1.48460880e-001
      0. 0. 1.69297501e-001 1.51933655e-001 0. 2.21389040e-001
      1.80583999e-001 0. 0. 9.72375348e-002 2.21389040e-001
      3.38594988e-002 1.49329081e-001 2.21389040e-001 4.34096158e-003 0.
      2.09234342e-001 2.21389040e-001 7.20599592e-002 0. 1.76243037e-001
      2.21389040e-001 2.21389040e-001 2.21389040e-001 1.44988120e-001
      1.64956544e-002 0. 0.</_>
    <_>
      0. 0. 0. 0. 0. 7.81324208e-002 1.94910988e-001 1.47023380e-001 0.
      0. 0. 0. 1.32741109e-001 2.14234069e-001 2.14234069e-001
      1.37781903e-001 0. 0. 1.00816032e-002 1.68026716e-001
      2.14234069e-001 1.50383905e-001 2.14234069e-001 0. 0. 0.
      1.97431386e-001 2.14234069e-001 7.22514912e-002 0. 2.14234069e-001
      0. 0. 9.15745571e-002 2.14234069e-001 1.09217368e-001 0. 0.
      2.07512990e-001 0. 2.10033394e-002 2.14234069e-001 1.54584572e-001
      0. 0. 4.70474809e-002 2.14234069e-001 0. 7.39317536e-002
      2.10873529e-001 1.68026716e-003 0. 1.19298965e-001 2.10873529e-001
      7.30916187e-002 0. 7.39317536e-002 2.14234069e-001 2.14234069e-001
      2.14234069e-001 1.94070861e-001 6.88909516e-002 0. 0.</_>
    <_>
      0. 0. 0. 0. 4.66633961e-003 1.08881257e-001 1.86653584e-001
      1.96763992e-001 0. 0. 0. 3.73307168e-002 1.97541714e-001
      1.95986271e-001 1.93653092e-001 1.93653092e-001 0. 0.
      7.15505406e-002 1.94430813e-001 1.86653584e-001 4.19970565e-002
      1.65655062e-001 1.49322867e-001 0. 8.39941129e-002 1.96763992e-001
      1.85875863e-001 1.94430817e-002 0. 1.94430813e-001 5.44406287e-002
      1.01104025e-002 1.97541714e-001 1.57100096e-001 0. 0.
      4.97742891e-002 1.97541714e-001 2.09985282e-002 1.67210504e-001
      1.94430813e-001 2.64425911e-002 0. 0. 1.64099604e-001
      1.59433275e-001 0. 1.96763992e-001 1.29102066e-001 0. 0.
      1.46211982e-001 1.96763992e-001 7.77723268e-003 0. 1.44656524e-001
      1.95986271e-001 1.96763992e-001 1.96763992e-001 1.75765455e-001
      4.74411175e-002 0. 0.</_>
    <_>
      0. 0. 0. 1.85670294e-002 2.30231166e-001 1.44822836e-001
      1.20685697e-002 0. 0. 0. 1.39252720e-002 2.07950726e-001
      2.31159523e-001 2.02380627e-001 2.34872922e-001 0. 0. 0.
      9.56202000e-002 2.20019296e-001 0. 0. 1.71745017e-001 0. 0.
      2.32087877e-002 2.34872922e-001 3.62057090e-002 0. 0.
      7.24114180e-002 0. 0. 2.23732710e-001 1.62461504e-001 0. 0. 0.
      2.03308970e-001 0. 0. 2.33944580e-001 6.96263611e-002 0. 0.
      1.08617127e-001 2.34872922e-001 0. 6.12711981e-002 2.33016223e-001
      0. 5.29160351e-002 2.19090953e-001 2.15377539e-001 1.76386777e-002
      0. 5.01309782e-002 2.33016223e-001 2.34872922e-001 2.30231166e-001
      1.35539323e-001 0. 0. 0.</_>
    <_>
      0. 0. 0. 0. 1.06525030e-002 2.55660057e-001 1.53396040e-001
      5.53930141e-002 0. 0. 0. 0. 2.26898298e-001 1.52330786e-001
      1.93875551e-001 1.39547780e-001 0. 0. 0. 9.26767737e-002
      2.36485556e-001 0. 5.85887656e-002 1.85353547e-001 0. 0.
      3.30227576e-002 2.64182061e-001 3.19575071e-002 0. 1.02264024e-001
      1.85353547e-001 0. 1.06525025e-003 2.34355062e-001 8.73505175e-002
      0. 0. 1.93875551e-001 1.16112277e-001 0. 1.09720774e-001
      2.02397555e-001 2.13050051e-003 0. 8.20242688e-002 2.64182061e-001
      0. 0. 2.70573556e-001 6.39150152e-003 0. 6.49802685e-002
      2.68443078e-001 1.70440041e-002 0. 8.62852708e-002 2.15180546e-001
      5.75235151e-002 2.16245800e-001 2.40746558e-001 4.90015112e-002 0.
      0.</_>
    <_>
      0. 1.45845935e-001 1.95245355e-001 8.93894434e-002 0. 0. 0. 0.
      9.01735574e-002 1.98381826e-001 1.98381826e-001 1.98381826e-001
      7.91959092e-002 9.40941460e-003 0. 0. 1.58391818e-001
      1.96813598e-001 1.16833568e-001 1.19970039e-001 1.85835943e-001
      1.98381826e-001 8.31164941e-002 0. 1.98381826e-001 1.66232988e-001
      0. 0. 2.35235365e-003 9.33100283e-002 1.98381826e-001
      4.93994281e-002 1.95245355e-001 1.67801231e-001 0. 0. 0. 0.
      1.19970039e-001 1.48982406e-001 1.58391818e-001 1.93677127e-001
      4.70470730e-003 0. 0. 0. 3.84217761e-002 1.80347115e-001
      1.41141219e-002 1.98381826e-001 1.69369474e-001 1.33300042e-002 0.
      0. 4.78311926e-002 1.88972414e-001 0. 4.78311926e-002
      1.76426530e-001 1.97597712e-001 1.98381826e-001 1.98381826e-001
      1.98381826e-001 1.16049446e-001</_>
    <_>
      0. 0. 0. 0. 0. 1.45173306e-002 1.98403522e-001 2.11953029e-001 0.
      0. 0. 9.67822038e-004 1.31623805e-001 2.41955504e-001
      9.87178460e-002 2.42923334e-001 0. 0. 1.16138645e-002
      1.80014893e-001 1.85821831e-001 1.54851526e-002 0. 2.40987688e-001
      0. 4.83911019e-003 2.26470351e-001 9.00074467e-002 0. 0.
      5.41980341e-002 1.99371338e-001 0. 2.45826796e-001 9.87178460e-002
      0. 0. 4.64554578e-002 2.39052042e-001 1.93564408e-003
      8.22648704e-002 2.21631244e-001 0. 0. 9.96856689e-002
      2.32277289e-001 2.70990171e-002 0. 2.01306984e-001 2.03242637e-002
      3.87128815e-002 1.95500046e-001 2.15824321e-001 4.83911019e-003 0.
      0. 2.37116396e-001 2.40019858e-001 2.18727782e-001 6.67797178e-002
      0. 0. 0. 0.</_>
    <_>
      0. 0. 0. 0. 0. 5.32357208e-002 2.07135350e-001 1.93584442e-001 0.
      0. 0. 1.93584443e-003 1.30669504e-001 2.33269259e-001
      5.51715679e-002 2.21654192e-001 0. 0. 0. 1.82937294e-001
      1.99391976e-001 1.06471442e-002 6.77545555e-003 2.22622111e-001 0.
      0. 9.00167674e-002 2.14878738e-001 1.93584443e-003 9.67922213e-004
      2.22622111e-001 9.09846872e-002 0. 1.83905214e-002 2.39076793e-001
      2.41980553e-002 0. 1.77129760e-001 1.95520282e-001 0. 0.
      2.29397565e-001 1.00663908e-001 0. 1.50995865e-001 1.73258081e-001
      9.67922213e-004 0. 1.58739239e-001 1.92616522e-001 1.64546780e-002
      2.18750417e-001 1.95520282e-001 2.90376670e-003 0. 0.
      2.09071204e-001 2.26493791e-001 2.36173019e-001 1.23894043e-001 0.
      0. 0. 0.</_>
    <_>
      0. 0. 0. 0. 8.82852590e-004 1.13005131e-001 1.94227576e-001
      1.39490709e-001 0. 0. 0. 8.82852590e-004 1.80101931e-001
      2.18064591e-001 2.04821795e-001 1.50084943e-001 0. 0. 0.
      1.73039109e-001 1.71273395e-001 6.17996790e-003 2.03056097e-001
      1.50967792e-001 0. 0. 1.23599365e-001 2.14533180e-001
      4.41426318e-003 0. 2.17181742e-001 1.23599365e-001 0.
      1.58913471e-002 2.21596003e-001 2.03056093e-002 0. 1.58913471e-002
      2.23361701e-001 7.41596147e-002 0. 1.91579014e-001 1.15653686e-001
      0. 0. 4.94397432e-002 2.23361701e-001 2.56027244e-002
      2.73684300e-002 2.22478852e-001 6.17996790e-003 0. 3.79626602e-002
      2.19830289e-001 1.38607860e-001 0. 2.64855772e-002 2.24244565e-001
      2.24244565e-001 2.24244565e-001 2.15416029e-001 1.13005131e-001 0.
      0.</_>
    <_>
      0. 0. 0. 0. 0. 0. 2.60762095e-001 0. 0. 0. 0. 0. 0.
      8.18922222e-002 2.73692429e-001 0. 0. 0. 0. 0. 1.02365278e-001
      2.25203618e-001 2.65072197e-001 0. 0. 0. 0. 1.03442810e-001
      2.40289032e-001 1.29303513e-002 2.57529497e-001 0. 0. 0.
      1.18528223e-002 2.55374432e-001 2.37056445e-002 7.54270516e-003
      2.68304795e-001 0. 0. 0. 2.05808088e-001 6.78843409e-002 0.
      1.82102442e-001 1.48699045e-001 0. 0. 9.91326943e-002
      1.82102442e-001 8.62023421e-003 2.54296899e-001 1.87490091e-001
      2.15505855e-003 0. 0. 2.71537364e-001 2.33823851e-001
      2.53219366e-001 9.15899873e-002 0. 0. 0.</_>
    <_>
      0. 0. 0. 0. 1.12487264e-001 2.12094307e-001 1.89768583e-001
      5.15208840e-002 0. 0. 8.58681393e-004 1.15921989e-001
      2.16387704e-001 1.57138690e-001 2.06083536e-001 1.34812981e-001 0.
      0. 1.03900447e-001 2.18105078e-001 5.40969260e-002 0.
      2.01790124e-001 1.09911218e-001 0. 3.60646173e-002 2.17246398e-001
      9.18789059e-002 0. 1.71736279e-003 2.12952986e-001 8.24334174e-002
      0. 2.16387704e-001 1.64008141e-001 0. 0. 5.75316548e-002
      2.18105078e-001 7.72813242e-003 3.94993424e-002 2.15529025e-001
      1.37389023e-002 0. 1.71736274e-002 2.00931445e-001 1.95779353e-001
      0. 9.35962722e-002 2.09518254e-001 0. 6.61184639e-002
      2.14670345e-001 1.90627262e-001 4.29340685e-003 0. 4.29340685e-003
      2.14670345e-001 2.18105078e-001 2.08659574e-001 7.98573717e-002 0.
      0. 0.</_>
    <_>
      0. 0. 1.91529300e-002 2.27441043e-001 3.02855700e-001
      2.29835153e-001 4.78823250e-003 0. 0. 0. 2.80111611e-001
      3.00461590e-001 1.20902874e-001 1.46041095e-001 1.55617557e-002 0.
      0. 1.19705815e-002 2.60958672e-001 1.55617557e-002 0.
      1.22099929e-001 1.91529300e-002 0. 0. 2.03499887e-002
      2.08288118e-001 0. 0. 1.36464626e-001 1.91529300e-002 0. 0.
      1.81952834e-001 1.41252860e-001 0. 0. 1.46041095e-001
      1.79558713e-002 0. 0. 1.55617550e-001 1.63996965e-001 0. 0.
      2.20258698e-001 1.07735228e-002 0. 0. 8.37940723e-003
      2.08288118e-001 0. 1.65194020e-001 1.62799910e-001 0. 0. 0.
      1.19705813e-003 2.56170452e-001 1.80755779e-001 2.83702761e-001
      3.71088013e-002 0. 0.</_>
    <_>
      0. 0. 0. 0. 0. 4.33528498e-002 2.42331311e-001 1.44509494e-001 0.
      0. 0. 0. 3.66831794e-002 2.81237721e-001 1.00045033e-001
      1.93420395e-001 0. 0. 0. 0. 2.70121604e-001 8.44824761e-002 0.
      1.93420395e-001 0. 0. 0. 2.00090066e-001 1.68964952e-001 0.
      2.77902875e-002 1.94532007e-001 0. 0. 8.00360292e-002
      2.66786754e-001 0. 0. 2.53447413e-001 1.77857839e-002 0.
      2.22322298e-003 2.60117084e-001 3.66831794e-002 0. 9.55985859e-002
      2.49000967e-001 0. 0. 1.04491480e-001 1.80081055e-001 0.
      4.77992930e-002 2.80126095e-001 6.66966895e-003 0. 8.89289193e-003
      2.76791275e-001 1.00045037e-002 7.78128058e-002 2.73456424e-001
      4.33528498e-002 0. 0.</_>
    <_>
      0. 0. 0. 0. 0. 8.50738958e-003 1.82908878e-001 2.48841152e-001 0.
      0. 0. 0. 5.52980304e-002 2.65855938e-001 7.86933526e-002
      2.09494472e-001 0. 0. 0. 9.25178602e-002 2.45650873e-001
      2.33953223e-002 0. 2.54158258e-001 0. 0. 1.18040033e-001
      2.35016644e-001 5.31711848e-003 0. 0. 2.55221695e-001 0.
      2.65855920e-002 2.43524030e-001 8.50738958e-003 0. 0.
      1.04215525e-001 1.90352842e-001 0. 2.56285101e-001 4.78540659e-002
      0. 0. 1.18040033e-001 2.47777715e-001 6.38054218e-003
      2.33953223e-002 1.83972299e-001 0. 0. 2.19065279e-001
      2.26509243e-001 5.31711848e-003 0. 1.70147792e-001 4.25369479e-003
      8.18836242e-002 2.62665659e-001 1.53133005e-001 0. 0. 0.</_>
    <_>
      0. 0. 0. 0. 0. 1.09232396e-001 2.39731267e-001 9.18325409e-002 0.
      0. 0. 0. 1.27598897e-001 2.31997997e-001 2.36831293e-001
      1.06332414e-002 0. 0. 0. 1.36298820e-001 2.16531470e-001
      2.22331416e-002 1.73031852e-001 1.05365761e-001 0. 0.
      5.70328422e-002 2.44564563e-001 1.54665336e-002 0. 2.33931318e-001
      5.99328168e-002 0. 5.79995010e-003 2.28131369e-001 1.05365761e-001
      0. 7.24993795e-002 2.45531216e-001 8.69992562e-003 0.
      1.59498632e-001 2.05898225e-001 9.66658350e-004 1.54665336e-002
      2.25231394e-001 1.72065184e-001 0. 0. 2.43597910e-001
      1.54665336e-002 4.05996516e-002 2.39731267e-001 1.37265489e-001 0.
      0. 3.28663848e-002 2.31997997e-001 2.01064944e-001 2.28131369e-001
      7.15327188e-002 0. 0. 0.</_>
    <_>
      0. 6.87267482e-002 1.29158884e-001 0. 0. 0. 0. 0. 1.18494395e-003
      2.98605889e-001 2.40543619e-001 2.73722053e-001 2.72537112e-001
      3.08085419e-002 0. 0. 1.10199787e-001 2.14474857e-001 0. 0.
      4.02880944e-002 2.71352172e-001 7.70213529e-002 0. 2.34618902e-001
      1.30343838e-002 0. 0. 0. 4.02880944e-002 2.95051038e-001
      9.47955158e-003 2.18029693e-001 5.92471985e-003 0. 0. 0. 0.
      6.16170838e-002 1.99070588e-001 2.03810364e-001 1.42193269e-002 0.
      0. 0. 0. 0. 1.48117989e-001 1.27973944e-001 1.44563168e-001 0. 0.
      0. 0. 0. 2.04995304e-001 0. 2.64242500e-001 9.00557414e-002
      7.10966345e-003 3.67332622e-002 1.05460010e-001 2.70167232e-001
      2.60687675e-002</_>
    <_>
      0. 0. 0. 0. 0. 5.63942231e-002 2.16974378e-001 1.24258459e-001 0.
      0. 0. 0. 1.19479284e-001 2.39914402e-001 2.40870237e-001
      1.58668488e-001 0. 0. 0. 1.26170129e-001 2.23665223e-001
      2.10283548e-002 7.16875717e-002 1.66315168e-001 0. 0.
      1.22346789e-001 2.34179407e-001 9.55834240e-003 0. 2.07416043e-001
      1.63447663e-001 0. 6.21292293e-002 2.29400232e-001 9.55834240e-003
      0. 5.63942231e-002 2.41826072e-001 1.43375145e-002 0.
      2.40870237e-001 4.87475470e-002 0. 8.22017491e-002 2.31311902e-001
      4.77917157e-002 0. 9.84509289e-002 2.12195218e-001 0.
      1.83520183e-001 2.31311902e-001 1.14700114e-002 0. 0.
      1.51977658e-001 2.25576892e-001 2.38002732e-001 1.62491828e-001 0.
      0. 0. 0.</_>
    <_>
      0. 0. 0. 0. 0. 1.89570665e-001 3.30768108e-001 0. 0. 0. 0. 0.
      2.22255252e-002 3.20309043e-001 5.22953570e-002 0. 0. 0. 0. 0.
      2.71935850e-001 2.39251256e-001 0. 0. 0. 0. 0. 9.54390243e-002
      3.16386908e-001 2.09181421e-002 0. 0. 0. 0. 3.13772112e-002
      3.30768108e-001 1.45119607e-001 0. 0. 0. 0. 0. 2.48402938e-001
      2.95468748e-001 0. 0. 0. 0. 0. 1.17664551e-002 3.32075506e-001
      9.80537906e-002 0. 0. 0. 0. 0. 9.93611738e-002 3.12464744e-001 0.
      0. 0. 0. 0.</_>
    <_>
      0. 0. 1.24681499e-002 3.05469662e-001 5.86003028e-002 0. 0. 0. 0.
      0. 0. 2.90507883e-001 7.23152682e-002 0. 0. 0. 0. 0.
      7.48088956e-003 2.97988772e-001 1.96996763e-001 0. 0. 0. 0. 0. 0.
      2.58090705e-001 2.80533373e-001 0. 0. 0. 0. 0. 0. 2.56843895e-001
      2.80533373e-001 0. 0. 0. 0. 0. 0. 2.56843895e-001 3.06716472e-001
      1.24681499e-002 0. 0. 0. 0. 0. 1.13460161e-001 3.14197361e-001
      7.85493404e-002 0. 0. 0. 0. 0. 0. 3.14197361e-001 1.38396457e-001
      0. 0.</_>
    <_>
      0. 0. 0. 3.05573046e-001 1.12579547e-001 0. 0. 0. 0. 0. 0.
      1.14366524e-001 2.43028864e-001 0. 0. 0. 0. 0. 0. 4.28874455e-002
      3.68117243e-001 0. 0. 0. 0. 0. 0. 4.11004685e-002 3.68117243e-001
      0. 0. 0. 0. 0. 0. 4.11004685e-002 3.68117243e-001 0. 0. 0. 0. 0.
      0. 4.28874455e-002 3.68117243e-001 0. 0. 0. 0. 0. 0.
      4.11004685e-002 3.68117243e-001 0. 0. 0. 0. 0. 0. 0.
      3.68117243e-001 0. 0. 0.</_>
    <_>
      0. 0. 0. 0. 4.69746180e-002 2.69768536e-001 0. 0. 0. 0. 0. 0.
      1.20791882e-001 2.76479185e-001 0. 0. 0. 0. 0. 4.83167507e-002
      3.40901524e-001 2.13398993e-001 0. 0. 0. 6.71065971e-002
      2.05346197e-001 3.31506610e-001 1.36897460e-001 2.13398993e-001 0.
      0. 0. 1.07370559e-002 4.16060910e-002 0. 9.52913687e-002
      2.32188836e-001 0. 0. 0. 0. 0. 0. 4.96588834e-002 2.21451774e-001
      0. 0. 0. 0. 2.01319791e-002 6.84487298e-002 4.96588834e-002
      1.93267003e-001 3.75796966e-002 0. 0. 2.65742123e-001
      3.27480197e-001 2.22793907e-001 1.62397966e-001 1.27502546e-001
      1.27502546e-001 0.</_>
    <_>
      0. 0. 0. 0. 0. 2.06284761e-001 2.27624569e-002 0. 0. 0. 0. 0.
      3.55663374e-002 3.59931350e-001 1.84944961e-002 0. 0. 0. 0. 0.
      2.07707420e-001 2.84530699e-001 1.42265356e-003 0. 0. 0. 0.
      5.83287962e-002 3.58508706e-001 5.83287962e-002 0. 0. 0. 0.
      4.26796079e-003 3.38591546e-001 2.30469882e-001 0. 0. 0. 0. 0.
      1.40842706e-001 3.45704824e-001 0. 0. 0. 0. 0. 5.69061423e-003
      3.35746229e-001 8.10912549e-002 0. 0. 0. 0. 0. 7.11326748e-002
      3.59931350e-001 7.25553334e-002 0. 0. 0. 0.</_>
    <_>
      0. 0. 2.70218495e-002 6.15497679e-002 4.50364165e-002
      4.20339890e-002 0. 0. 0. 0. 0. 0. 3.79807115e-001 1.15593471e-001
      0. 0. 0. 0. 0. 1.42615318e-001 3.58790129e-001 3.90315615e-002 0.
      0. 0. 0. 0. 2.67216057e-001 3.28765839e-001 0. 0. 0. 0. 0.
      7.50606926e-003 3.70799839e-001 2.13172376e-001 0. 0. 0. 0. 0.
      6.30509853e-002 3.81308317e-001 0. 2.85230633e-002 0. 0. 0. 0.
      1.41114101e-001 2.07167521e-001 0. 1.50121388e-003 0. 0. 0. 0.
      3.21259767e-001 6.90558404e-002 0. 0. 0. 0.</_>
    <_>
      0. 0. 0. 1.90348282e-001 1.95077434e-001 0. 0. 0. 0. 0.
      1.78525403e-001 2.99118727e-001 2.32910633e-001 0. 0. 0. 0.
      1.18228747e-002 2.74290681e-001 2.70743817e-001 1.31233916e-001 0.
      0. 0. 0. 0. 4.72914986e-003 2.22270042e-001 1.17046461e-001 0. 0.
      0. 0. 0. 0. 2.21087754e-001 1.05223581e-001 0. 0. 0. 0. 0. 0.
      2.57738680e-001 0. 0. 1.18228747e-003 0. 0. 0. 0. 2.83748984e-001
      1.17046461e-001 2.11629450e-001 1.89165995e-002 0. 0. 0.
      1.53697371e-001 2.99118727e-001 3.00301015e-001 2.28181481e-001
      3.54686240e-003 0.</_>
    <_>
      0. 0. 0. 3.56775001e-002 2.39039257e-001 0. 0. 0. 0. 0. 0. 0.
      3.67478251e-001 0. 0. 0. 0. 0. 0. 0. 3.67478251e-001 0. 0. 0. 0.
      0. 0. 0. 3.67478251e-001 0. 0. 0. 0. 0. 0. 0. 3.67478251e-001 0.
      0. 0. 0. 0. 0. 0. 3.67478251e-001 0. 0. 0. 0. 0. 0.
      1.87306881e-001 3.31800759e-001 0. 0. 0. 0. 0. 0. 2.97907144e-001
      1.80171385e-001 0. 0. 0.</_>
    <_>
      0. 0. 0. 0. 2.71972809e-002 3.21186930e-001 0. 0. 0. 0. 0. 0.
      3.27662468e-001 2.46070623e-001 0. 0. 0. 0. 0. 6.86407536e-002
      3.28957587e-001 9.58380327e-002 0. 0. 0. 0. 0. 2.47365743e-001
      2.92694539e-001 0. 0. 0. 0. 0. 3.49679329e-002 3.22482049e-001 0.
      0. 0. 0. 0. 0. 2.20168456e-001 2.96579868e-001 0. 0. 0. 0. 0. 0.
      3.28957587e-001 5.05092330e-002 0. 0. 0. 0. 0. 1.42461946e-002
      3.26367348e-001 9.06576030e-003 0. 0. 0. 0.</_>
    <_>
      0. 0. 0. 0. 2.03828886e-002 2.94952393e-001 4.79597365e-003 0. 0.
      0. 0. 0. 2.27808747e-002 3.02146345e-001 1.91838946e-002 0. 0. 0.
      0. 0. 6.47456422e-002 3.03345323e-001 1.79849006e-002 0. 0. 0. 0.
      0. 2.18216807e-001 3.03345323e-001 8.39295425e-003 0. 0. 0. 0.
      7.19396025e-003 3.03345323e-001 2.74569482e-001 0. 0. 0. 0. 0.
      2.00231895e-001 3.03345323e-001 5.87506779e-002 0. 0. 0. 0.
      4.55617495e-002 3.02146345e-001 2.03828886e-001 0. 0. 0. 0.
      2.39798683e-003 2.51788616e-001 2.87758410e-001 0. 0. 0. 0.</_>
    <_>
      0. 0. 0. 0. 0. 3.48734736e-001 2.09886637e-002 0. 0. 0. 0. 0.
      1.45306140e-002 3.95555586e-001 2.42176894e-002 0. 0. 0. 0. 0.
      5.97369671e-002 3.66494358e-001 4.84353770e-003 0. 0. 0. 0. 0.
      2.09886640e-001 2.16344699e-001 0. 0. 0. 0. 0. 4.84353770e-003
      4.02013659e-001 2.58322023e-002 0. 0. 0. 0. 0. 1.93741515e-001
      2.82539725e-001 0. 0. 0. 0. 0. 4.68208678e-002 3.68108869e-001
      3.22902529e-003 0. 0. 0. 0. 1.61451264e-003 2.66394585e-001
      5.97369671e-002 0. 0. 0. 0.</_>
    <_>
      0. 0. 0. 0. 2.99427629e-001 0. 0. 0. 0. 0. 0. 0. 3.56543899e-001
      0. 0. 0. 0. 0. 0. 0. 3.56543899e-001 0. 0. 0. 0. 0. 0. 0.
      3.56543899e-001 0. 0. 0. 0. 0. 0. 1.12501711e-001 3.51351500e-001
      0. 0. 0. 0. 0. 0. 3.28851156e-002 3.53082299e-001 0. 0. 0. 0. 0.
      0. 1.33271262e-001 3.49620700e-001 0. 0. 0. 0. 0. 0. 0.
      3.56543899e-001 0. 0. 0.</_>
    <_>
      0. 0. 2.26340555e-002 2.23107114e-001 0. 0. 0. 0. 0. 0.
      2.26340555e-002 3.26577097e-001 0. 0. 0. 0. 0. 0. 2.10173372e-002
      4.05796289e-001 0. 0. 0. 0. 0. 0. 0. 3.68611753e-001 0. 0. 0. 0.
      0. 0. 0. 2.92625993e-001 2.08556652e-001 0. 0. 0. 0. 0. 0.
      1.29337460e-001 2.78075546e-001 0. 0. 0. 0. 0. 0. 8.40693489e-002
      4.00946140e-001 0. 0. 0. 0. 0. 0. 0. 3.88012379e-001 0. 0. 0.</_>
    <_>
      0. 0. 0. 0. 2.31131390e-002 2.92381227e-001 1.73348542e-002 0. 0.
      0. 0. 0. 2.34598368e-001 2.87758589e-001 1.15565700e-003 0. 0. 0.
      0. 1.38678839e-002 2.91225553e-001 1.20188326e-001 0. 0. 0. 0. 0.
      2.36909688e-001 2.84291625e-001 0. 0. 0. 0. 0. 1.04009127e-002
      2.73890704e-001 2.17263520e-001 0. 0. 0. 0. 0. 2.31131405e-001
      2.92381227e-001 2.31131390e-002 0. 0. 0. 0. 0. 2.56555855e-001
      2.80824661e-001 0. 0. 0. 0. 0. 4.62262798e-003 2.76202023e-001
      2.38065347e-001 0. 0. 0. 0.</_>
    <_>
      0. 0. 0. 0. 7.25476258e-003 2.55125821e-001 1.93460342e-002 0. 0.
      0. 0. 0. 3.99011970e-002 3.04700047e-001 1.69277806e-002 0. 0. 0.
      0. 0. 1.81369066e-001 2.91399628e-001 1.20912713e-003 0. 0. 0. 0.
      6.40837401e-002 3.04700047e-001 2.51498431e-001 0. 0. 0. 0. 0.
      1.00357555e-001 3.04700047e-001 1.23330966e-001 0. 0. 0. 0.
      6.89202473e-002 3.01072657e-001 2.59962320e-001 2.41825427e-003 0.
      0. 0. 3.62738129e-003 2.73262739e-001 2.79308379e-001
      4.83650854e-003 0. 0. 0. 0. 1.69277802e-001 3.03490907e-001
      8.46389011e-002 0. 0. 0. 0.</_>
    <_>
      0. 0. 0. 0. 3.92953783e-001 0. 0. 0. 0. 0. 0. 0. 2.65148431e-001
      0. 0. 0. 0. 0. 0. 0. 4.71163005e-001 0. 0. 0. 0. 0. 0. 0.
      4.63532835e-001 0. 0. 0. 0. 0. 0. 4.38734777e-002 2.17459857e-001
      0. 0. 0. 0. 0. 0. 4.57810238e-002 2.17459857e-001 0. 0. 0. 0. 0.
      0. 2.47980535e-001 1.27805352e-001 0. 0. 0. 0. 0. 0.
      4.02491480e-001 0. 0. 0. 0.</_>
    <_>
      0. 2.12754488e-001 1.73677132e-001 0. 0. 0. 0. 0. 0.
      2.13839963e-001 2.72455990e-001 1.47625566e-001 0. 0. 0. 0. 0.
      1.51967490e-002 2.46404424e-001 2.72455990e-001 6.40434399e-002 0.
      0. 0. 0. 0. 6.07869960e-002 2.72455990e-001 2.60515690e-001
      7.27273002e-002 0. 0. 0. 0. 0. 7.59837478e-002 2.75712460e-001
      2.51831830e-001 1.08548207e-003 0. 0. 0. 0. 0. 1.84531957e-001
      2.72455990e-001 1.00949831e-001 0. 0. 0. 0. 0. 1.30257849e-002
      2.51831830e-001 2.65943110e-001 0. 0. 0. 0. 0. 0. 1.42198145e-001
      2.72455990e-001 0.</_>
    <_>
      0. 0. 0. 0. 3.28962862e-001 8.77234340e-002 0. 0. 0. 0. 0. 0.
      3.27592194e-001 1.32955834e-001 0. 0. 0. 0. 0. 0. 3.02919984e-001
      1.19249046e-001 0. 0. 0. 0. 0. 0. 3.19368124e-001 2.60428935e-002
      0. 0. 0. 0. 0. 1.37067866e-003 3.34445596e-001 0. 0. 0. 0. 0. 0.
      1.63110763e-001 2.93325245e-001 0. 0. 0. 0. 0. 0. 3.13885421e-001
      1.00059539e-001 0. 0. 0. 0. 0. 4.38617170e-002 3.48152369e-001
      3.07032019e-001 0. 0. 0.</_>
    <_>
      0. 0. 0. 0. 3.78434032e-001 0. 0. 0. 0. 0. 0. 0. 3.98932546e-001
      0. 0. 0. 0. 0. 0. 9.46085155e-003 3.68973196e-001 0. 0. 0. 0. 0.
      0. 1.18260637e-001 3.51628304e-001 0. 0. 0. 0. 0. 0.
      2.66480625e-001 1.48220003e-001 0. 0. 0. 0. 0. 0. 3.01170439e-001
      1.73448939e-002 0. 0. 0. 0. 0. 0. 3.76857221e-001 0. 0. 0. 0. 0.
      0. 0. 3.12208086e-001 1.73448939e-002 0. 0. 0.</_>
    <_>
      0. 0. 0. 0. 1.23510994e-001 2.93629915e-001 0. 0. 0. 0. 0.
      4.66079218e-003 2.94795096e-001 2.88969129e-001 0. 0. 0. 0. 0.
      1.03702627e-001 2.95960307e-001 1.09528616e-001 0. 0. 0. 0. 0.
      1.02537431e-001 2.94795096e-001 7.69030675e-002 0. 0. 0. 0. 0.
      2.51682788e-001 2.92464703e-001 1.51475742e-002 0. 0. 0. 0.
      6.87466860e-002 2.91299522e-001 1.75944909e-001 0. 0. 0. 0. 0.
      2.06240058e-001 2.94795096e-001 3.49559402e-003 0. 0. 0. 0.
      1.28171789e-002 2.93629915e-001 1.70118913e-001 0. 0. 0. 0.</_>
    <_>
      0. 0. 0. 3.35400075e-001 5.03819883e-002 0. 0. 0. 0. 0. 0.
      2.66304791e-001 2.43273020e-001 0. 0. 0. 0. 0. 0. 2.44712513e-002
      3.28202665e-001 0. 0. 0. 0. 0. 0. 0. 3.56992364e-001 0. 0. 0. 0.
      0. 0. 0. 3.56992364e-001 0. 0. 0. 0. 0. 0. 0. 3.56992364e-001 0.
      0. 0. 0. 0. 0. 0. 3.64189804e-001 0. 0. 0. 0. 0. 0. 0.
      3.62750322e-001 0. 0. 0.</_>
    <_>
      0. 0. 3.62208635e-002 3.12248826e-001 0. 0. 0. 0. 0. 0.
      4.62128259e-002 3.15995812e-001 1.12409573e-002 0. 0. 0. 0. 0.
      4.62128259e-002 3.15995812e-001 1.71112359e-001 0. 0. 0. 0. 0.
      2.49799062e-003 2.98509866e-001 1.71112359e-001 0. 0. 0. 0. 0. 0.
      2.97260880e-001 1.71112359e-001 0. 0. 0. 0. 0. 0. 2.57293046e-001
      3.04754853e-001 0. 0. 0. 0. 0. 0. 2.56044030e-001 3.15995812e-001
      0. 0. 0. 0. 0. 0. 8.61806795e-002 3.15995812e-001 0. 0. 0.</_>
    <_>
      0. 0. 0. 0. 0. 0. 2.86715865e-001 0. 0. 0. 0. 0. 1.23054022e-003
      2.64566153e-001 3.07635069e-001 0. 0. 0. 0. 0. 5.78353889e-002
      3.10096145e-001 1.67353466e-001 0. 0. 0. 0. 6.15270110e-003
      2.92868584e-001 2.97790736e-001 1.23054022e-003 0. 2.46108044e-003
      5.66048510e-002 0. 1.36589959e-001 2.95329660e-001 2.33802646e-002
      0. 0. 2.09191833e-002 0. 8.36767331e-002 3.10096145e-001
      6.15270101e-002 0. 0. 0. 0. 0. 2.53491282e-001 2.49799669e-001 0.
      0. 0. 0. 0. 4.92216088e-003 3.07635069e-001 1.13209702e-001 0. 0.
      0. 0.</_>
    <_>
      0. 0. 0. 0. 1.97465107e-001 1.42328754e-001 0. 0. 0. 0. 0.
      8.97568651e-003 3.24406952e-001 1.42328754e-001 0. 0. 0. 0. 0.
      8.97568651e-003 3.24406952e-001 8.20634216e-002 0. 0. 0. 0. 0.
      1.41046504e-002 3.24406952e-001 5.77008426e-002 0. 0. 0. 0. 0.
      2.09005281e-001 2.98762143e-001 0. 0. 0. 0. 0. 7.69344578e-003
      3.06455582e-001 2.65423894e-001 0. 0. 0. 0. 0. 1.53868916e-002
      3.24406952e-001 2.65423894e-001 0. 0. 0. 0. 0. 9.74503160e-002
      3.24406952e-001 7.94989392e-002 0. 0. 0.</_>
    <_>
      0. 0. 0. 0. 3.13992471e-001 9.30807739e-002 0. 0. 0. 0. 0.
      4.96430788e-003 3.13992471e-001 1.34036317e-001 0. 0. 0. 0. 0.
      1.10455848e-001 3.13992471e-001 1.73750781e-002 0. 0. 0. 0. 0.
      2.55661845e-001 3.13992471e-001 0. 0. 0. 0. 0. 0. 2.60626167e-001
      2.96617389e-001 0. 0. 0. 0. 0. 0. 2.94135243e-001 2.01054469e-001
      0. 0. 0. 0. 0. 4.59198467e-002 3.13992471e-001 0. 0. 0. 0. 0. 0.
      1.37759537e-001 3.13992471e-001 0. 0. 0. 0.</_>
    <_>
      0. 0. 0. 0. 2.18272069e-003 1.40785486e-001 2.68474638e-001 0. 0.
      0. 0. 2.29185671e-002 2.61926472e-001 1.48425013e-001
      2.77205527e-001 1.86622620e-001 0. 5.45680150e-003 1.95353508e-001
      2.14997992e-001 2.40099281e-002 1.29871875e-001 2.55378336e-001
      2.18272069e-003 3.27408104e-003 2.52104253e-001 9.38569903e-002 0.
      9.82224289e-003 2.63017833e-001 2.72840094e-002 0. 6.54816180e-002
      1.20049641e-002 0. 0. 9.38569903e-002 1.80074453e-001 0. 0. 0. 0.
      0. 0. 2.27002949e-001 4.14716937e-002 0. 0. 0. 0. 0. 0.
      2.65200555e-001 5.45680150e-003 3.27408104e-003 0. 0.
      2.33551115e-001 1.49516374e-001 1.66978136e-001 2.77205527e-001
      2.11723909e-001 6.54816208e-003 0.</_>
    <_>
      0. 0. 2.06473276e-001 2.10182384e-001 0. 0. 0. 0. 0. 0.
      2.06473276e-001 2.73237079e-001 0. 0. 0. 0. 0. 0. 2.06473276e-001
      3.11564475e-001 0. 0. 0. 0. 0. 0. 1.05091192e-001 3.12800825e-001
      9.64366198e-002 0. 0. 0. 0. 0. 8.16002190e-002 3.10328096e-001
      1.00145720e-001 0. 0. 0. 0. 0. 2.96728052e-002 3.04146260e-001
      1.00145720e-001 0. 0. 0. 0. 0. 0. 2.53455222e-001 2.58400679e-001
      0. 0. 0. 0. 0. 0. 1.24873057e-001 3.09091717e-001 2.81891644e-001
      0. 0.</_>
    <_>
      0. 0. 1.45825997e-001 1.59082904e-001 0. 0. 0. 0. 0. 0.
      1.90417424e-001 3.04908901e-001 0. 0. 0. 0. 0. 1.20517355e-003
      2.78395087e-001 3.00088227e-001 0. 0. 0. 0. 0. 7.59259313e-002
      3.04908901e-001 1.06055275e-001 0. 0. 0. 0. 0. 1.04850098e-001
      3.04908901e-001 8.07466283e-002 0. 0. 0. 0. 0. 2.53086448e-001
      3.04908901e-001 2.28982978e-002 0. 0. 0. 0. 0. 3.04908901e-001
      2.60317475e-001 0. 0. 0. 0. 0. 0. 3.04908901e-001 1.57877728e-001
      0. 0. 0. 0. 0.</_>
    <_>
      0. 0. 0. 0. 4.19671424e-002 3.26260686e-001 0. 0. 0. 0. 0. 0.
      1.24547645e-001 3.38444680e-001 0. 0. 0. 0. 0. 0. 3.03246439e-001
      1.69222340e-001 0. 0. 0. 0. 0. 0. 3.42506021e-001 8.66418406e-002
      0. 0. 0. 0. 0. 7.98729435e-002 3.23553115e-001 0. 0. 0. 0. 0. 0.
      2.82939762e-001 2.57217973e-001 0. 0. 0. 0. 0. 2.43680179e-002
      3.39798480e-001 1.48915667e-002 0. 0. 0. 0. 0. 2.01713040e-001
      3.19491774e-001 0. 0. 0. 0.</_>
    <_>
      0. 0. 0. 0. 6.97483197e-002 0. 0. 0. 0. 0. 0. 0. 2.97456086e-001
      0. 0. 0. 0. 0. 0. 0. 4.61569786e-001 0. 0. 0. 0. 0. 0. 0.
      4.47209835e-001 0. 0. 0. 0. 0. 0. 8.20568483e-003 3.32330227e-001
      0. 0. 0. 0. 0. 0. 1.25136688e-001 1.80525064e-001 0. 0. 0. 0. 0.
      0. 3.67204398e-001 4.10284242e-003 0. 0. 0. 0. 0. 0.
      4.47209835e-001 0. 0. 0. 0.</_>
    <_>
      0. 0. 0. 0. 5.28208166e-002 1.59971625e-001 0. 0. 0. 0. 0. 0.
      2.38448262e-001 1.28279135e-001 0. 0. 0. 0. 0. 1.35824960e-002
      3.83328229e-001 6.48941472e-002 0. 0. 0. 0. 0. 1.93173274e-001
      3.24470729e-001 1.50916621e-003 0. 0. 0. 0. 0. 3.28998238e-001
      2.27884099e-001 0. 0. 0. 0. 0. 4.22566533e-002 3.74273211e-001 0.
      0. 0. 0. 0. 0. 1.49407461e-001 3.66727382e-001 0. 0. 0. 0. 0. 0.
      1.47898287e-001 3.51635724e-001 0. 0. 0. 0.</_>
    <_>
      0. 0. 0. 0. 1.03171915e-002 3.65523368e-001 0. 0. 0. 0. 0. 0.
      2.65299231e-002 3.72892797e-001 0. 0. 0. 0. 0. 0. 1.01698034e-001
      2.77090311e-001 0. 0. 0. 0. 0. 0. 3.38993460e-001 1.28227964e-001
      0. 0. 0. 0. 0. 7.22203404e-002 3.44888985e-001 0. 0. 0. 0. 0. 0.
      3.30150127e-001 1.35597378e-001 0. 0. 0. 0. 0. 1.22332416e-001
      3.41941208e-001 0. 0. 0. 0. 0. 0. 2.65299231e-001 2.32873768e-001
      0. 0. 0. 0.</_>
    <_>
      0. 0. 0. 0. 3.08717430e-001 0. 0. 0. 0. 0. 0. 0. 3.65493029e-001
      0. 0. 0. 0. 0. 0. 0. 3.65493029e-001 0. 0. 0. 0. 0. 0.
      7.98407122e-002 3.65493029e-001 0. 0. 0. 0. 0. 0. 2.60812998e-001
      2.87426561e-001 0. 0. 0. 0. 0. 0. 2.60812998e-001 1.41939044e-001
      0. 0. 0. 0. 0. 0. 2.60812998e-001 8.87119025e-002 0. 0. 0. 0. 0.
      0. 2.60812998e-001 3.38879466e-001 0. 0. 0.</_>
    <_>
      0. 0. 0. 0. 0. 2.49474034e-001 1.57435071e-002 0. 0. 0. 0. 0.
      7.38733783e-002 3.03970784e-001 1.81655847e-002 0. 0. 0. 0. 0.
      1.51379883e-001 3.05181831e-001 1.08993510e-002 0. 0. 0. 0. 0.
      3.01548719e-001 2.31308460e-001 0. 0. 0. 0. 0. 2.73694813e-001
      2.94282496e-001 1.08993510e-002 0. 0. 0. 0. 7.38733783e-002
      3.00337672e-001 1.70756504e-001 0. 0. 0. 0. 3.63311707e-003
      3.05181831e-001 2.76116908e-001 0. 0. 0. 0. 0. 1.33214295e-002
      3.05181831e-001 1.71967536e-001 0. 0. 0. 0.</_>
    <_>
      0. 0. 0. 0. 0. 1.09201044e-001 1.88277662e-002 0. 0. 0. 0. 0.
      1.88277662e-002 3.11285734e-001 2.00829506e-002 0. 0. 0. 0. 0.
      4.89521921e-002 3.18816841e-001 1.38070285e-002 0. 0. 0. 0. 0.
      3.03754628e-001 2.77395755e-001 1.25518441e-003 0. 0. 0. 0.
      1.44346207e-001 3.17561656e-001 1.33049548e-001 0. 0. 0. 0.
      7.15455115e-002 3.12540919e-001 2.68609464e-001 0. 0. 0. 0.
      5.02073765e-003 2.98733890e-001 3.18816841e-001 6.27592206e-003 0.
      0. 0. 0. 6.02488518e-002 3.18816841e-001 7.78214335e-002 0. 0. 0.
      0.</_>
    <_>
      0. 0. 0. 0. 1.25085395e-002 2.75187880e-001 0. 0. 0. 0. 0. 0.
      1.28496811e-001 2.85422146e-001 0. 0. 0. 0. 0. 0. 2.88833559e-001
      2.69502163e-001 0. 0. 0. 0. 0. 3.52513380e-002 2.87696421e-001
      1.78530976e-001 0. 0. 0. 0. 0. 2.56993622e-001 2.85422146e-001
      6.70912564e-002 0. 0. 0. 0. 6.93655387e-002 2.82010704e-001
      2.34250829e-001 0. 0. 0. 0. 0. 2.80873567e-001 2.87696421e-001
      1.02342600e-002 0. 0. 0. 0. 1.25085395e-002 2.86559284e-001
      1.37593940e-001 0. 0. 0. 0.</_>
    <_>
      0. 0. 0. 3.16205770e-001 0. 0. 0. 0. 0. 0. 0. 3.47676456e-001 0.
      0. 0. 0. 0. 0. 0. 2.75743395e-001 2.09804773e-001 0. 0. 0. 0. 0.
      0. 1.18389830e-001 3.31191808e-001 0. 0. 0. 0. 0. 0.
      2.39776876e-002 3.35687637e-001 0. 0. 0. 0. 0. 0. 2.84735039e-002
      3.62662524e-001 0. 0. 0. 0. 0. 0. 0. 3.80645782e-001 0. 0. 0. 0.
      0. 0. 0. 3.80645782e-001 0. 0. 0.</_>
    <_>
      0. 0. 0. 0. 2.90316969e-001 0. 0. 0. 0. 0. 0. 0. 2.96046913e-001
      0. 0. 0. 0. 0. 0. 0. 2.96046913e-001 0. 0. 0. 0. 0. 0. 0.
      2.96046913e-001 0. 0. 0. 0. 0. 0. 0. 2.97956884e-001 0. 0. 0. 0.
      0. 0. 0. 3.17056686e-001 0. 0. 0. 0. 0. 0. 0. 4.83224958e-001 0.
      0. 0. 0. 0. 0. 2.31107593e-001 4.20195609e-001 0. 0. 0.</_>
    <_>
      0. 0. 1.20855376e-001 3.04271191e-001 0. 0. 0. 0. 0. 0.
      2.30336130e-001 2.75834620e-001 0. 0. 0. 0. 0. 0. 2.30336130e-001
      2.75834620e-001 0. 0. 0. 0. 0. 0. 2.30336130e-001 2.75834620e-001
      0. 0. 0. 0. 0. 0. 2.30336130e-001 2.75834620e-001 0. 0. 0. 0. 0.
      0. 1.94790423e-001 2.75834620e-001 0. 0. 0. 0. 0. 0.
      2.70147305e-002 3.51191491e-001 7.10913958e-003 0. 0. 0. 0. 0. 0.
      1.90524951e-001 3.14223975e-001 5.54512888e-002 0. 0.</_>
    <_>
      0. 0. 0. 2.17726469e-001 2.77788937e-001 0. 0. 0. 0. 0. 0.
      3.17204952e-001 1.82064384e-001 0. 0. 0. 0. 0. 0. 2.36496001e-001
      2.66527236e-001 0. 0. 0. 0. 0. 0. 2.64650285e-001 2.28988186e-001
      0. 0. 0. 0. 0. 0. 3.11574101e-001 2.57142484e-001 0. 0. 0. 0. 0.
      0. 1.42648384e-001 1.76433519e-001 0. 0. 0. 0. 0. 0.
      1.42648384e-001 2.66527236e-001 0. 0. 0. 0. 0. 0. 1.95203051e-001
      3.84775221e-001 0. 0. 0.</_>
    <_>
      0. 0. 4.11028899e-002 3.34126711e-001 0. 0. 0. 0. 0. 0.
      1.19330965e-001 3.35452616e-001 0. 0. 0. 0. 0. 0. 1.24634564e-001
      3.35452616e-001 0. 0. 0. 0. 0. 0. 1.24634564e-001 3.35452616e-001
      0. 0. 0. 0. 0. 0. 1.21982768e-001 3.35452616e-001 0. 0. 0. 0. 0.
      0. 3.04956920e-002 3.31474900e-001 9.67906713e-002 0. 0. 0. 0. 0.
      0. 3.04956913e-001 2.17447534e-001 0. 0. 0. 0. 0. 0.
      2.38661934e-002 3.22193593e-001 1.07397869e-001 0. 0.</_>
    <_>
      0. 0. 0. 0. 2.74826139e-001 0. 0. 0. 0. 0. 0. 0. 4.05616909e-001
      0. 0. 0. 0. 0. 0. 8.94012749e-002 3.01315427e-001 0. 0. 0. 0. 0.
      0. 3.34426999e-001 2.61581510e-001 0. 0. 0. 0. 0. 0.
      3.65882993e-001 8.44345391e-002 0. 0. 0. 0. 0. 0. 3.65882993e-001
      0. 0. 0. 0. 0. 0. 0. 3.65882993e-001 0. 0. 0. 0. 0. 0. 0.
      2.23503187e-001 1.49002135e-001 0. 0. 0.</_>
    <_>
      0. 0. 0. 0. 0. 1.62765145e-001 0. 0. 0. 0. 0. 0. 0.
      2.82445401e-001 0. 0. 0. 0. 0. 0. 5.62497228e-002 3.01594257e-001
      0. 0. 0. 0. 0. 0. 2.74067789e-001 3.00397456e-001 0. 0. 0. 0. 0.
      1.06515430e-001 3.03987861e-001 2.94413447e-001 0. 0. 0. 0. 0.
      1.41222700e-001 3.02791059e-001 1.55584335e-001 0. 0. 0. 0. 0.
      2.92019844e-001 3.03987861e-001 2.03456432e-002 0. 0. 0. 0.
      7.53985643e-002 3.00397456e-001 1.84307605e-001 0. 0. 0.</_>
    <_>
      0. 0. 0. 0. 0. 1.92984879e-001 1.98660903e-002 0. 0. 0. 0. 0.
      2.83801300e-003 3.57589632e-001 2.27041040e-002 0. 0. 0. 0. 0.
      3.83131765e-002 3.57589632e-001 1.56090716e-002 0. 0. 0. 0. 0.
      1.61766738e-001 2.72449255e-001 1.41900650e-003 0. 0. 0. 0.
      3.12181432e-002 3.57589632e-001 8.37213844e-002 0. 0. 0. 0.
      4.25701961e-003 3.15019429e-001 2.58259177e-001 0. 0. 0. 0. 0.
      2.07174942e-001 3.59008640e-001 1.41900650e-003 0. 0. 0. 0.
      1.70280784e-002 3.56170624e-001 5.67602590e-002 0. 0. 0. 0.</_>
    <_>
      0. 0. 0. 0. 0. 1.56656578e-001 2.25811284e-002 0. 0. 0. 0. 0. 0.
      3.17547113e-001 2.25811284e-002 0. 0. 0. 0. 0. 9.73811150e-002
      3.52830142e-001 1.12905642e-002 0. 0. 0. 0. 0. 2.63916939e-001
      3.10490519e-001 1.41132053e-003 0. 0. 0. 0. 1.42543375e-001
      3.55652779e-001 3.66943330e-002 0. 0. 0. 0. 7.62113109e-002
      3.51418823e-001 1.19962245e-001 0. 0. 0. 0. 5.64528210e-003
      2.72384852e-001 2.69562215e-001 1.41132053e-003 0. 0. 0. 0.
      2.25811284e-002 3.57064098e-001 8.18565935e-002 0. 0. 0. 0.</_>
    <_>
      0. 0. 0. 0. 3.47829372e-001 0. 0. 0. 0. 0. 0. 1.25331238e-001
      3.53462249e-001 0. 0. 0. 0. 0. 0. 1.25331238e-001 2.52070665e-001
      0. 0. 0. 0. 0. 0. 1.23923019e-001 2.05599546e-001 0. 0. 0. 0. 0.
      0. 3.04174662e-001 2.07007766e-001 0. 0. 0. 0. 0. 0.
      3.45012933e-001 7.74518847e-002 0. 0. 0. 0. 0. 2.39396729e-002
      3.49237591e-001 2.23906353e-001 0. 0. 0. 0. 0. 8.87176096e-002
      3.53462249e-001 1.88700959e-001 0. 0. 0.</_>
    <_>
      0. 0. 0. 0. 3.77538115e-001 0. 0. 0. 0. 0. 0. 0. 4.35455889e-001
      0. 0. 0. 0. 0. 0. 8.79492238e-002 3.88263643e-001 0. 0. 0. 0. 0.
      0. 2.46686846e-001 3.60377282e-001 0. 0. 0. 0. 0. 0.
      2.57412344e-001 2.31671125e-001 0. 0. 0. 0. 0. 0. 1.99494570e-001
      2.89588898e-001 0. 0. 0. 0. 0. 0. 1.02964938e-001 2.31671125e-001
      0. 0. 0. 0. 0. 0. 1.02964938e-001 1.28706172e-002 0. 0. 0.</_>
    <_>
      0. 0. 0. 0. 0. 1.24355666e-001 0. 0. 0. 0. 0. 0. 2.60745753e-002
      2.20631018e-001 0. 0. 0. 0. 0. 0. 2.74785906e-001 1.24355666e-001
      0. 0. 0. 0. 0. 0. 4.83382523e-001 0. 0. 0. 0. 0. 0.
      1.36390090e-001 2.80803114e-001 0. 0. 0. 0. 0. 0. 3.95130098e-001
      5.61606251e-002 0. 0. 0. 0. 0. 3.00860479e-002 4.95416939e-001 0.
      0. 0. 0. 0. 0. 1.90544978e-001 2.66762972e-001 0. 0. 0. 0.</_>
    <_>
      0. 0. 0. 2.34275058e-001 3.01611602e-001 4.20853402e-003 0. 0. 0.
      0. 2.10426711e-002 3.50711167e-001 5.19052520e-002 2.80568935e-003
      0. 0. 0. 0. 9.39905941e-002 3.42294097e-001 0. 0. 0. 0. 0. 0.
      1.06616199e-001 3.39488417e-001 0. 0. 0. 0. 0. 0. 1.06616199e-001
      3.40891242e-001 0. 0. 0. 0. 0. 0. 1.68341361e-002 3.39488417e-001
      0. 0. 0. 0. 0. 0. 0. 2.72151858e-001 2.55317718e-001 0. 0. 0. 0.
      0. 0. 4.20853402e-003 2.70749032e-001 1.40284464e-001 0. 0.</_>
    <_>
      0. 0. 0. 0. 0. 3.09595466e-002 3.70040298e-001 0. 0. 0. 0. 0. 0.
      2.84532964e-001 2.19665349e-001 0. 0. 0. 0. 0. 6.04448281e-002
      3.64143223e-001 1.03198485e-002 0. 0. 0. 0. 0. 3.65617484e-001
      1.43003613e-001 0. 0. 0. 0. 0. 1.91654325e-001 2.84532964e-001 0.
      0. 0. 0. 0. 6.48676157e-002 3.61194700e-001 0. 0. 0. 0. 0.
      1.47426408e-003 3.16966772e-001 7.81359971e-002 0. 0. 0. 0. 0.
      1.20889656e-001 2.62419015e-001 0. 0. 0. 0. 0.</_>
    <_>
      0. 0. 0. 9.46827233e-002 2.75631934e-001 0. 0. 0. 0. 0. 0.
      1.09411143e-001 3.61898392e-001 0. 0. 0. 0. 0. 0. 2.56695390e-001
      3.64002466e-001 0. 0. 0. 0. 0. 0. 1.26243636e-001 2.20926344e-001
      0. 0. 0. 0. 0. 0. 1.11515209e-001 3.51378113e-001 0. 0. 0. 0. 0.
      0. 2.50383198e-001 1.83053270e-001 0. 0. 0. 0. 0. 0.
      2.90360361e-001 1.83053270e-001 0. 0. 0. 0. 0. 0. 2.88256288e-001
      2.75631934e-001 0. 0. 0.</_>
    <_>
      0. 0. 0. 0. 0. 0. 1.38694525e-001 2.40312293e-001 0. 0. 0. 0. 0.
      9.61249229e-003 3.44676495e-001 5.63017391e-002 0. 0. 0. 0.
      6.86606579e-003 3.07599753e-001 2.78762281e-001 0. 0. 0. 0. 0.
      2.38939092e-001 2.70522982e-001 2.74642627e-003 0. 0. 0. 0.
      2.36192659e-001 2.84255117e-001 0. 0. 0. 0. 0. 1.75771281e-001
      3.10346156e-001 0. 0. 0. 0. 0. 9.74981338e-002 3.14465821e-001
      2.74642627e-003 0. 0. 0. 0. 7.96463639e-002 3.46049696e-001 0. 0.
      0. 0. 0. 0.</_>
    <_>
      0. 0. 0. 0. 9.11805779e-002 3.05150986e-001 1.58046335e-002 0. 0.
      0. 0. 4.13351953e-002 3.03935260e-001 2.48011172e-001
      1.21574104e-003 0. 0. 0. 0. 2.12754682e-001 3.03935260e-001
      1.22789845e-001 0. 0. 0. 0. 6.56500161e-002 3.05150986e-001
      1.14279658e-001 0. 0. 0. 0. 2.43148208e-003 2.71110237e-001
      2.97856569e-001 0. 0. 0. 0. 0. 3.64722311e-003 3.05150986e-001
      1.87224120e-001 0. 0. 0. 0. 0. 3.64722311e-003 3.03935260e-001
      6.20027930e-002 0. 0. 0. 0. 0. 1.94518566e-002 3.03935260e-001
      1.09416693e-002 0. 0. 0. 0.</_>
    <_>
      0. 0. 0. 0. 0. 1.44123152e-001 3.20706457e-001 0. 0. 0. 0. 0. 0.
      2.70068616e-001 2.77859032e-001 0. 0. 0. 0. 0. 3.63553874e-002
      3.28496903e-001 4.93394546e-002 0. 0. 0. 0. 0. 2.88246304e-001
      2.64874965e-001 1.29840674e-003 0. 0. 0. 0. 1.94761008e-001
      2.98633546e-001 2.59681349e-003 0. 0. 0. 0. 9.08884704e-002
      3.27198505e-001 4.93394546e-002 0. 0. 0. 0. 1.29840674e-003
      3.05125594e-001 1.92164198e-001 0. 0. 0. 0. 0. 1.12961389e-001
      2.71367013e-001 3.89522035e-003 0. 0. 0. 0.</_>
    <_>
      0. 0. 0. 0. 0. 3.62267829e-002 3.13102901e-001 0. 0. 0. 0. 0.
      3.75205986e-002 3.16984355e-001 2.89814264e-001 0. 0. 0. 0.
      2.07010191e-002 3.07927668e-001 2.92401880e-001 6.46906858e-003 0.
      0. 0. 0. 2.69113243e-001 3.15690547e-001 2.45824605e-002 0. 0. 0.
      0. 6.98659420e-002 3.24747235e-001 5.95154315e-002 0. 0. 0. 0.
      1.29381369e-003 2.76876122e-001 1.82427734e-001 0. 0. 0. 0. 0.
      4.26958501e-002 3.18278164e-001 1.29381372e-002 0. 0. 0. 0. 0.
      1.34556621e-001 1.26793742e-001 0. 0. 0. 0. 0.</_>
    <_>
      0. 0. 0. 0. 3.61800715e-002 1.80900365e-001 0. 0. 0. 0. 0. 0.
      1.11985937e-001 1.89514667e-001 0. 0. 0. 0. 0. 6.89144246e-003
      4.32438016e-001 6.54687062e-002 0. 0. 0. 0. 0. 2.10189000e-001
      3.30789238e-001 0. 0. 0. 0. 0. 0. 3.92812222e-001 0. 0. 0. 0. 0.
      0. 8.78658891e-002 3.91089350e-001 0. 0. 0. 0. 0. 0.
