<?xml version="1.0"?>
<opencv_storage>
<my_svm type_id="opencv-ml-svm">
  <svm_type>C_SVC</svm_type>
  <kernel><type>RBF</type>
    <gamma>8.</gamma></kernel>
  <C>10.</C>
  <term_criteria><epsilon>1.1920928955078125e-007</epsilon>
    <iterations>2147483647</iterations></term_criteria>
  <var_all>64</var_all>
  <var_count>64</var_count>
  <class_count>10</class_count>
  <class_labels type_id="opencv-matrix">
    <rows>1</rows>
    <cols>10</cols>
    <dt>i</dt>
    <data>
      48 49 50 51 52 53 54 55 56 57</data></class_labels>
  <sv_total>50</sv_total>
  <support_vectors>
    <_>
      0. 0. 0. 0. 1.81135863e-001 2.27383316e-001 1.05983745e-002 0. 0.
      0. 7.70790875e-003 1.89807251e-001 2.43762612e-001 1.31997943e-001
      2.43762612e-001 0. 0. 9.63488594e-004 1.74391434e-001
      2.18711913e-001 1.10801190e-001 7.22616464e-002 2.32200757e-001 0.
      0. 1.51267707e-001 1.74391434e-001 3.95030305e-002 0. 0.
      2.28346795e-001 0. 9.63488594e-003 2.38945171e-001 0. 0. 0. 0.
      2.29310289e-001 0. 5.58823384e-002 2.05223069e-001 0. 0. 0.
      4.33569849e-002 2.26419821e-001 0. 5.68458289e-002 1.98478654e-001
      0. 0. 1.24290027e-001 1.94624692e-001 9.63488594e-004 0.
      4.43204753e-002 2.42799133e-001 2.23529354e-001 2.37981677e-001
      1.21399567e-001 0. 0. 0.</_>
    <_>
      0. 0. 0. 0. 0. 1.06786773e-001 2.27034062e-001 4.66631278e-002 0.
      0. 0. 1.97420921e-002 2.05497235e-001 2.25239322e-001
      1.83960408e-001 1.55244634e-001 0. 0. 8.07631016e-002
      2.23444596e-001 2.20752493e-001 2.24341959e-001 8.52499455e-002
      1.55244634e-001 0. 7.71736354e-002 2.23444596e-001 8.43525752e-002
      1.05889402e-001 6.55078515e-002 2.33315639e-002 1.54347271e-001
      5.38420677e-003 2.13573545e-001 0. 0. 0. 0. 1.79473567e-003
      1.56141996e-001 1.16657816e-001 2.20752493e-001 0. 0. 0. 0.
      1.47168323e-001 1.43578857e-001 1.17555186e-001 2.26136699e-001 0.
      0. 1.79473567e-003 1.84857771e-001 2.00113028e-001 1.79473567e-003
      0. 1.55244634e-001 2.26136699e-001 2.25239322e-001 2.16265649e-001
      8.52499455e-002 0. 0.</_>
    <_>
      0. 0. 0. 0. 2.17927635e-001 2.17066273e-001 9.13056508e-002 0. 0.
      0. 0. 1.82611302e-001 2.17927635e-001 2.09313899e-001
      2.17927635e-001 0. 0. 0. 1.30067483e-001 2.17066273e-001
      5.08210696e-002 5.34051917e-002 2.18789011e-001 0. 0. 0.
      1.72274813e-001 2.16204897e-001 0. 1.46433592e-001 2.17927635e-001
      0. 0. 1.98116042e-002 2.18789011e-001 3.44549641e-002
      2.58412212e-003 2.05868408e-001 1.44710839e-001 0. 0.
      1.01642139e-001 2.17066273e-001 2.75639705e-002 9.64738950e-002
      2.16204897e-001 4.30687051e-003 0. 0. 1.02503516e-001
      2.18789011e-001 1.13701381e-001 2.18789011e-001 6.89099282e-002 0.
      0. 0. 6.20189346e-002 2.17066273e-001 2.16204897e-001
      1.16285503e-001 1.72274816e-003 0. 0.</_>
    <_>
      0. 0. 0. 0. 9.14699659e-002 1.86391622e-001 6.90339366e-003 0. 0.
      0. 0. 4.40091342e-002 2.18319818e-001 2.16593981e-001
      8.54294971e-002 0. 0. 0. 5.43642268e-002 2.17456907e-001
      2.13142276e-001 1.76036537e-001 2.19182745e-001 0. 0.
      4.05574366e-002 2.01061338e-001 1.51874661e-001 2.24360302e-002
      1.22535236e-001 2.18319818e-001 0. 0. 1.50148809e-001
      1.95883796e-001 3.45169683e-003 0. 8.80182683e-002 2.13142276e-001
      0. 0. 2.16593981e-001 1.83802858e-001 1.72584841e-003
      2.24360302e-002 1.55326352e-001 7.59373307e-002 0. 0.
      2.18319818e-001 1.75173610e-001 1.09591372e-001 2.11416438e-001
      1.68270215e-001 0. 0. 0. 2.01061338e-001 2.17456907e-001
      2.16593981e-001 1.63092673e-001 1.46697117e-002 0. 0.</_>
    <_>
      0. 0. 0. 0. 0. 1.89570665e-001 3.30768108e-001 0. 0. 0. 0. 0.
      2.22255252e-002 3.20309043e-001 5.22953570e-002 0. 0. 0. 0. 0.
      2.71935850e-001 2.39251256e-001 0. 0. 0. 0. 0. 9.54390243e-002
      3.16386908e-001 2.09181421e-002 0. 0. 0. 0. 3.13772112e-002
      3.30768108e-001 1.45119607e-001 0. 0. 0. 0. 0. 2.48402938e-001
      2.95468748e-001 0. 0. 0. 0. 0. 1.17664551e-002 3.32075506e-001
      9.80537906e-002 0. 0. 0. 0. 0. 9.93611738e-002 3.12464744e-001 0.
      0. 0. 0. 0.</_>
    <_>
      0. 0. 1.24681499e-002 3.05469662e-001 5.86003028e-002 0. 0. 0. 0.
      0. 0. 2.90507883e-001 7.23152682e-002 0. 0. 0. 0. 0.
      7.48088956e-003 2.97988772e-001 1.96996763e-001 0. 0. 0. 0. 0. 0.
      2.58090705e-001 2.80533373e-001 0. 0. 0. 0. 0. 0. 2.56843895e-001
      2.80533373e-001 0. 0. 0. 0. 0. 0. 2.56843895e-001 3.06716472e-001
      1.24681499e-002 0. 0. 0. 0. 0. 1.13460161e-001 3.14197361e-001
      7.85493404e-002 0. 0. 0. 0. 0. 0. 3.14197361e-001 1.38396457e-001
      0. 0.</_>
    <_>
      0. 0. 0. 2.76909173e-001 2.23591253e-002 0. 0. 0. 0. 0. 0.
      3.61185879e-001 6.70773759e-002 0. 0. 0. 0. 0. 0. 3.50866288e-001
      1.71993271e-001 0. 0. 0. 0. 0. 0. 2.49390244e-001 1.99512199e-001
      0. 0. 0. 0. 0. 0. 2.32190922e-001 3.35386902e-001 0. 0. 0. 0. 0.
      0. 1.13515563e-001 3.42266619e-001 0. 0. 0. 0. 0. 0. 0.
      3.37106824e-001 0. 0. 0. 0. 0. 0. 0. 3.50866288e-001 0. 0. 0.</_>
    <_>
      0. 0. 0. 3.05573046e-001 1.12579547e-001 0. 0. 0. 0. 0. 0.
      1.14366524e-001 2.43028864e-001 0. 0. 0. 0. 0. 0. 4.28874455e-002
      3.68117243e-001 0. 0. 0. 0. 0. 0. 4.11004685e-002 3.68117243e-001
      0. 0. 0. 0. 0. 0. 4.11004685e-002 3.68117243e-001 0. 0. 0. 0. 0.
      0. 4.28874455e-002 3.68117243e-001 0. 0. 0. 0. 0. 0.
      4.11004685e-002 3.68117243e-001 0. 0. 0. 0. 0. 0. 0.
      3.68117243e-001 0. 0. 0.</_>
    <_>
      0. 0. 0. 0. 0. 1.51826277e-001 2.86339045e-001 0. 0. 0. 0. 0.
      1.99771412e-002 3.36947799e-001 1.07876562e-001 0. 0. 0. 0. 0.
      3.11643422e-001 2.91666269e-001 2.66361888e-003 0. 0. 0. 0.
      1.30517319e-001 3.28956932e-001 3.06316167e-002 0. 0. 0. 0.
      1.19862854e-002 3.16970646e-001 1.97107792e-001 0. 0. 0. 0.
      1.33180944e-003 2.35730276e-001 2.65030086e-001 0. 0. 0. 0. 0.
      7.99085665e-003 3.36947799e-001 6.92540929e-002 0. 0. 0. 0. 0.
      9.58902836e-002 2.61034638e-001 0. 0. 0. 0. 0.</_>
    <_>
      0. 0. 0. 0. 4.69746180e-002 2.69768536e-001 0. 0. 0. 0. 0. 0.
      1.20791882e-001 2.76479185e-001 0. 0. 0. 0. 0. 4.83167507e-002
      3.40901524e-001 2.13398993e-001 0. 0. 0. 6.71065971e-002
      2.05346197e-001 3.31506610e-001 1.36897460e-001 2.13398993e-001 0.
      0. 0. 1.07370559e-002 4.16060910e-002 0. 9.52913687e-002
      2.32188836e-001 0. 0. 0. 0. 0. 0. 4.96588834e-002 2.21451774e-001
      0. 0. 0. 0. 2.01319791e-002 6.84487298e-002 4.96588834e-002
      1.93267003e-001 3.75796966e-002 0. 0. 2.65742123e-001
      3.27480197e-001 2.22793907e-001 1.62397966e-001 1.27502546e-001
      1.27502546e-001 0.</_>
    <_>
      0. 0. 0. 4.38495260e-003 3.50796223e-001 0. 0. 0. 0. 0. 0.
      1.60781611e-002 3.36179703e-001 0. 0. 0. 0. 0. 0. 1.08162172e-001
      3.43487978e-001 0. 0. 0. 0. 0. 0. 1.90014616e-001 3.17178249e-001
      0. 0. 0. 0. 0. 0. 3.06946695e-001 2.09016085e-001 0. 0. 0. 0. 0.
      0. 3.06946695e-001 2.09016085e-001 0. 0. 0. 0. 0. 0.
      3.12793314e-001 7.74675012e-002 0. 0. 0. 0. 0. 0. 3.39103013e-001
      5.11577837e-002 0. 0. 0.</_>
    <_>
      0. 0. 0. 0. 1.02312993e-002 7.87810013e-002 0. 0. 0. 0.
      2.86476370e-002 2.33273625e-001 2.48620570e-001 2.34296754e-001
      5.42258844e-002 0. 0. 8.18503927e-003 2.57828742e-001
      2.24065453e-001 1.33006889e-002 1.69839561e-001 7.36653507e-002 0.
      0. 0. 1.84163377e-002 1.02312991e-003 0. 2.10764766e-001
      7.36653507e-002 0. 0. 2.04625982e-003 6.95728362e-002
      2.43504912e-001 2.57828742e-001 2.44528055e-001 4.09251964e-003 0.
      2.04625982e-003 1.85186520e-001 1.50400102e-001 1.43238185e-002
      2.41458654e-001 2.01556593e-001 1.88255906e-001 3.47864181e-002
      2.03602850e-001 9.51510817e-002 1.11521162e-001 2.51689970e-001
      3.47864181e-002 0. 1.02312993e-002 1.89279035e-001 1.67793304e-001
      1.77001476e-001 1.06405511e-001 7.16190925e-003 0. 0. 0. 0.</_>
    <_>
      0. 0. 1.02690488e-001 2.01756611e-001 1.32893577e-001 0. 0. 0. 0.
      2.51289666e-001 9.54417512e-002 0. 2.87533373e-001 7.00711608e-002
      0. 0. 0. 1.46182925e-001 0. 0. 9.90661159e-002 1.63096666e-001 0.
      0. 0. 0. 0. 0. 4.83249351e-002 2.29543447e-001 0. 0. 0. 0. 0.
      1.20812340e-003 1.06314860e-001 1.92091614e-001 4.59086895e-002
      1.40142322e-001 6.64467886e-002 1.90883502e-001 2.59746522e-001
      2.68203408e-001 3.06863338e-001 1.98132232e-001 1.18396096e-001
      2.41624676e-002 2.80284643e-001 1.32893575e-002 4.83249361e-003
      1.26852959e-001 2.42832810e-001 0. 0. 0. 2.00548485e-001
      1.44974813e-001 1.22020461e-001 1.73969775e-001 0. 0. 0. 0.</_>
    <_>
      0. 0. 5.94011284e-002 1.63556531e-001 2.03428522e-001
      1.48095965e-001 1.46468543e-002 0. 0. 2.01801106e-001
      2.02614814e-001 1.68438822e-001 1.67625114e-001 2.00173676e-001
      2.05869675e-001 5.94011284e-002 0. 7.32342713e-003 8.13714135e-003
      0. 1.05782831e-002 1.61929116e-001 2.05869675e-001 2.68525649e-002
      0. 0. 0. 5.20777032e-002 1.96918815e-001 2.05869675e-001
      6.83519840e-002 0. 0. 1.62742822e-003 1.16361119e-001
      1.98546246e-001 1.61929116e-001 3.33622769e-002 0. 0. 0.
      1.36703968e-001 1.92850247e-001 2.11565662e-002 0. 0. 0. 0.
      1.26939401e-001 2.05869675e-001 8.95085558e-002 0. 1.00086838e-001
      1.84713110e-001 2.03428522e-001 1.65183961e-001 2.44114222e-003
      1.90409109e-001 2.05869675e-001 2.05869675e-001 2.04242244e-001
      1.49723396e-001 1.44841105e-001 4.23131324e-002</_>
    <_>
      1.19017862e-001 2.02090740e-001 2.02090740e-001 1.86115190e-001
      1.28603190e-001 1.12627648e-001 3.67437713e-002 0. 1.98096856e-001
      1.96499288e-001 1.93304181e-001 1.99694410e-001 2.02090740e-001
      2.02090740e-001 2.02090740e-001 1.06237426e-001 0. 0. 0. 0.
      5.19205444e-002 1.17420308e-001 1.96499288e-001 1.78926185e-001 0.
      0. 0. 0. 0. 5.59144327e-003 1.98895633e-001 1.22212976e-001 0. 0.
      0. 0. 3.27498838e-002 1.86115190e-001 1.89310297e-001 0. 0. 0.
      1.11828865e-002 1.25408083e-001 1.99694410e-001 1.43779978e-001
      7.98777584e-003 0. 0. 0. 7.26887658e-002 2.02090740e-001
      1.05438642e-001 3.19511048e-003 0. 0. 0. 0. 9.42557603e-002
      1.94102958e-001 2.02090740e-001 2.02090740e-001 2.02090740e-001
      1.84517637e-001</_>
    <_>
      0. 0. 5.11131100e-002 1.48051769e-001 2.22958907e-001
      2.22077638e-001 2.22077638e-001 6.69757947e-002 0. 0.
      1.42764196e-001 1.94758564e-001 1.10157564e-001 1.35714114e-001
      2.22077638e-001 1.49814278e-001 0. 0. 0. 0. 0. 7.93134421e-002
      2.22077638e-001 5.28756306e-002 0. 0. 5.19943684e-002
      1.38357893e-001 2.00046137e-001 2.22077638e-001 1.20732687e-001
      8.81260494e-004 0. 1.76252099e-003 1.80658400e-001 1.88589752e-001
      1.89471006e-001 2.15027556e-001 7.49071389e-002 0. 0. 0. 0. 0. 0.
      1.46289244e-001 7.49071389e-002 0. 3.43691595e-002 2.00046137e-001
      0. 0. 9.95824337e-002 2.22077638e-001 6.78570569e-002 0.
      9.60573927e-002 2.22077638e-001 2.22077638e-001 2.14146301e-001
      1.85064703e-001 4.31817658e-002 0. 0.</_>
    <_>
      0. 0. 0. 1.59694344e-001 2.41048053e-001 2.11921424e-001
      3.01310071e-003 0. 0. 0. 0. 7.93449879e-002 2.49082997e-001
      2.55109191e-001 1.42620102e-001 0. 0. 0. 0. 0. 1.46637574e-001
      2.55109191e-001 1.08471625e-001 0. 0. 0. 0. 1.47641942e-001
      2.37030596e-001 2.55109191e-001 6.12663813e-002 0. 0. 0. 0.
      7.33187869e-002 2.23973826e-001 2.40043685e-001 1.76768571e-001 0.
      0. 0. 0. 0. 0. 1.14497826e-001 2.19956353e-001 0. 0.
      2.71179061e-002 4.72052433e-002 0. 4.01746761e-003 2.46069893e-001
      5.32314442e-002 0. 0. 4.82096113e-002 2.28995651e-001
      2.08908319e-001 2.55109191e-001 1.91834077e-001 0. 0.</_>
    <_>
      1.51044175e-001 1.92317888e-001 2.13393807e-001 1.95830539e-001
      1.94952369e-001 1.44018874e-001 2.37104241e-002 0. 5.09335026e-002
      2.81012431e-002 0. 0. 2.63449154e-003 2.12515652e-001
      1.34359062e-001 0. 0. 0. 0. 2.01977678e-002 1.80901751e-001
      1.89683393e-001 1.75632769e-003 0. 0. 0. 0. 2.01099515e-001
      2.23053619e-001 2.05490336e-001 9.22072008e-002 0. 0. 0. 0. 0.
      3.86392102e-002 1.58069491e-001 2.22175449e-001 2.09003001e-001 0.
      0. 0. 0. 0. 0. 1.34359062e-001 2.23053619e-001 0. 8.78163846e-004
      1.92317888e-001 3.51265538e-003 0. 1.05379662e-002 2.12515652e-001
      2.11637482e-001 0. 4.39081900e-003 2.09003001e-001 1.99343190e-001
      1.86170742e-001 2.23053619e-001 1.93196043e-001 2.81012431e-002</_>
    <_>
      0. 8.27072561e-002 8.57423842e-002 1.75278679e-001 1.91971883e-001
      1.71484768e-001 1.50997654e-001 1.36580784e-002 0. 1.81348935e-001
      1.76796243e-001 1.40374690e-001 1.82866499e-001 1.91213101e-001
      1.91971883e-001 1.82107717e-001 0. 0. 0. 9.86416824e-003
      7.05667362e-002 1.82107717e-001 1.91971883e-001 1.02435589e-001 0.
      0. 7.58782122e-003 1.89695537e-001 1.91971883e-001 1.91971883e-001
      9.94004607e-002 0. 0. 0. 0. 4.78032753e-002 7.20843002e-002
      1.85901627e-001 1.91971883e-001 6.07025716e-003 0. 0. 0. 0. 0.
      1.15334883e-001 1.91971883e-001 1.51756424e-002 1.17611229e-001
      1.43409818e-001 2.57985927e-002 1.74519885e-002 1.16852447e-001
      1.90454319e-001 1.91971883e-001 0. 1.32786870e-001 1.91971883e-001
      1.91971883e-001 1.91971883e-001 1.87419191e-001 1.45686179e-001
      2.73161568e-002 0.</_>
    <_>
      0. 0. 0. 0. 0. 0. 0. 0. 1.47373095e-001 2.68048167e-001
      2.62708545e-001 2.59504795e-001 2.60572702e-001 2.49893501e-001
      2.13584187e-003 0. 1.27082586e-001 0. 0. 0. 1.31354272e-001
      2.48825580e-001 3.20376270e-003 0. 0. 0. 0. 2.13584185e-001
      2.70184010e-001 2.16787949e-001 1.55916452e-001 1.92225762e-002 0.
      0. 0. 5.01922853e-002 5.55318892e-002 1.37761801e-001
      9.39770415e-002 2.47757658e-001 0. 0. 0. 0. 1.45237252e-001
      1.60188135e-002 0. 1.43101409e-001 0. 0. 0. 0. 1.78342789e-001
      2.55233109e-001 2.23195478e-001 2.65912324e-001 0. 0. 0. 0. 0. 0.
      0. 0.</_>
    <_>
      0. 2.60764420e-001 2.56689966e-001 2.58048117e-001 2.58048117e-001
      2.01005891e-001 2.71629589e-003 0. 0. 0. 0. 0. 0. 2.30885148e-001
      1.35814790e-002 0. 0. 0. 0. 0. 1.08651832e-001 1.99647754e-001 0.
      0. 0. 0. 0. 1.01861097e-001 2.77062178e-001 2.71629589e-003 0. 0.
      0. 0. 0. 5.56840673e-002 2.33601451e-001 3.02866995e-001
      3.42253268e-001 0. 0. 0. 0. 0. 0. 0. 3.31388086e-001 0. 0. 0. 0.
      0. 0. 1.61619604e-001 1.92857012e-001 0. 0. 0. 0. 3.93862911e-002
      9.37122107e-002 2.24094406e-001 0. 0.</_>
    <_>
      0. 0. 0. 1.24961965e-001 1.96498170e-001 2.28191420e-001
      2.29096934e-001 1.21339880e-001 4.07484695e-002 0. 9.96073615e-003
      1.95592642e-001 2.17325166e-001 1.41261354e-001 2.25474849e-001
      2.13703081e-001 0. 0. 0. 3.35042961e-002 1.70238048e-001
      2.29096934e-001 1.73860133e-001 3.89374234e-002 0. 0. 0.
      2.15514123e-001 2.29096934e-001 7.87803680e-002 0. 0. 0. 0. 0. 0.
      1.72049087e-002 1.99214727e-001 1.33111656e-001 0. 0. 0. 0. 0. 0.
      9.96073615e-003 2.27285892e-001 0. 0. 8.69300663e-002
      1.32206142e-001 0. 9.68907997e-002 2.06458896e-001 1.90159515e-001
      0. 0. 1.11379147e-001 2.28191420e-001 2.27285892e-001
      2.14608595e-001 1.35828227e-001 1.81104301e-003 0.</_>
    <_>
      3.44602317e-002 0. 0. 0. 0. 0. 0. 1.56853482e-001 1.79430872e-001
      0. 0. 0. 0. 0. 0. 2.66175598e-001 2.32903644e-001 0. 0. 0. 0. 0.
      1.06945550e-002 2.23397374e-001 2.66175598e-001 0. 0. 0. 0.
      5.22844903e-002 2.68552154e-001 9.50627103e-002 2.31715366e-001
      2.38845065e-001 2.59045899e-001 2.55481035e-001 1.80619150e-001
      5.34727760e-002 2.64987320e-001 0. 0. 0. 0. 0. 0. 0.
      2.95882702e-001 0. 0. 0. 0. 0. 0. 0. 2.97070980e-001 0. 0. 0. 0.
      0. 0. 0. 2.95882702e-001 0.</_>
    <_>
      0. 0. 0. 0. 0. 0. 0. 1.90079048e-001 0. 0. 0. 1.21069457e-002 0.
      0. 2.21557096e-001 1.48915425e-001 0. 0. 0. 2.96620160e-001 0.
      1.45283341e-002 3.05095017e-001 0. 0. 0. 1.28333628e-001
      1.45283341e-001 0. 2.27610573e-001 5.93240336e-002 0. 0.
      1.61022380e-001 3.03884327e-001 1.91289738e-001 1.08962506e-001
      2.17925012e-001 0. 0. 1.19858764e-001 1.92500427e-001
      3.02673634e-002 2.40928218e-001 3.06305707e-001 2.62720704e-001
      1.21069455e-003 0. 6.05347287e-003 0. 7.26416707e-003
      2.79670447e-001 6.05347287e-003 2.42138910e-003 0. 0. 0. 0.
      1.82814881e-001 1.38019174e-001 0. 0. 0. 0.</_>
    <_>
      1.35306390e-002 0. 0. 0. 0. 0. 2.01155499e-001 1.80408522e-003
      1.93037122e-001 7.48695359e-002 0. 0. 0. 0. 2.18294308e-001
      2.52571926e-002 1.38012514e-001 2.25510657e-001 2.70612780e-002 0.
      0. 1.98449381e-002 2.26412699e-001 5.23184724e-002 1.80408522e-003
      2.27314740e-001 1.39816597e-001 0. 1.89428944e-002 1.19069621e-001
      2.27314740e-001 2.25510653e-002 0. 1.34404346e-001 2.28216782e-001
      2.28216782e-001 2.29118824e-001 2.28216782e-001 2.28216782e-001
      6.76531941e-002 0. 5.50245978e-002 2.27314740e-001 2.05665708e-001
      8.56940448e-002 6.58491105e-002 2.27314740e-001 9.56165195e-002 0.
      9.02042608e-004 9.92246903e-003 9.02042608e-004 0. 2.43551508e-002
      2.27314740e-001 1.61465630e-001 0. 0. 0. 0. 0. 0. 1.48837030e-001
      2.27314740e-001</_>
    <_>
      0. 0. 1.71787571e-002 6.24682102e-003 0. 1.17127895e-001
      2.18638740e-002 0. 0. 0. 2.63928175e-001 0. 0. 3.15464467e-001
      4.68511600e-003 0. 0. 1.56170526e-003 2.99847424e-001
      1.56170526e-003 0. 3.70124131e-001 1.56170526e-003 0. 0. 0.
      1.63979053e-001 3.40451747e-001 2.12391913e-001 3.95111442e-001
      1.24936420e-002 0. 0. 0. 0. 0. 2.81106941e-002 1.93651453e-001 0.
      0. 0. 0. 0. 0. 8.90171975e-002 1.17127895e-001 0. 0. 0. 0. 0. 0.
      2.59243071e-001 1.56170526e-003 0. 0. 0. 0. 0. 0. 3.43575150e-001
      0. 0. 0.</_>
    <_>
      0. 1.03578798e-003 4.35030945e-002 1.20151408e-001 1.85406044e-001
      2.22694412e-001 1.36724010e-001 2.43410170e-001 0. 3.00378520e-002
      2.53768057e-001 2.62054354e-001 1.89549208e-001 2.43410170e-001 0.
      0. 0. 0. 5.17894002e-003 2.41338596e-001 1.03578798e-003 0. 0. 0.
      0. 0. 0. 5.38609736e-002 1.89549208e-001 4.03957330e-002 0. 0. 0.
      0. 0. 0. 6.11114912e-002 2.48589113e-001 6.62904307e-002 0. 0. 0.
      0. 0. 3.62525806e-002 1.92656562e-001 2.35123873e-001 0. 0. 0.
      1.03578800e-002 1.96799710e-001 2.61018574e-001 2.34088078e-001
      1.65726077e-002 0. 4.35030945e-002 2.06121802e-001 2.62054354e-001
      2.29944929e-001 4.76462469e-002 0. 0. 0.</_>
    <_>
      0. 0. 0. 0. 0. 0. 0. 0. 0. 0. 0. 0. 0. 1.01975184e-002
      7.72097781e-002 3.42345238e-001 0. 0. 0. 1.01975184e-002
      2.94271231e-001 2.94271231e-001 2.17061460e-001 5.68147413e-002 0.
      0. 7.28394166e-002 1.55876338e-001 4.07900736e-002 0. 0. 0. 0. 0.
      3.62740278e-001 4.37036492e-002 0. 0. 0. 0. 1.22370213e-001
      7.42961988e-002 4.95308004e-002 3.62740278e-001 0. 0. 0. 0.
      3.03011954e-001 3.46715599e-001 3.23406994e-001 1.31110951e-001 0.
      0. 0. 0. 0. 0. 0. 0. 0. 0. 0. 0.</_>
    <_>
      0. 0. 0. 0. 0. 0. 0. 0. 0. 0. 0. 0. 1.43409753e-002
      1.79262191e-001 3.59958470e-001 3.48485708e-001 0. 0. 0.
      7.17048794e-002 2.98292279e-001 9.89527330e-002 4.30229260e-003 0.
      0. 0. 0. 3.44183415e-001 1.00386828e-001 0. 0. 0. 0.
      5.73639013e-003 3.11199158e-001 5.30616082e-002 2.32323796e-001
      1.86432675e-002 0. 0. 0. 0. 1.00386832e-002 0. 3.34144711e-001
      8.60458519e-003 0. 0. 2.92555898e-001 0. 8.31776559e-002
      3.51353884e-001 4.87593152e-002 0. 0. 0. 0. 0. 0. 0. 0. 0. 0. 0.</_>
    <_>
      0. 0. 0. 0. 0. 1.02634318e-001 2.04102337e-001 2.04102337e-001 0.
      0. 0. 0. 2.96239972e-001 2.88075864e-001 2.78745472e-001
      1.87774152e-001 0. 5.83149539e-003 1.90106750e-001 0. 0. 0. 0. 0.
      0. 2.57752091e-001 1.45787388e-001 0. 0. 0. 0. 0. 0.
      1.28292903e-001 2.69415081e-001 2.97406256e-001 1.16629908e-002 0.
      0. 0. 0. 0. 0. 1.53951481e-001 2.07601234e-001 0. 0. 0.
      9.68028232e-002 6.53127506e-002 3.03237773e-002 2.90408462e-001
      1.24794006e-001 0. 0. 0. 2.04102337e-001 2.04102337e-001
      2.04102337e-001 1.21295109e-001 0. 0. 0. 0.</_>
    <_>
      0. 0. 0. 0. 1.13416441e-001 2.12904543e-001 0. 0. 0. 0. 0.
      1.55201435e-001 2.25837991e-001 2.68617887e-002 0. 0. 0. 0.
      3.38259563e-002 2.21858472e-001 3.58157158e-002 0. 0. 0. 0.
      3.97952413e-003 2.44740739e-001 5.17338142e-002 0. 0. 0. 0. 0.
      3.58157158e-002 2.49715135e-001 9.94881056e-003 1.27344772e-001
      2.39766330e-001 2.52699792e-001 0. 0. 1.92012042e-001
      1.20380603e-001 9.65034589e-002 2.32802168e-001 5.86979799e-002
      2.37776563e-001 0. 0. 2.46730492e-001 1.98976211e-002
      2.46730492e-001 9.94881056e-003 2.33797044e-001 1.59180965e-002 0.
      0. 2.47725382e-001 1.31324291e-001 2.48720258e-001 2.39766330e-001
      2.18873825e-002 0. 0.</_>
    <_>
      0. 0. 0. 0. 1.12999909e-001 3.28568965e-001 0. 0. 0. 0. 0.
      6.60614893e-002 2.45122880e-001 0. 0. 0. 0. 0. 1.73846015e-003
      3.68553549e-001 0. 0. 0. 0. 0. 0. 1.39076814e-001 7.64922500e-002
      0. 0. 0. 0. 0. 0. 3.07707459e-001 3.47692030e-003 3.61599714e-001
      2.95538217e-001 0. 0. 0. 5.21538034e-003 2.92061299e-001
      4.51999642e-002 0. 8.51845443e-002 0. 0. 0. 6.95384061e-003
      2.59030551e-001 0. 0. 7.12768659e-002 0. 0. 0. 1.73846015e-003
      2.99015135e-001 1.73846018e-002 6.43230230e-002 2.83369005e-001 0.
      0.</_>
    <_>
      0. 0. 0. 1.17326409e-001 3.19388568e-001 2.44430024e-002 0. 0. 0.
      0. 4.23678719e-002 3.35683882e-001 0. 0. 0. 0. 0. 0.
      2.54207224e-001 4.72564697e-002 0. 0. 0. 0. 0. 1.62953348e-003
      3.11240882e-001 1.62953348e-003 0. 0. 0. 0. 0. 2.77020689e-002
      2.37911895e-001 0. 0. 4.88860067e-003 0. 0. 0. 1.14067346e-001
      8.47357437e-002 0. 2.42800489e-001 2.85168350e-001 2.44430024e-002
      0. 0. 1.14067346e-001 6.68108761e-002 3.17759037e-001
      3.58497351e-002 1.79248676e-001 2.60725357e-002 0. 0.
      1.79248676e-002 3.32424819e-001 1.15696877e-001 2.41170958e-001
      2.28134692e-001 0. 0.</_>
    <_>
      0. 0. 0. 9.39703137e-002 1.89820036e-001 2.81910948e-003 0. 0. 0.
      0. 1.69146564e-002 2.34925792e-001 2.18011126e-001 1.87940628e-003
      0. 0. 0. 0. 1.84181809e-001 2.36805186e-001 0. 0. 0. 0. 0.
      7.51762511e-003 2.34925792e-001 1.33437842e-001 0. 0. 0. 0. 0.
      5.45027815e-002 2.38684595e-001 1.89820036e-001 1.20282002e-001
      1.59749538e-002 0. 0. 0. 7.23571405e-002 2.37744898e-001
      2.17071429e-001 2.38684595e-001 2.06734687e-001 6.57792203e-003 0.
      0. 6.38998151e-002 2.37744898e-001 2.32106671e-001 7.79953599e-002
      2.37744898e-001 1.50352502e-002 0. 0. 9.39703139e-004
      1.63508341e-001 2.36805186e-001 2.39624307e-001 2.28347868e-001
      7.51762511e-003 0.</_>
    <_>
      0. 0. 0. 9.52793881e-002 2.36694053e-001 0. 0. 0. 0. 0.
      2.20647007e-002 2.47726411e-001 8.92617404e-002 0. 0. 0. 0. 0.
      1.52447015e-001 2.32682303e-001 1.10323504e-002 0. 0. 0. 0.
      1.00294093e-003 2.31679350e-001 2.90852878e-002 8.02352745e-003
      2.05602884e-001 1.90558776e-001 0. 0. 1.40411733e-002
      2.31679350e-001 0. 1.83538184e-001 2.01591134e-001 2.46723473e-001
      0. 0. 3.91146950e-002 2.05602884e-001 9.02646873e-003
      2.35691115e-001 4.71382253e-002 2.33685240e-001 0. 0.
      1.10323504e-002 2.53744066e-001 2.20647007e-001 2.51738161e-001
      2.49732286e-001 1.00294091e-002 0. 0. 0. 5.41588105e-002
      2.27667585e-001 1.23361737e-001 7.02058664e-003 0. 0.</_>
    <_>
      0. 0. 0. 3.89512628e-002 1.49127692e-001 2.42610723e-001
      2.80449092e-001 0. 0. 9.45959240e-002 2.80449092e-001
      2.72658825e-001 3.67254764e-002 6.23220205e-002 2.78223306e-001 0.
      0. 2.74884641e-001 2.17014179e-001 6.67735934e-003 1.11289322e-003
      1.48014799e-001 2.53739655e-001 0. 0. 4.22899425e-002
      3.33867967e-003 0. 1.03499070e-001 2.78223306e-001 1.33547187e-002
      0. 0. 0. 0. 1.11289322e-003 2.82674879e-001 1.30208507e-001 0. 0.
      0. 0. 3.33867967e-003 1.89191848e-001 1.71385556e-001
      3.33867967e-003 0. 0. 0. 0. 9.57088172e-002 2.48175189e-001 0. 0.
      0. 0. 0. 4.45157290e-003 2.44836509e-001 4.78544086e-002 0. 0. 0.
      0.</_>
    <_>
      0. 0. 0. 0. 0. 0. 0. 0. 3.16170380e-002 0. 0. 1.37465389e-003
      1.51211927e-002 2.00699463e-001 2.59809583e-001 3.49162102e-001 0.
      0. 0. 2.37815127e-001 3.02423865e-001 1.70457080e-001
      6.73580393e-002 3.43663484e-001 0. 0. 0. 1.51211927e-002 0.
      7.28566572e-002 3.43663484e-001 7.01073483e-002 0. 0. 0. 0.
      4.39889245e-002 3.38164866e-001 5.49861565e-002 0. 0. 0. 0.
      1.78705007e-002 3.39539498e-001 1.08597659e-001 0. 0. 0. 0. 0.
      2.96925247e-001 7.69806206e-002 0. 0. 0. 0. 0. 0. 0. 0. 0. 0. 0.</_>
    <_>
      1.85776912e-002 7.55492821e-002 1.07750617e-001 1.07750617e-001
      8.79344121e-002 1.23851281e-003 0. 0. 2.26647839e-001
      2.29124874e-001 2.29124874e-001 2.29124874e-001 2.46464044e-001
      1.91969484e-001 0. 0. 0. 0. 0. 0. 7.43107647e-002 1.74630299e-001
      0. 0. 0. 0. 0. 0. 1.68437749e-001 1.39951944e-001 7.05952272e-002
      8.29803571e-002 3.71553842e-003 1.36236414e-001 2.51418114e-001
      3.13343734e-001 3.14582258e-001 2.55133629e-001 1.48621529e-001
      2.47702561e-002 4.95405123e-003 1.93207994e-001 4.08709235e-002
      9.90810245e-003 2.76188344e-001 9.90810245e-003 0. 0. 0. 0. 0. 0.
      2.53895134e-001 9.90810245e-003 0. 0. 0. 0. 0. 0. 1.17658719e-001
      7.43107684e-003 0. 0.</_>
    <_>
      0. 0. 0. 2.59917378e-002 2.32301161e-001 3.63884330e-001
      2.43672542e-002 0. 0. 6.49793446e-003 3.72006744e-001
      2.63166338e-001 1.29958689e-002 2.66415298e-001 1.29958689e-002 0.
      0. 0. 0. 0. 0. 3.68757784e-001 1.62448362e-003 0. 0. 0. 0. 0.
      6.49793446e-003 3.31394672e-001 0. 0. 0. 0. 0. 0. 5.19834757e-002
      1.94938034e-001 0. 0. 0. 0. 0. 0. 7.79752135e-002 1.38081104e-001
      0. 0. 0. 0. 0. 0. 3.00529480e-001 3.57386395e-002 0. 0. 0. 0. 0.
      0. 3.60635370e-001 0. 0. 0.</_>
    <_>
      0. 0. 0. 0. 2.17128061e-002 2.68825218e-002 2.34705091e-001 0. 0.
      0. 5.79008162e-002 2.56417900e-001 2.24365667e-001 2.44010583e-001
      2.61587620e-001 0. 0. 0. 1.65430903e-001 1.16835579e-001
      2.89504081e-002 2.36772984e-001 6.92741871e-002 0. 0. 0.
      6.51384145e-002 2.57451832e-001 2.57451832e-001 1.03394315e-001 0.
      0. 0. 0. 1.04428262e-001 2.62621552e-001 1.49921760e-001 0. 0. 0.
      0. 7.44439065e-002 2.28501439e-001 1.19937405e-001 1.47853866e-001
      0. 0. 0. 0. 2.57451832e-001 5.16971573e-003 2.15060174e-001
      8.99530500e-002 0. 0. 0. 0. 2.57451832e-001 2.34705091e-001
      8.78851712e-002 0. 0. 0. 0.</_>
    <_>
      0. 0. 0. 8.37380663e-002 2.17718974e-001 2.03762636e-001
      1.58171907e-001 0. 0. 0. 0. 1.71197832e-001 1.66545719e-001
      9.30422975e-004 2.00971365e-001 6.79208785e-002 0. 0. 0.
      1.71197832e-001 2.08414748e-001 1.66545719e-001 2.35397011e-001
      1.19094141e-001 0. 0. 0. 1.82362899e-001 2.35397011e-001
      1.68406561e-001 6.51296088e-003 0. 0. 1.20954989e-002
      1.84223756e-001 2.35397011e-001 7.44338408e-002 0. 0. 0. 0.
      2.25162357e-001 1.69336975e-001 2.14927703e-001 5.11732623e-002 0.
      0. 0. 1.47006825e-001 1.73058674e-001 0. 2.33536169e-001
      3.53560746e-002 0. 0. 0. 1.84223756e-001 2.22371086e-001
      2.24231943e-001 1.60032749e-001 0. 0. 0. 0.</_>
    <_>
      0. 0. 0. 0. 3.29691991e-002 1.03028752e-002 2.49329567e-001 0. 0.
      0. 3.50297727e-002 2.48299286e-001 2.54481018e-001 1.37028232e-001
      2.39026695e-001 0. 0. 0. 2.60662735e-001 4.84235100e-002
      5.15143722e-002 2.32844964e-001 9.99378860e-002 0. 0. 0.
      1.03028744e-001 2.50359863e-001 2.13269502e-001 1.52482539e-001
      1.03028747e-003 0. 0. 0. 4.12114989e-003 2.32844964e-001
      2.50359863e-001 4.12114989e-003 0. 0. 0. 0. 1.96784914e-001
      1.52482539e-001 1.63815707e-001 8.86047259e-002 0. 0. 0.
      9.99378860e-002 2.15330079e-001 1.03028747e-003 1.73088297e-001
      8.03624243e-002 0. 0. 0. 2.02966630e-001 1.96784914e-001
      1.54543117e-001 2.09148362e-001 0. 0. 0.</_>
    <_>
      0. 0. 0. 1.23332604e-003 2.34331951e-001 2.17065379e-001
      4.06997576e-002 0. 0. 1.23332604e-003 2.23232016e-001
      2.95998245e-001 3.04631531e-001 1.87465563e-001 2.94764936e-001 0.
      0. 7.02995807e-002 1.33199215e-001 0. 2.46665208e-003
      1.97332174e-001 2.83664986e-002 0. 0. 2.46665208e-003
      1.66499019e-001 2.03498796e-001 1.55399084e-001 4.93330434e-002 0.
      0. 0. 0. 0. 1.93632185e-001 2.73798376e-001 1.10999346e-002 0. 0.
      0. 0. 1.01132736e-001 1.31965891e-001 3.45331281e-002
      2.21998692e-001 1.23332604e-003 0. 0. 0. 2.23232016e-001
      2.83664986e-002 0. 1.87465563e-001 9.86660831e-003 0. 0. 0.
      1.96098834e-001 5.54996729e-002 6.65996075e-002 2.51598507e-001
      4.93330415e-003 0.</_>
    <_>
      0. 0. 0. 1.64434239e-001 2.48242661e-001 2.28086203e-001
      2.32329667e-001 0. 0. 1.06086605e-003 1.80347234e-001
      1.97321087e-001 0. 1.96260214e-001 2.31268793e-001 0. 0.
      1.87773287e-001 1.75042897e-001 1.06086605e-003 1.10330068e-001
      2.43999198e-001 5.30433003e-003 0. 0. 2.50364393e-001
      2.22781867e-001 2.53546983e-001 2.49303520e-001 1.17756128e-001 0.
      0. 0. 0. 0. 0. 2.69459963e-001 4.24346402e-002 0. 0. 0. 0. 0. 0.
      2.68399119e-001 9.54779424e-003 0. 0. 0. 0. 0. 0. 2.69459963e-001
      9.54779424e-003 0. 0. 0. 0. 0. 0. 1.06086604e-001 1.45338655e-001
      0. 0.</_>
    <_>
      0. 0. 0. 4.07806821e-002 2.72720814e-001 3.21147859e-001
      1.47829980e-001 0. 0. 0. 0. 3.08403909e-001 0. 2.67623235e-002
      3.08403909e-001 0. 0. 0. 0. 3.10952693e-001 1.27439633e-001
      2.07726598e-001 3.95062864e-002 0. 0. 0. 0. 1.04500495e-001
      3.22422266e-001 1.03226103e-001 0. 0. 0. 0. 0. 0. 3.21147859e-001
      2.03903411e-002 0. 0. 0. 0. 0. 1.51653156e-001 1.80964276e-001 0.
      0. 0. 0. 0. 3.56830955e-002 3.09678316e-001 0. 0. 0. 0. 0.
      2.54879263e-003 2.59976834e-001 2.80367192e-002 0. 0. 0. 0.</_>
    <_>
      0. 0. 0. 0. 2.54266262e-001 2.25535601e-001 2.01114547e-002 0. 0.
      0. 0. 3.18910211e-001 0. 1.03430338e-001 2.01114547e-002 0. 0. 0.
      1.78130031e-001 5.17151691e-002 1.00557273e-002 3.39021653e-001
      7.18266238e-003 0. 0. 0. 2.82996893e-001 0. 2.58575857e-001
      1.35034055e-001 0. 0. 0. 2.87306495e-003 3.07417959e-001
      3.10291022e-001 3.07417959e-001 0. 0. 0. 0. 0. 0. 2.49956653e-001
      2.72941180e-002 0. 0. 0. 0. 0. 3.01671810e-002 1.96804956e-001 0.
      0. 0. 0. 0. 0. 2.61448920e-001 8.61919485e-003 0. 0. 0. 0.</_>
    <_>
      0. 0. 0. 5.56038581e-002 2.21232370e-001 2.99314380e-001
      2.75653183e-001 0. 0. 0. 0. 2.85117656e-001 7.09836464e-003
      9.81940478e-002 2.98131317e-001 0. 0. 0. 0. 2.46076643e-001
      2.80385405e-001 2.99314380e-001 1.76276058e-001 0. 0. 0. 0.
      1.18306081e-003 7.80820101e-002 2.65005618e-001 3.54918232e-003 0.
      0. 0. 0. 8.28142557e-003 2.94582129e-001 5.91530390e-002 0. 0. 0.
      0. 0. 2.41344407e-001 1.12390779e-001 0. 0. 0. 0. 0.
      1.44333422e-001 1.66811571e-001 0. 0. 0. 0. 0. 1.02926292e-001
      2.14134008e-001 4.73224325e-003 0. 0. 0. 0.</_>
    <_>
      0. 0. 0. 1.50592983e-001 3.46363842e-001 3.36780667e-001 0. 0. 0.
      0. 1.46485895e-001 1.38271734e-001 5.20230271e-002 2.49162927e-001
      0. 0. 0. 0. 2.53270000e-001 1.19105354e-001 1.39640763e-001
      1.98508918e-001 0. 0. 0. 0. 1.91663783e-002 2.28627518e-001
      3.10769141e-001 7.25584328e-002 0. 0. 0. 0. 0. 8.21416266e-003
      3.34042609e-001 0. 0. 0. 0. 0. 0. 1.86187685e-001 1.49223953e-001
      0. 0. 0. 0. 0. 1.23212440e-002 3.36780667e-001 0. 0. 0. 0. 0. 0.
      2.46424869e-001 6.29752427e-002 0. 0. 0. 0.</_>
    <_>
      0. 0. 3.34902783e-003 1.64102361e-001 2.79085666e-001
      2.70154923e-001 2.40013659e-001 0. 0. 2.23268522e-003
      2.52293438e-001 1.75265789e-001 0. 1.69684082e-001 1.97592646e-001
      0. 0. 8.70747268e-002 1.78614825e-001 0. 1.59636989e-001
      2.74620295e-001 5.69334738e-002 0. 0. 1.01587176e-001
      2.62340516e-001 2.67922223e-001 6.02825023e-002 2.40013659e-001
      4.46537044e-003 0. 0. 0. 0. 0. 7.59112984e-002 1.96476296e-001 0.
      0. 0. 0. 0. 0. 2.63456851e-001 4.13046777e-002 0. 0. 0. 0. 0.
      2.67922226e-002 2.28850231e-001 0. 0. 0. 0. 0. 2.34431941e-002
      2.72387594e-001 5.69334738e-002 0. 0. 0.</_>
    <_>
      0. 0. 1.36367485e-001 3.50862175e-001 6.39222562e-002 0. 0. 0. 0.
      0. 2.44325072e-001 3.69328596e-002 3.25293273e-001 0. 0. 0. 0. 0.
      2.41484091e-001 8.52296799e-002 3.42339218e-001 4.26148390e-003 0.
      0. 0. 0. 2.27279142e-002 1.25003532e-001 1.88925788e-001
      1.10798582e-001 0. 0. 0. 0. 0. 0. 1.84664298e-002 2.62791514e-001
      0. 0. 0. 0. 0. 0. 0. 2.88360417e-001 0. 0. 0. 0. 0. 0. 0.
      2.88360417e-001 0. 0. 0. 0. 6.53427541e-002 2.25858644e-001
      2.21597165e-001 3.16770315e-001 0. 0.</_></support_vectors>
  <decision_functions>
    <_>
      <sv_count>11</sv_count>
      <rho>1.9382783948144192e-001</rho>
      <alpha>
        1.0951479971074405e+000 1.1718856375756437e+000
        1.0276147669481981e+000 9.4774515457601194e-001
        -4.3642344558205243e-001 -4.9977090354971482e-001
        -5.0412118317742571e-001 -7.4446702808797072e-001
        -4.3530132816335865e-001 -8.1998563695701532e-001
        -8.0232403068975666e-001</alpha>
      <index>
        0 1 2 3 4 5 6 7 8 9 10</index></_>
    <_>
      <sv_count>8</sv_count>
      <rho>5.8893240124774156e-002</rho>
      <alpha>
        9.7313958916478760e-001 1.0395201213924945e+000
        9.1701903515310201e-001 8.3805772120297450e-001
        -9.4180883477527122e-001 -9.3806525582515699e-001
        -9.4697952604590663e-001 -9.4088285026702390e-001</alpha>
      <index>
        0 1 2 3 11 12 13 14</index></_>
    <_>
      <sv_count>11</sv_count>
      <rho>2.6258589511001273e-001</rho>
      <alpha>
        1.1656919685063301e+000 1.2476682460766411e+000
        1.0991238445289611e+000 1.0025338784447666e+000
        -6.2629067875456168e-001 -6.2121498538325359e-001
        -7.1604014765560919e-001 -5.1129703412453731e-001
        -7.3565730503459170e-001 -7.1465148030685188e-001
        -5.8986630629729309e-001</alpha>
      <index>
        0 1 2 3 15 16 17 18 19 20 21</index></_>
    <_>
      <sv_count>8</sv_count>
      <rho>5.9868345921888298e-002</rho>
      <alpha>
        9.7243993367419468e-001 1.0389399244272066e+000
        9.1386786178427937e-001 8.3522475350670133e-001
        -9.3856334231072680e-001 -9.4283808265970726e-001
        -9.3848311685851937e-001 -9.4058793156342835e-001</alpha>
      <index>
        0 1 2 3 22 23 24 25</index></_>
    <_>
      <sv_count>8</sv_count>
      <rho>5.9809519966801949e-002</rho>
      <alpha>
        9.7401209636401753e-001 1.0393669993075092e+000
        9.1456903927787403e-001 8.3593647377887392e-001
        -9.4607403936629775e-001 -9.3879812921265648e-001
        -9.3816202955780015e-001 -9.4085041059152030e-001</alpha>
      <index>
        0 1 2 3 26 27 28 29</index></_>
    <_>
      <sv_count>9</sv_count>
      <rho>1.4885945392851752e-001</rho>
      <alpha>
        1.0601714637439470e+000 1.1267385656512594e+000
        1.0161924784308800e+000 9.2303323041561014e-001
        -8.5367103801539046e-001 -8.4944601223230409e-001
        -8.0190135331490398e-001 -7.8572790498221157e-001
        -8.3538942969688579e-001</alpha>
      <index>
        0 1 2 3 30 31 32 33 34</index></_>
    <_>
      <sv_count>8</sv_count>
      <rho>5.9990694867533542e-002</rho>
      <alpha>
        9.7259925437251582e-001 1.0390334551634559e+000
        9.1254439104605778e-001 8.3507936318831133e-001
        -9.4010793408688509e-001 -9.4028883472980906e-001
        -9.3957749663043122e-001 -9.3928219832321558e-001</alpha>
      <index>
        0 1 2 3 35 36 37 38</index></_>
    <_>
      <sv_count>8</sv_count>
      <rho>1.3697862946495805e-002</rho>
      <alpha>
        9.3224629121239178e-001 9.9659823842967921e-001
        8.8866925754564352e-001 8.0377783008159465e-001
        -8.4094261030615081e-001 -9.6118755541932854e-001
        -8.5555064633272782e-001 -9.6361080521110198e-001</alpha>
      <index>
        0 1 2 3 39 40 41 42</index></_>
    <_>
      <sv_count>11</sv_count>
      <rho>2.8314725602217866e-001</rho>
      <alpha>
        1.1776752288709784e+000 1.2581027069841757e+000
        1.1071862354961866e+000 1.0108355407168135e+000
        -6.3273970837636095e-001 -5.7833506589614991e-001
        -6.9844523829424454e-001 -6.2117447719545926e-001
        -6.6515781952696129e-001 -6.4085802198278607e-001
        -7.1708938079619233e-001</alpha>
      <index>
        0 1 2 3 43 44 45 46 47 48 49</index></_>
    <_>
      <sv_count>11</sv_count>
      <rho>-1.3624362554121744e-001</rho>
      <alpha>
        4.6742397278264980e-001 5.3573023996877611e-001
        5.4012221292717100e-001 7.9791445131226080e-001
        4.6661379466825403e-001 8.6460923501502462e-001
        8.5992191259609174e-001 -1.1322617405996633e+000
        -1.1323449270255124e+000 -1.1338034766314025e+000
        -1.1339256750136510e+000</alpha>
      <index>
        4 5 6 7 8 9 10 11 12 13 14</index></_>
    <_>
      <sv_count>14</sv_count>
      <rho>7.0484927701053593e-002</rho>
      <alpha>
        5.7882689557579903e-001 6.6396259983251871e-001
        6.6930966254901669e-001 9.8889109724599056e-001
        5.7911174672590382e-001 1.0988757219885255e+000
        1.0655512528603199e+000 -7.6542917566818769e-001
        -7.9778779872266326e-001 -9.0324767631725222e-001
        -6.3003865042227924e-001 -9.2735357638546645e-001
        -9.0088958407879027e-001 -7.1978251518343495e-001</alpha>
      <index>
        4 5 6 7 8 9 10 15 16 17 18 19 20 21</index></_>
    <_>
      <sv_count>11</sv_count>
      <rho>-1.3509206455648037e-001</rho>
      <alpha>
        4.6803121151321225e-001 5.3622415104668109e-001
        5.4082883537141546e-001 7.9870002824026187e-001
        4.6678717705162259e-001 8.6634918817760054e-001
        8.6071432481389054e-001 -1.1331771814216642e+000
        -1.1348819097738241e+000 -1.1328302224756046e+000
        -1.1367456025435914e+000</alpha>
      <index>
        4 5 6 7 8 9 10 22 23 24 25</index></_>
    <_>
      <sv_count>11</sv_count>
      <rho>-1.3523651814941734e-001</rho>
      <alpha>
        4.6827247854279558e-001 5.3629619582537658e-001
        5.4074399972314946e-001 7.9865889538345503e-001
        4.6690417403531226e-001 8.6622293849757692e-001
        8.6089744647582478e-001 -1.1368236156203719e+000
        -1.1334306895958313e+000 -1.1330604991247002e+000
        -1.1346813241425875e+000</alpha>
      <index>
        4 5 6 7 8 9 10 26 27 28 29</index></_>
    <_>
      <sv_count>12</sv_count>
      <rho>-4.8028945375513964e-002</rho>
      <alpha>
        5.1536067745839587e-001 5.9300420614067906e-001
        5.9481346254092660e-001 8.7915594545292275e-001
        5.1360016957431864e-001 9.5286798673933115e-001
        9.4842200266328036e-001 -1.0119198078653293e+000
        -1.0420395312384212e+000 -9.8499084386781588e-001
        -9.5674977601376954e-001 -1.0015244915845183e+000</alpha>
      <index>
        4 5 6 7 8 9 10 30 31 32 33 34</index></_>
    <_>
      <sv_count>11</sv_count>
      <rho>-1.3498671234519155e-001</rho>
      <alpha>
        4.6826106922768657e-001 5.3659469776385482e-001
        5.4197899134232275e-001 8.0024717343778251e-001
        4.6695294332599097e-001 8.6485903447244705e-001
        8.6092786445041858e-001 -1.1345126620884378e+000
        -1.1349926557755572e+000 -1.1363664157957272e+000
        -1.1339500403607807e+000</alpha>
      <index>
        4 5 6 7 8 9 10 35 36 37 38</index></_>
    <_>
      <sv_count>11</sv_count>
      <rho>-1.8116413501105935e-001</rho>
      <alpha>
        4.3991966616987693e-001 5.0965889849679591e-001
        5.1255741077006933e-001 7.5650924228791261e-001
        4.6321301787098812e-001 8.2191419857165082e-001
        8.1902742939019302e-001 -1.0063711540531162e+000
        -1.1440479466104039e+000 -1.0214096670979815e+000
        -1.1509710957959838e+000</alpha>
      <index>
        4 5 6 7 8 9 10 39 40 41 42</index></_>
    <_>
      <sv_count>14</sv_count>
      <rho>9.4972724450209225e-002</rho>
      <alpha>
        5.9227030090964605e-001 6.8143093168950930e-001
        6.8484230574729821e-001 1.0126916820917646e+000
        5.9710496019200199e-001 1.0992048245586288e+000
        1.0930977779890980e+000 -8.0171252682301963e-001
        -7.3178024741641667e-001 -8.8348350678281518e-001
        -7.8606553904586418e-001 -8.4536436198354181e-001
        -8.0529546576547417e-001 -9.0694113536081511e-001</alpha>
      <index>
        4 5 6 7 8 9 10 43 44 45 46 47 48 49</index></_>
    <_>
      <sv_count>11</sv_count>
      <rho>2.0909939745983316e-001</rho>
      <alpha>
        1.2055929906876470e+000 1.2053947321211163e+000
        1.2935829964221706e+000 1.2137803804362672e+000
        -7.0555137331196094e-001 -6.6782031732181879e-001
        -7.7076881308810796e-001 -6.0998085511636313e-001
        -7.9091672187036821e-001 -7.6669381643222201e-001
        -6.0661920252635992e-001</alpha>
      <index>
        11 12 13 14 15 16 17 18 19 20 21</index></_>
    <_>
      <sv_count>8</sv_count>
      <rho>1.1535342782786134e-003</rho>
      <alpha>
        9.9861419872451285e-001 9.9748603447217199e-001
        9.9821926571435948e-001 9.9916300001843539e-001
        -9.9718591639921983e-001 -9.9989416072425785e-001
        -9.9724260309152879e-001 -9.9915981871447324e-001</alpha>
      <index>
        11 12 13 14 22 23 24 25</index></_>
    <_>
      <sv_count>8</sv_count>
      <rho>1.0359448521329846e-003</rho>
      <alpha>
        9.9907405739565203e-001 9.9765199953704808e-001
        9.9893679367165522e-001 9.9939193392401926e-001
        -1.0015162949774816e+000 -9.9728060831710075e-001
        -9.9687621045093322e-001 -9.9938167078285867e-001</alpha>
      <index>
        11 12 13 14 26 27 28 29</index></_>
    <_>
      <sv_count>9</sv_count>
      <rho>8.8932362635448473e-002</rho>
      <alpha>
        1.0893642459172390e+000 1.0855282272043809e+000
        1.0868148874132582e+000 1.0872004259762815e+000
        -8.8172065969798163e-001 -9.0606810625992551e-001
        -8.5673249171718857e-001 -8.3161086216922064e-001
        -8.7277566666684314e-001</alpha>
      <index>
        11 12 13 14 30 31 32 33 34</index></_>
    <_>
      <sv_count>8</sv_count>
      <rho>1.3051376841169465e-003</rho>
      <alpha>
        9.9985239309574381e-001 9.9879426309526476e-001
        1.0008549947941927e+000 1.0019210326038988e+000
        -1.0001606033505923e+000 -9.9969586181496073e-001
        -1.0030545679764675e+000 -9.9851165044707957e-001</alpha>
      <index>
        11 12 13 14 35 36 37 38</index></_>
    <_>
      <sv_count>8</sv_count>
      <rho>-4.5500746455987576e-002</rho>
      <alpha>
        9.6147819300501880e-001 9.5222890052570697e-001
        9.7522895747732552e-001 9.5321828475984072e-001
        -8.9486778243809972e-001 -1.0183026523872523e+000
        -9.0485713353208241e-001 -1.0241267674104571e+000</alpha>
      <index>
        11 12 13 14 39 40 41 42</index></_>
    <_>
      <sv_count>11</sv_count>
      <rho>2.2812270355799508e-001</rho>
      <alpha>
        1.2249053839905191e+000 1.2237693239994434e+000
        1.2260467629859213e+000 1.2262077956718860e+000
        -6.8182466525407415e-001 -6.2260581173541296e-001
        -7.5281843933466419e-001 -6.6820858789066273e-001
        -7.1678001473279529e-001 -6.8619372502019560e-001
        -7.7249802267996459e-001</alpha>
      <index>
        11 12 13 14 43 44 45 46 47 48 49</index></_>
    <_>
      <sv_count>11</sv_count>
      <rho>-2.0328298408953913e-001</rho>
      <alpha>
        6.5471866585363658e-001 6.6339051637858149e-001
        7.7287917833827435e-001 5.3870308177742043e-001
        7.9544889484259262e-001 7.7234819251780984e-001
        6.1327418153463875e-001 -1.2013050066804027e+000
        -1.2031657390904151e+000 -1.2011419966790566e+000
        -1.2051499687930800e+000</alpha>
      <index>
        15 16 17 18 19 20 21 22 23 24 25</index></_>
    <_>
      <sv_count>11</sv_count>
      <rho>-2.0433461320401386e-001</rho>
      <alpha>
        6.6437708193134759e-001 6.6469322736710401e-001
        7.7161337366135008e-001 5.4601731876434934e-001
        7.9381481314138236e-001 7.7150521702262920e-001
        6.1998113061025895e-001 -1.2242029950310276e+000
        -1.2022677025302706e+000 -1.2016735307945454e+000
        -1.2038579341425779e+000</alpha>
      <index>
        15 16 17 18 19 20 21 26 27 28 29</index></_>
    <_>
      <sv_count>12</sv_count>
      <rho>-1.1778890004712450e-001</rho>
      <alpha>
        7.2740632124407467e-001 7.3595366306837184e-001
        8.5566183161677445e-001 5.9645481721178373e-001
        8.7987288589436785e-001 8.5536322541429766e-001
        6.8021578809714189e-001 -1.0815042764205434e+000
        -1.1115497501049050e+000 -1.0508605986221082e+000
        -1.0178474523413537e+000 -1.0691664550579023e+000</alpha>
      <index>
        15 16 17 18 19 20 21 30 31 32 33 34</index></_>
    <_>
      <sv_count>11</sv_count>
      <rho>-2.0348905931931005e-001</rho>
      <alpha>
        6.5815153698032458e-001 6.6454228969815665e-001
        7.7256170810105929e-001 5.3993150328975459e-001
        7.9898798554766137e-001 7.7233132264562121e-001
        6.1346417263787223e-001 -1.2052911788756793e+000
        -1.2035440787722180e+000 -1.2063751230833681e+000
        -1.2047601381691853e+000</alpha>
      <index>
        15 16 17 18 19 20 21 35 36 37 38</index></_>
    <_>
      <sv_count>11</sv_count>
      <rho>-2.4952825237199530e-001</rho>
      <alpha>
        6.4712661744630884e-001 6.3733651368675259e-001
        7.2797941361590723e-001 5.1173566239496782e-001
        7.4930082850638913e-001 7.2732317447289918e-001
        5.8782341321033393e-001 -1.0619717226457226e+000
        -1.2161952424957925e+000 -1.0821912719875146e+000
        -1.2282673862045288e+000</alpha>
      <index>
        15 16 17 18 19 20 21 39 40 41 42</index></_>
    <_>
      <sv_count>14</sv_count>
      <rho>2.4855131749704443e-002</rho>
      <alpha>
        8.4786463353258812e-001 8.6073823889338552e-001
        9.9479624277416356e-001 6.9519776825082069e-001
        1.0226870935257844e+000 9.9413780375100347e-001
        7.9426332493733454e-001 -8.6360890640300580e-001
        -7.8763102447015720e-001 -9.5053021658566750e-001
        -8.4676624439650805e-001 -9.0714177531314533e-001
        -8.7360088322758866e-001 -9.8040605526900759e-001</alpha>
      <index>
        15 16 17 18 19 20 21 43 44 45 46 47 48 49</index></_>
    <_>
      <sv_count>8</sv_count>
      <rho>-1.1755031224040025e-004</rho>
      <alpha>
        9.9820944071071560e-001 1.0011378193130522e+000
        9.9794381362318685e-001 9.9997094417009014e-001
        -1.0000918479158993e+000 -9.9851866416214397e-001
        -9.9854719705466177e-001 -1.0001043086843397e+000</alpha>
      <index>
        22 23 24 25 26 27 28 29</index></_>
    <_>
      <sv_count>9</sv_count>
      <rho>8.7674842883392626e-002</rho>
      <alpha>
        1.0858586181393231e+000 1.0895881734641455e+000
        1.0856814880152850e+000 1.0877271584514501e+000
        -8.8066026592108837e-001 -9.0691194288915344e-001
        -8.5757396437665445e-001 -8.3174177272285443e-001
        -8.7196749216045266e-001</alpha>
      <index>
        22 23 24 25 30 31 32 33 34</index></_>
    <_>
      <sv_count>8</sv_count>
      <rho>1.5285694969724797e-004</rho>
      <alpha>
        9.9851969058325529e-001 1.0008242579833799e+000
        9.9849504903060482e-001 1.0219196715313330e+000
        -9.9969236112954318e-001 -1.0004744914153512e+000
        -9.9949966942580915e-001 -1.0200921471578697e+000</alpha>
      <index>
        22 23 24 25 35 36 37 38</index></_>
    <_>
      <sv_count>8</sv_count>
      <rho>-4.6321741325908883e-002</rho>
      <alpha>
        9.5207083604825771e-001 9.5555705152780690e-001
        9.5190677917887523e-001 9.5520915998101397e-001
        -8.8654236193164271e-001 -1.0112358650958075e+000
        -8.9898874059815514e-001 -1.0179768591103489e+000</alpha>
      <index>
        22 23 24 25 39 40 41 42</index></_>
    <_>
      <sv_count>11</sv_count>
      <rho>2.2731812800960779e-001</rho>
      <alpha>
        1.2252484622893054e+000 1.2274373829940488e+000
        1.2249200505167106e+000 1.2366067544076844e+000
        -6.8564331933292488e-001 -6.2295492288532639e-001
        -7.5268435950775281e-001 -6.6776166970446293e-001
        -7.1677440562909001e-001 -6.9577018836511595e-001
        -7.7262378478307669e-001</alpha>
      <index>
        22 23 24 25 43 44 45 46 47 48 49</index></_>
    <_>
      <sv_count>9</sv_count>
      <rho>8.7861011230157063e-002</rho>
      <alpha>
        1.0926458245856085e+000 1.0859979347771080e+000
        1.0854525472784919e+000 1.0875934518748256e+000
        -8.8322505852338351e-001 -9.0680833494309265e-001
        -8.5764779572613115e-001 -8.3087248569104022e-001
        -8.7313608363238637e-001</alpha>
      <index>
        26 27 28 29 30 31 32 33 34</index></_>
    <_>
      <sv_count>8</sv_count>
      <rho>2.6845204006343041e-004</rho>
      <alpha>
        1.0015887319538230e+000 9.9854741465028740e-001
        1.0003412421035203e+000 9.9973429573652939e-001
        -9.9958874703360701e-001 -1.0020418621592782e+000
        -9.9919189725145752e-001 -9.9938917799981764e-001</alpha>
      <index>
        26 27 28 29 35 36 37 38</index></_>
    <_>
      <sv_count>8</sv_count>
      <rho>-4.6277117121062722e-002</rho>
      <alpha>
        9.5577926270763380e-001 9.5305846923895166e-001
        9.5239407195003412e-001 9.5915863581472427e-001
        -8.9117171130871620e-001 -1.0121131043024032e+000
        -8.9837515518532207e-001 -1.0187304689149022e+000</alpha>
      <index>
        26 27 28 29 39 40 41 42</index></_>
    <_>
      <sv_count>11</sv_count>
      <rho>2.2708983450560394e-001</rho>
      <alpha>
        1.2295792462828647e+000 1.2250233057717204e+000
        1.2249549595789169e+000 1.2265193296215533e+000
        -6.8245909668091875e-001 -6.2416654028716723e-001
        -7.5301787939218812e-001 -6.6806020690743628e-001
        -7.1822978053413367e-001 -6.8675463809677850e-001
        -7.7338869935643262e-001</alpha>
      <index>
        26 27 28 29 43 44 45 46 47 48 49</index></_>
    <_>
      <sv_count>9</sv_count>
      <rho>-8.7498392294358948e-002</rho>
      <alpha>
        8.8040708228745146e-001 9.0704456896685182e-001
        8.5773378061657646e-001 8.3064155212210722e-001
        8.7240521489939538e-001 -1.0870753675267049e+000
        -1.0875082461894994e+000 -1.0873694918392187e+000
        -1.0862790933369597e+000</alpha>
      <index>
        30 31 32 33 34 35 36 37 38</index></_>
    <_>
      <sv_count>9</sv_count>
      <rho>-1.3383524457556051e-001</rho>
      <alpha>
        8.3741486893946626e-001 8.6283574593305767e-001
        8.1471880833330279e-001 8.0038756237836883e-001
        8.2801277666833550e-001 -9.6128260684308042e-001
        -1.0955792340881512e+000 -9.7694343377365400e-001
        -1.1095644875476456e+000</alpha>
      <index>
        30 31 32 33 34 39 40 41 42</index></_>
    <_>
      <sv_count>12</sv_count>
      <rho>1.4212363312490364e-001</rho>
      <alpha>
        1.1021145583995278e+000 1.1359263248044378e+000
        1.0747873406755859e+000 1.0411360307960498e+000
        1.0918984052975647e+000 -7.5728696021261854e-001
        -6.9224848211227186e-001 -8.3795939800195829e-001
        -7.4140483626873765e-001 -7.9630703364772915e-001
        -7.6189951310884718e-001 -8.5875643662100332e-001</alpha>
      <index>
        30 31 32 33 34 43 44 45 46 47 48 49</index></_>
    <_>
      <sv_count>8</sv_count>
      <rho>-4.6554796918561445e-002</rho>
      <alpha>
        9.6219731146226151e-001 9.5345931730246913e-001
        9.5405093251523831e-001 9.5293212019247242e-001
        -8.8837675508420633e-001 -1.0111614136261795e+000
        -9.0071600773479565e-001 -1.0223855050272601e+000</alpha>
      <index>
        35 36 37 38 39 40 41 42</index></_>
    <_>
      <sv_count>11</sv_count>
      <rho>2.2981291937761938e-001</rho>
      <alpha>
        1.2757355907069736e+000 1.2299675861626196e+000
        1.2298195429236614e+000 1.2362758921253600e+000
        -6.8733434464890653e-001 -6.3303348382957603e-001
        -7.5269848619453283e-001 -7.0778571949329960e-001
        -7.2064762292449802e-001 -7.0020259617995362e-001
        -7.7009635864784853e-001</alpha>
      <index>
        35 36 37 38 43 44 45 46 47 48 49</index></_>
    <_>
      <sv_count>11</sv_count>
      <rho>2.7340175543051892e-001</rho>
      <alpha>
        1.0862766314494774e+000 1.2441258895960385e+000
        1.0998616058200867e+000 1.2516785322154251e+000
        -6.5292258613539533e-001 -6.0185320410522192e-001
        -7.2092249351679716e-001 -6.4630002763087180e-001
        -6.8333287937479992e-001 -6.4944513047269314e-001
        -7.2716633784524887e-001</alpha>
      <index>
        39 40 41 42 43 44 45 46 47 48 49</index></_></decision_functions></my_svm>
</opencv_storage>
